booster[0]:
0:[zscore.contact.from.enhancer<0.404506713] yes=1,no=2,missing=1
	1:[distance<0.0260130316] yes=3,no=4,missing=3
		3:[TSS.count.near.enhancer<0.160465121] yes=7,no=8,missing=7
			7:leaf=0.00858425349
			8:leaf=-0.0299999993
		4:[zscore.contact.from.enhancer<0.331596971] yes=9,no=10,missing=9
			9:leaf=-0.0299999993
			10:leaf=-0.013403072
	2:[TF_NMF1_e<0.179835632] yes=5,no=6,missing=5
		5:[distance<0.00413988531] yes=11,no=12,missing=11
			11:leaf=0.0182681326
			12:leaf=-0.0239314828
		6:[diff.from.max.contact.to.TSS<0.762708783] yes=13,no=14,missing=13
			13:leaf=-0.0049624308
			14:leaf=0.0299999993
booster[1]:
0:[diff.from.max.contact.from.enhancer<0.999645591] yes=1,no=2,missing=1
	1:[distance<0.0224196278] yes=3,no=4,missing=3
		3:[TSS.count.near.enhancer<0.160465121] yes=7,no=8,missing=7
			7:leaf=0.0299999993
			8:leaf=-0.0299999993
		4:leaf=-0.0299999993
	2:[H3K27ac.RPKM.quantile_TSS<0.85044682] yes=5,no=6,missing=5
		5:[normalized_h3K27ac_e<0.0385638289] yes=11,no=12,missing=11
			11:leaf=-0.0208728202
			12:leaf=0.0174429975
		6:[NUFIP1_e<0.25] yes=13,no=14,missing=13
			13:leaf=-0.0299999993
			14:leaf=0.00961031113
booster[2]:
0:[diff.from.max.contact.from.enhancer<0.999649107] yes=1,no=2,missing=1
	1:leaf=-0.0299999993
	2:[TF_NMF1_TSS<0.242665067] yes=5,no=6,missing=5
		5:[GATA2_e<0.25] yes=7,no=8,missing=7
			7:leaf=-0.000993740861
			8:leaf=0.0281104017
		6:[diff.from.max.contact.to.TSS<0.897607207] yes=9,no=10,missing=9
			9:leaf=-0.0299999993
			10:leaf=0.00463152537
booster[3]:
0:[zscore.contact.from.enhancer<0.327606082] yes=1,no=2,missing=1
	1:[distance<0.0293641798] yes=3,no=4,missing=3
		3:[FOXM1_e<0.25] yes=7,no=8,missing=7
			7:leaf=-0.0299999993
			8:leaf=0.0118537555
		4:[TSS.count.near.enhancer<0.0348837227] yes=9,no=10,missing=9
			9:leaf=0.0123850983
			10:leaf=-0.0299999993
	2:[TF_NMF1_TSS<0.266653538] yes=5,no=6,missing=5
		5:[ARNT_e<0.25] yes=11,no=12,missing=11
			11:leaf=-0.00655948091
			12:leaf=0.0290986672
		6:[TF_NMF3_e<0.309293032] yes=13,no=14,missing=13
			13:leaf=-0.0299999993
			14:leaf=0.0105297118
booster[4]:
0:[hic_contact<0.0875955448] yes=1,no=2,missing=1
	1:[distance<0.0164894164] yes=3,no=4,missing=3
		3:leaf=0.0109142167
		4:[zscore.contact.from.enhancer<0.366609812] yes=7,no=8,missing=7
			7:leaf=-0.0299999993
			8:leaf=-0.0161246508
	2:[diff.from.max.contact.from.enhancer<0.999583125] yes=5,no=6,missing=5
		5:[GATA2_e<0.25] yes=9,no=10,missing=9
			9:leaf=-0.0299999993
			10:leaf=0.00822391454
		6:[TF_NMF1_e<0.0774637014] yes=11,no=12,missing=11
			11:leaf=4.40074909e-05
			12:leaf=0.0298580471
booster[5]:
0:[hic_contact<0.0766275078] yes=1,no=2,missing=1
	1:[hic_contact<0.0613553599] yes=3,no=4,missing=3
		3:leaf=-0.0299999993
		4:[zscore.contact.to.TSS<0.0734295398] yes=9,no=10,missing=9
			9:leaf=0.0241914801
			10:leaf=-0.0299120154
	2:[TF_NMF1_e<0.170232907] yes=5,no=6,missing=5
		5:[TSS.count.near.enhancer<0.179069772] yes=11,no=12,missing=11
			11:leaf=0.0116396267
			12:leaf=-0.0261137486
		6:[diff.from.max.contact.from.enhancer<0.960036039] yes=13,no=14,missing=13
			13:leaf=-0.0069772494
			14:leaf=0.0299999993
booster[6]:
0:[hic_contact<0.08275792] yes=1,no=2,missing=1
	1:[Enhancer.count.near.TSS<0.0340057611] yes=3,no=4,missing=3
		3:leaf=0.0073822937
		4:[hic_contact<0.0613451004] yes=7,no=8,missing=7
			7:leaf=-0.0299999993
			8:leaf=-0.0185753051
	2:[POLR2A_e<0.25] yes=5,no=6,missing=5
		5:[Enhancer.count.near.TSS<0.220172912] yes=9,no=10,missing=9
			9:leaf=0.0154357888
			10:leaf=-0.0299999993
		6:[ELF1_TSS<0.25] yes=11,no=12,missing=11
			11:leaf=0.0245431941
			12:leaf=-0.00442510517
booster[7]:
0:[diff.from.max.contact.from.enhancer<0.999649107] yes=1,no=2,missing=1
	1:[distance<0.0208361372] yes=3,no=4,missing=3
		3:[hic_contact<0.0994664729] yes=7,no=8,missing=7
			7:leaf=0.00961054303
			8:leaf=-0.0299999993
		4:leaf=-0.0299999993
	2:[IRF1_e<0.166666672] yes=5,no=6,missing=5
		5:[hic_contact<0.0824654996] yes=11,no=12,missing=11
			11:leaf=-0.0299999993
			12:leaf=0.00142810552
		6:[TF_NMF1_e<0.088019684] yes=13,no=14,missing=13
			13:leaf=-0.00963045284
			14:leaf=0.0299999993
booster[8]:
0:[zscore.contact.from.enhancer<0.376942217] yes=1,no=2,missing=1
	1:[diff.from.max.contact.to.TSS<0.844070375] yes=3,no=4,missing=3
		3:[TF_NMF3_e<0.846491098] yes=7,no=8,missing=7
			7:leaf=-0.0299999993
			8:leaf=-0.00223727012
		4:[hic_contact<0.0177550912] yes=9,no=10,missing=9
			9:leaf=-0.0299999993
			10:leaf=0.00753810676
	2:[normalized_h3K27ac_e<0.0359042659] yes=5,no=6,missing=5
		5:[TF_NMF5_TSS<0.218640581] yes=11,no=12,missing=11
			11:leaf=-0.0299999993
			12:leaf=0.000248161028
		6:[TF_NMF1_e<0.170232907] yes=13,no=14,missing=13
			13:leaf=0.00595119223
			14:leaf=0.0299999993
booster[9]:
0:[zscore.contact.from.enhancer<0.327606082] yes=1,no=2,missing=1
	1:[distance<0.0250387117] yes=3,no=4,missing=3
		3:[zscore.contact.to.TSS<0.120805547] yes=7,no=8,missing=7
			7:leaf=0.0122271245
			8:leaf=-0.0299999993
		4:leaf=-0.0299999993
	2:[TF_NMF1_TSS<0.139191985] yes=5,no=6,missing=5
		5:[normalized_h3K4me3_e<0.038732402] yes=11,no=12,missing=11
			11:leaf=-0.0103198467
			12:leaf=0.0212384798
		6:[STAT1_e<0.25] yes=13,no=14,missing=13
			13:leaf=-0.0295504946
			14:leaf=0.0120359864
booster[10]:
0:[distance<0.0313439891] yes=1,no=2,missing=1
	1:[TF_NMF1_e<0.193760291] yes=3,no=4,missing=3
		3:[distance<0.00743968133] yes=7,no=8,missing=7
			7:leaf=0.00830197148
			8:leaf=-0.0241904054
		4:[TF_NMF1_TSS<0.293905973] yes=9,no=10,missing=9
			9:leaf=0.0299999993
			10:leaf=-0.0119956397
	2:[zscore.contact.to.TSS<0.0998478234] yes=5,no=6,missing=5
		5:leaf=-0.0299999993
		6:[TF_NMF1_e<0.183039129] yes=13,no=14,missing=13
			13:leaf=-0.0299999993
			14:leaf=0.00769166974
booster[11]:
0:[zscore.contact.from.enhancer<0.376996517] yes=1,no=2,missing=1
	1:[diff.from.max.contact.to.TSS<0.845686555] yes=3,no=4,missing=3
		3:[Enhancer.count.near.TSS<0.0340057611] yes=7,no=8,missing=7
			7:leaf=-0.0029194532
			8:leaf=-0.0299999993
		4:[ZBTB7A_TSS<0.5] yes=9,no=10,missing=9
			9:leaf=-0.0202907901
			10:leaf=0.0299999993
	2:[TF_NMF1_TSS<0.107902572] yes=5,no=6,missing=5
		5:[KLF16_e<0.25] yes=11,no=12,missing=11
			11:leaf=0.00779183023
			12:leaf=0.0299999993
		6:[hic_contact<0.201790392] yes=13,no=14,missing=13
			13:leaf=-0.0299999993
			14:leaf=0.00765544455
booster[12]:
0:[diff.from.max.contact.from.enhancer<0.999753356] yes=1,no=2,missing=1
	1:[TF_NMF8_e<0.566669226] yes=3,no=4,missing=3
		3:[distance<0.0224235244] yes=7,no=8,missing=7
			7:leaf=-0.0159540065
			8:leaf=-0.0299999993
		4:leaf=-0.00262497715
	2:[MYC_e<0.166666672] yes=5,no=6,missing=5
		5:[hic_contact<0.0820756182] yes=9,no=10,missing=9
			9:leaf=-0.0299999993
			10:leaf=-0.00640658522
		6:[TF_NMF1_TSS<0.212917134] yes=11,no=12,missing=11
			11:leaf=0.022855781
			12:leaf=-0.0142666716
booster[13]:
0:[hic_contact<0.0613553599] yes=1,no=2,missing=1
	1:[Enhancer.count.near.TSS<0.0331412107] yes=3,no=4,missing=3
		3:leaf=0.0073149153
		4:[TF_NMF8_e<0.566669226] yes=7,no=8,missing=7
			7:leaf=-0.0299999993
			8:leaf=0.00214926293
	2:[TF_NMF1_e<0.180379197] yes=5,no=6,missing=5
		5:[hic_contact<0.195326537] yes=9,no=10,missing=9
			9:leaf=-0.0239636097
			10:leaf=0.0109626278
		6:[TF_NMF1_TSS<0.268860102] yes=11,no=12,missing=11
			11:leaf=0.0299999993
			12:leaf=-0.0125505812
booster[14]:
0:[diff.from.max.contact.from.enhancer<0.999993086] yes=1,no=2,missing=1
	1:[distance<0.0260204673] yes=3,no=4,missing=3
		3:[TBP_TSS<0.166666672] yes=7,no=8,missing=7
			7:leaf=0.0132196695
			8:leaf=-0.028320225
		4:leaf=-0.0299999993
	2:[TF_NMF1_e<0.0774637014] yes=5,no=6,missing=5
		5:[H3K27ac.RPKM.quantile_TSS<0.750885367] yes=11,no=12,missing=11
			11:leaf=-0.00340104173
			12:leaf=-0.0299999993
		6:[TF_NMF1_TSS<0.235953912] yes=13,no=14,missing=13
			13:leaf=0.0240165535
			14:leaf=-0.0125323124
booster[15]:
0:[hic_contact<0.064428255] yes=1,no=2,missing=1
	1:[TF_NMF8_e<0.566669226] yes=3,no=4,missing=3
		3:[diff.from.max.contact.from.enhancer<0.999649107] yes=7,no=8,missing=7
			7:leaf=-0.0299999993
			8:leaf=-0.0175280459
		4:leaf=0.00494032679
	2:[TF_NMF1_TSS<0.21314466] yes=5,no=6,missing=5
		5:[TF_NMF1_e<0.221318394] yes=9,no=10,missing=9
			9:leaf=0.00250992225
			10:leaf=0.0299999993
		6:[TF_NMF1_e<0.24745822] yes=11,no=12,missing=11
			11:leaf=-0.0299999993
			12:leaf=0.00203653798
booster[16]:
0:[diff.from.max.contact.from.enhancer<0.999649107] yes=1,no=2,missing=1
	1:[Enhancer.count.near.TSS<0.0354466848] yes=3,no=4,missing=3
		3:leaf=0.00562698906
		4:[TF_NMF3_e<0.80785346] yes=7,no=8,missing=7
			7:leaf=-0.0299999993
			8:leaf=-0.0068546664
	2:[IRF1_e<0.166666672] yes=5,no=6,missing=5
		5:[hic_contact<0.192181811] yes=9,no=10,missing=9
			9:leaf=-0.0259752646
			10:leaf=0.0130035793
		6:[KLF16_e<0.25] yes=11,no=12,missing=11
			11:leaf=0.00417552702
			12:leaf=0.0272342805
booster[17]:
0:[zscore.contact.from.enhancer<0.336341977] yes=1,no=2,missing=1
	1:[distance<0.0260130316] yes=3,no=4,missing=3
		3:[TSS.count.near.enhancer<0.162790701] yes=7,no=8,missing=7
			7:leaf=0.0215063319
			8:leaf=-0.0286073107
		4:[TSS.count.near.enhancer<0.0348837227] yes=9,no=10,missing=9
			9:leaf=0.0144283008
			10:leaf=-0.0299999993
	2:[normalized_h3K4me3_e<0.045774661] yes=5,no=6,missing=5
		5:[TSS.count.near.enhancer<0.193023264] yes=11,no=12,missing=11
			11:leaf=0.00618807785
			12:leaf=-0.0299999993
		6:[H3K27ac.RPKM.quantile_TSS<0.84977746] yes=13,no=14,missing=13
			13:leaf=0.0172919817
			14:leaf=-0.0173254237
booster[18]:
0:[zscore.contact.from.enhancer<0.327576578] yes=1,no=2,missing=1
	1:[distance<0.0293655992] yes=3,no=4,missing=3
		3:[CBFA2T2_e<0.25] yes=7,no=8,missing=7
			7:leaf=-0.0299999993
			8:leaf=0.0141688492
		4:[XRCC3_TSS<0.5] yes=9,no=10,missing=9
			9:leaf=-0.0299999993
			10:leaf=-0.0112829888
	2:[normalized_h3K27ac_e<0.025265947] yes=5,no=6,missing=5
		5:leaf=-0.0299999993
		6:[TF_NMF1_TSS<0.133553848] yes=13,no=14,missing=13
			13:leaf=0.0189593211
			14:leaf=-0.00689178146
booster[19]:
0:[distance<0.0313439891] yes=1,no=2,missing=1
	1:[TCF12_e<0.25] yes=3,no=4,missing=3
		3:[TF_NMF4_TSS<0.0400704518] yes=7,no=8,missing=7
			7:leaf=0.000488898659
			8:leaf=-0.0299999993
		4:[Enhancer.count.near.TSS<0.232853025] yes=9,no=10,missing=9
			9:leaf=0.0299999993
			10:leaf=0.00296993065
	2:[zscore.contact.to.TSS<0.0966656879] yes=5,no=6,missing=5
		5:[Enhancer.count.near.TSS<0.0331412107] yes=11,no=12,missing=11
			11:leaf=0.00678237295
			12:leaf=-0.0299999993
		6:[Enhancer.count.near.TSS<0.30230546] yes=13,no=14,missing=13
			13:leaf=0.0130578801
			14:leaf=-0.0289369039
booster[20]:
0:[diff.from.max.contact.from.enhancer<0.999649107] yes=1,no=2,missing=1
	1:[distance<0.0260130316] yes=3,no=4,missing=3
		3:[TF_NMF1_e<0.332715273] yes=7,no=8,missing=7
			7:leaf=-0.0238235407
			8:leaf=0.0299866628
		4:leaf=-0.0299999993
	2:[TF_NMF1_TSS<0.151435941] yes=5,no=6,missing=5
		5:[TF_NMF1_e<0.131081074] yes=11,no=12,missing=11
			11:leaf=-0.00521500222
			12:leaf=0.0274180379
		6:[TF_NMF11_TSS<0.00465291506] yes=13,no=14,missing=13
			13:leaf=0.000551242207
			14:leaf=-0.0299999993
booster[21]:
0:[zscore.contact.from.enhancer<0.327489555] yes=1,no=2,missing=1
	1:[distance<0.0293641798] yes=3,no=4,missing=3
		3:[Enhancer.count.near.TSS<0.176945239] yes=7,no=8,missing=7
			7:leaf=0.0226119943
			8:leaf=-0.0280081946
		4:[XRCC3_TSS<0.5] yes=9,no=10,missing=9
			9:leaf=-0.0299999993
			10:leaf=-0.0106025599
	2:[normalized_h3K27ac_e<0.0438829735] yes=5,no=6,missing=5
		5:[distance<0.00650113262] yes=11,no=12,missing=11
			11:leaf=0.00676970603
			12:leaf=-0.0299999993
		6:[TF_NMF10_TSS<0.393700123] yes=13,no=14,missing=13
			13:leaf=0.00241455715
			14:leaf=0.0240042377
booster[22]:
0:[hic_contact<0.0630482733] yes=1,no=2,missing=1
	1:[Enhancer.count.near.TSS<0.0331412107] yes=3,no=4,missing=3
		3:leaf=0.00734854909
		4:[TF_NMF5_TSS<0.911403537] yes=7,no=8,missing=7
			7:leaf=-0.0299999993
			8:leaf=0.00229153316
	2:[TF_NMF10_TSS<0.364622265] yes=5,no=6,missing=5
		5:[TSS.count.near.enhancer<0.183720931] yes=9,no=10,missing=9
			9:leaf=0.00997135974
			10:leaf=-0.0198031701
		6:[GATA2_e<0.25] yes=11,no=12,missing=11
			11:leaf=-0.000181932483
			12:leaf=0.0299999993
booster[23]:
0:[diff.from.max.contact.from.enhancer<0.999993086] yes=1,no=2,missing=1
	1:[hic_contact<0.0791668817] yes=3,no=4,missing=3
		3:[Enhancer.count.near.TSS<0.0360230543] yes=7,no=8,missing=7
			7:leaf=0.00718420418
			8:leaf=-0.0299999993
		4:[remaining.TSS.contact.from.enhancer<0.160790771] yes=9,no=10,missing=9
			9:leaf=0.025545897
			10:leaf=-0.0299999993
	2:[TF_NMF1_TSS<0.151044846] yes=5,no=6,missing=5
		5:[TargetGeneExpression<0.408839822] yes=11,no=12,missing=11
			11:leaf=0.0058930954
			12:leaf=0.0299999993
		6:[TF_NMF7_TSS<0.120585531] yes=13,no=14,missing=13
			13:leaf=0.00427894434
			14:leaf=-0.0299999993
booster[24]:
0:[hic_contact<0.0633201674] yes=1,no=2,missing=1
	1:[zscore.contact.from.enhancer<0.331496239] yes=3,no=4,missing=3
		3:[XRCC3_TSS<0.5] yes=7,no=8,missing=7
			7:leaf=-0.0299999993
			8:leaf=-0.0102410801
		4:[TF_NMF1_e<0.335517764] yes=9,no=10,missing=9
			9:leaf=-0.02990341
			10:leaf=0.0257977527
	2:[TF_NMF1_TSS<0.196980447] yes=5,no=6,missing=5
		5:[Enhancer.count.near.TSS<0.300000012] yes=11,no=12,missing=11
			11:leaf=0.0265980866
			12:leaf=-0.00497794198
		6:[zscore.contact.from.enhancer<0.531807125] yes=13,no=14,missing=13
			13:leaf=-0.0297733527
			14:leaf=0.00960555486
booster[25]:
0:[hic_contact<0.0640588924] yes=1,no=2,missing=1
	1:[Enhancer.count.near.TSS<0.0331412107] yes=3,no=4,missing=3
		3:leaf=0.00561448978
		4:[hic_contact<0.0518493801] yes=7,no=8,missing=7
			7:leaf=-0.0299999993
			8:leaf=-0.0146506699
	2:[remaining.TSS.contact.from.enhancer<0.174599737] yes=5,no=6,missing=5
		5:[TargetGeneExpression<0.392516255] yes=9,no=10,missing=9
			9:leaf=0.00220333482
			10:leaf=0.0299999993
		6:[hic_contact<0.275986254] yes=11,no=12,missing=11
			11:leaf=-0.0299999993
			12:leaf=0.0194726363
booster[26]:
0:[diff.from.max.contact.from.enhancer<0.999645591] yes=1,no=2,missing=1
	1:[TF_NMF3_e<0.846491098] yes=3,no=4,missing=3
		3:[diff.from.max.contact.to.TSS<0.849983931] yes=7,no=8,missing=7
			7:leaf=-0.0299999993
			8:leaf=-0.00788508262
		4:leaf=0.00431602215
	2:[STAT1_e<0.25] yes=5,no=6,missing=5
		5:[zscore.contact.from.enhancer<0.323494852] yes=9,no=10,missing=9
			9:leaf=-0.0299999993
			10:leaf=0.00319719501
		6:[TF_NMF3_e<0.0464908332] yes=11,no=12,missing=11
			11:leaf=0.00296736136
			12:leaf=0.0299999993
booster[27]:
0:[diff.from.max.contact.from.enhancer<0.999645591] yes=1,no=2,missing=1
	1:[distance<0.0404252447] yes=3,no=4,missing=3
		3:[Enhancer.count.near.TSS<0.2907781] yes=7,no=8,missing=7
			7:leaf=0.0107754394
			8:leaf=-0.0280718636
		4:[ZNF318_TSS<0.75] yes=9,no=10,missing=9
			9:leaf=-0.0299999993
			10:leaf=0.00304710725
	2:[distance<0.115205273] yes=5,no=6,missing=5
		5:[NCOR1_e<0.166666672] yes=11,no=12,missing=11
			11:leaf=-0.0104755731
			12:leaf=0.0160714649
		6:leaf=-0.0299999993
booster[28]:
0:[diff.from.max.contact.from.enhancer<0.999746382] yes=1,no=2,missing=1
	1:[distance<0.0293641798] yes=3,no=4,missing=3
		3:[TSS.count.near.enhancer<0.160465121] yes=7,no=8,missing=7
			7:leaf=0.0277423933
			8:leaf=-0.027147796
		4:[zscore.contact.from.enhancer<0.339442402] yes=9,no=10,missing=9
			9:leaf=-0.0299999993
			10:leaf=-0.0102043943
	2:[distance<0.00871575437] yes=5,no=6,missing=5
		5:[NCOA1_e<0.25] yes=11,no=12,missing=11
			11:leaf=0.00717579247
			12:leaf=0.0286531225
		6:[TF_NMF1_TSS<0.172843486] yes=13,no=14,missing=13
			13:leaf=0.00478077587
			14:leaf=-0.0299999993
booster[29]:
0:[diff.from.max.contact.from.enhancer<0.999645591] yes=1,no=2,missing=1
	1:[distance<0.0287167579] yes=3,no=4,missing=3
		3:[TSS.count.near.enhancer<0.160465121] yes=7,no=8,missing=7
			7:leaf=0.0299999993
			8:leaf=-0.0261050854
		4:[Enhancer.count.near.TSS<0.0354466848] yes=9,no=10,missing=9
			9:leaf=0.00839869399
			10:leaf=-0.0299999993
	2:[TF_NMF1_TSS<0.21314466] yes=5,no=6,missing=5
		5:[POLR2A_e<0.25] yes=11,no=12,missing=11
			11:leaf=-0.00549687166
			12:leaf=0.0228958949
		6:[TF_NMF7_TSS<0.032423526] yes=13,no=14,missing=13
			13:leaf=0.0103111099
			14:leaf=-0.0285858139
booster[30]:
0:[hic_contact<0.0506079122] yes=1,no=2,missing=1
	1:[ZNF274_e<0.5] yes=3,no=4,missing=3
		3:[STAT5A_TSS<0.5] yes=7,no=8,missing=7
			7:leaf=-0.0299999993
			8:leaf=-0.000561050314
		4:[ZNF384_e<0.25] yes=9,no=10,missing=9
			9:leaf=-0.0299999993
			10:leaf=-0.00634757429
	2:[remaining.enhancers.contact.to.TSS<0.209274977] yes=5,no=6,missing=5
		5:[normalized_h3K27ac_e<0.0837766081] yes=11,no=12,missing=11
			11:leaf=-0.00413898472
			12:leaf=0.0291451272
		6:[hic_contact<0.277771533] yes=13,no=14,missing=13
			13:leaf=-0.0202013776
			14:leaf=0.0210401211
booster[31]:
0:[diff.from.max.contact.from.enhancer<0.999749899] yes=1,no=2,missing=1
	1:[distance<0.0293641798] yes=3,no=4,missing=3
		3:[GATA2_e<0.25] yes=7,no=8,missing=7
			7:leaf=-0.0247171819
			8:leaf=0.017631717
		4:[AFF1_TSS<0.75] yes=9,no=10,missing=9
			9:leaf=-0.0299999993
			10:leaf=-0.0156049393
	2:[normalized_h3K4me3_e<0.045774661] yes=5,no=6,missing=5
		5:[TF_NMF10_TSS<0.349878132] yes=11,no=12,missing=11
			11:leaf=-0.0299999993
			12:leaf=-0.00105479918
		6:[H3K27ac.RPKM.quantile_TSS<0.85044682] yes=13,no=14,missing=13
			13:leaf=0.0188810546
			14:leaf=-0.0149564426
booster[32]:
0:[zscore.contact.from.enhancer<0.327606082] yes=1,no=2,missing=1
	1:[Enhancer.count.near.TSS<0.0340057611] yes=3,no=4,missing=3
		3:leaf=0.0163295772
		4:[distance<0.0206516143] yes=7,no=8,missing=7
			7:leaf=-0.00597948395
			8:leaf=-0.0299999993
	2:[Enhancer.count.near.TSS<0.309221894] yes=5,no=6,missing=5
		5:[normalized_dhs<0.0848254859] yes=9,no=10,missing=9
			9:leaf=0.00185743789
			10:leaf=0.0274757892
		6:[zscore.contact.from.enhancer<0.539031982] yes=11,no=12,missing=11
			11:leaf=-0.0299999993
			12:leaf=0.00739839207
booster[33]:
0:[diff.from.max.contact.from.enhancer<0.999645591] yes=1,no=2,missing=1
	1:[TF_NMF5_TSS<0.420642912] yes=3,no=4,missing=3
		3:[zscore.contact.to.TSS<0.0714248866] yes=7,no=8,missing=7
			7:leaf=-0.0299999993
			8:leaf=-0.017740475
		4:[TF_NMF11_TSS<0.173484176] yes=9,no=10,missing=9
			9:leaf=0.00850761589
			10:leaf=-0.0299999993
	2:[TF_NMF1_e<0.197251618] yes=5,no=6,missing=5
		5:[H3K27ac.RPKM.quantile_TSS<0.85044682] yes=11,no=12,missing=11
			11:leaf=-0.00151362817
			12:leaf=-0.0299999993
		6:[ZNF592_e<0.166666672] yes=13,no=14,missing=13
			13:leaf=-0.00192050857
			14:leaf=0.0238914322
booster[34]:
0:[diff.from.max.contact.from.enhancer<0.999649107] yes=1,no=2,missing=1
	1:[XRCC3_TSS<0.5] yes=3,no=4,missing=3
		3:[diff.from.max.contact.to.TSS<0.858982623] yes=7,no=8,missing=7
			7:leaf=-0.0299999993
			8:leaf=0.000579318439
		4:[GABPA_TSS<0.25] yes=9,no=10,missing=9
			9:leaf=-0.0299999993
			10:leaf=0.0180758238
	2:[normalized_h3K27ac_e<0.025265947] yes=5,no=6,missing=5
		5:leaf=-0.0299999993
		6:[TargetGeneExpression<0.368904352] yes=13,no=14,missing=13
			13:leaf=-0.00412842259
			14:leaf=0.0220997892
booster[35]:
0:[hic_contact<0.0630380139] yes=1,no=2,missing=1
	1:[Enhancer.count.near.TSS<0.0331412107] yes=3,no=4,missing=3
		3:leaf=0.0212810747
		4:[diff.from.max.contact.from.enhancer<0.999649107] yes=7,no=8,missing=7
			7:leaf=-0.0299999993
			8:leaf=-0.0131393149
	2:[TF_NMF1_TSS<0.196383446] yes=5,no=6,missing=5
		5:[Enhancer.count.near.TSS<0.304610968] yes=9,no=10,missing=9
			9:leaf=0.025660539
			10:leaf=-0.00592244463
		6:[FOXM1_e<0.25] yes=11,no=12,missing=11
			11:leaf=-0.0299999993
			12:leaf=-0.00106966717
booster[36]:
0:[diff.from.max.contact.from.enhancer<0.999645591] yes=1,no=2,missing=1
	1:[distance<0.0255798809] yes=3,no=4,missing=3
		3:[Enhancer.count.near.TSS<0.135158509] yes=7,no=8,missing=7
			7:leaf=0.0299999993
			8:leaf=-0.0136110261
		4:[TF_NMF5_TSS<0.38466984] yes=9,no=10,missing=9
			9:leaf=-0.0299999993
			10:leaf=-0.0117303263
	2:[TF_NMF1_e<0.123780057] yes=5,no=6,missing=5
		5:[distance<0.00668919645] yes=11,no=12,missing=11
			11:leaf=0.00952214748
			12:leaf=-0.0192227513
		6:[normalized_dhs<0.0911987573] yes=13,no=14,missing=13
			13:leaf=-0.00496380264
			14:leaf=0.0225680061
booster[37]:
0:[hic_contact<0.0476427451] yes=1,no=2,missing=1
	1:[Enhancer.count.near.TSS<0.0340057611] yes=3,no=4,missing=3
		3:leaf=0.013139436
		4:[TF_NMF3_e<0.589704394] yes=7,no=8,missing=7
			7:leaf=-0.0299999993
			8:leaf=-0.0148232169
	2:[remaining.TSS.contact.from.enhancer<0.0742372274] yes=5,no=6,missing=5
		5:[TF_NMF1_TSS<0.372525126] yes=9,no=10,missing=9
			9:leaf=0.0226442721
			10:leaf=-0.0220020637
		6:[hic_contact<0.214815587] yes=11,no=12,missing=11
			11:leaf=-0.0192228816
			12:leaf=0.0124779977
booster[38]:
0:[hic_contact<0.0598317347] yes=1,no=2,missing=1
	1:[HDAC6_TSS<0.166666672] yes=3,no=4,missing=3
		3:[CHAMP1_e<0.75] yes=7,no=8,missing=7
			7:leaf=-0.0299999993
			8:leaf=0.0168063119
		4:[TSS.count.near.enhancer<0.530232549] yes=9,no=10,missing=9
			9:leaf=-0.00180864881
			10:leaf=-0.0299999993
	2:[remaining.TSS.contact.from.enhancer<0.106867433] yes=5,no=6,missing=5
		5:[TargetGeneExpression<0.383458912] yes=11,no=12,missing=11
			11:leaf=0.00494575547
			12:leaf=0.0299999993
		6:[distance<0.00765962061] yes=13,no=14,missing=13
			13:leaf=0.0146783609
			14:leaf=-0.0204007886
booster[39]:
0:[zscore.contact.from.enhancer<0.327606082] yes=1,no=2,missing=1
	1:[TargetGeneExpression<0.66822648] yes=3,no=4,missing=3
		3:[Enhancer.count.near.TSS<0.0340057611] yes=7,no=8,missing=7
			7:leaf=0.00651806919
			8:leaf=-0.0299999993
		4:[TF_NMF1_TSS<0.146678746] yes=9,no=10,missing=9
			9:leaf=0.0184929855
			10:leaf=-0.0299999993
	2:[TF_NMF1_TSS<0.197830141] yes=5,no=6,missing=5
		5:[TargetGeneExpression<0.40110153] yes=11,no=12,missing=11
			11:leaf=0.000433083595
			12:leaf=0.0273361169
		6:[TF_NMF10_TSS<0.0735351741] yes=13,no=14,missing=13
			13:leaf=0.00282508461
			14:leaf=-0.0299999993
booster[40]:
0:[hic_contact<0.05164418] yes=1,no=2,missing=1
	1:[HDAC6_TSS<0.166666672] yes=3,no=4,missing=3
		3:[XRCC3_TSS<0.5] yes=7,no=8,missing=7
			7:leaf=-0.0299999993
			8:leaf=0.0015025367
		4:[TSS.count.near.enhancer<0.169767439] yes=9,no=10,missing=9
			9:leaf=0.0174804889
			10:leaf=-0.0236915685
	2:[TF_NMF1_e<0.173994347] yes=5,no=6,missing=5
		5:[TSS.count.near.enhancer<0.183720931] yes=11,no=12,missing=11
			11:leaf=0.0123971505
			12:leaf=-0.0207547899
		6:[TF_NMF1_TSS<0.182482645] yes=13,no=14,missing=13
			13:leaf=0.0272014719
			14:leaf=0.000242100126
booster[41]:
0:[diff.from.max.contact.from.enhancer<0.999649107] yes=1,no=2,missing=1
	1:[zscore.contact.to.TSS<0.056912452] yes=3,no=4,missing=3
		3:[TF_NMF4_e<0.582674384] yes=7,no=8,missing=7
			7:leaf=-0.0299999993
			8:leaf=1.03879174e-05
		4:[H3K4me3.RPKM.quantile_TSS<0.394688785] yes=9,no=10,missing=9
			9:leaf=0.0299999993
			10:leaf=-0.0219341312
	2:[TF_NMF1_e<0.0795835853] yes=5,no=6,missing=5
		5:[TargetGeneExpression<0.382039249] yes=11,no=12,missing=11
			11:leaf=-0.023481166
			12:leaf=0.0119396076
		6:[IRF1_e<0.166666672] yes=13,no=14,missing=13
			13:leaf=0.000494914071
			14:leaf=0.0249935482
booster[42]:
0:[hic_contact<0.0556661338] yes=1,no=2,missing=1
	1:[CHAMP1_e<0.75] yes=3,no=4,missing=3
		3:[diff.from.max.contact.from.enhancer<0.990237474] yes=7,no=8,missing=7
			7:leaf=-0.0299999993
			8:leaf=-0.0177428331
		4:leaf=0.0133714657
	2:[TF_NMF1_TSS<0.21314466] yes=5,no=6,missing=5
		5:[TSS.count.near.enhancer<0.244186044] yes=9,no=10,missing=9
			9:leaf=0.0210865773
			10:leaf=-0.00167902908
		6:[remaining.TSS.contact.from.enhancer<0.103806213] yes=11,no=12,missing=11
			11:leaf=0.00280743185
			12:leaf=-0.0282633658
booster[43]:
0:[hic_contact<0.0476427451] yes=1,no=2,missing=1
	1:[STAT5A_TSS<0.5] yes=3,no=4,missing=3
		3:[WHSC1_TSS<0.25] yes=7,no=8,missing=7
			7:leaf=-0.0299999993
			8:leaf=0.00388892437
		4:leaf=0.0112407478
	2:[TF_NMF1_TSS<0.183978319] yes=5,no=6,missing=5
		5:[STAT2_e<0.25] yes=9,no=10,missing=9
			9:leaf=0.00249239802
			10:leaf=0.0293067861
		6:[diff.from.max.contact.to.TSS<0.838601947] yes=11,no=12,missing=11
			11:leaf=-0.0299999993
			12:leaf=-0.000427111227
booster[44]:
0:[hic_contact<0.0506079122] yes=1,no=2,missing=1
	1:[TSS.count.near.enhancer<0.0348837227] yes=3,no=4,missing=3
		3:leaf=0.0222514793
		4:[TF_NMF5_TSS<0.823399544] yes=7,no=8,missing=7
			7:leaf=-0.0295201931
			8:leaf=0.0107888281
	2:[TF_NMF1_e<0.206702635] yes=5,no=6,missing=5
		5:[remaining.TSS.contact.from.enhancer<0.301345021] yes=9,no=10,missing=9
			9:leaf=-0.0024523742
			10:leaf=-0.0299999993
		6:[SIX5_TSS<0.25] yes=11,no=12,missing=11
			11:leaf=0.0241755378
			12:leaf=-0.021180179
booster[45]:
0:[hic_contact<0.0476427451] yes=1,no=2,missing=1
	1:[XRCC3_TSS<0.5] yes=3,no=4,missing=3
		3:[TF_NMF5_TSS<0.770165801] yes=7,no=8,missing=7
			7:leaf=-0.0299999993
			8:leaf=0.0161465276
		4:[SIN3B_TSS<0.25] yes=9,no=10,missing=9
			9:leaf=0.0299999993
			10:leaf=-0.0299999993
	2:[GATA1_e<0.25] yes=5,no=6,missing=5
		5:[diff.from.max.contact.from.enhancer<0.983150005] yes=11,no=12,missing=11
			11:leaf=-0.0299999993
			12:leaf=-0.00084489258
		6:[TF_NMF11_e<0.318566918] yes=13,no=14,missing=13
			13:leaf=0.00707349461
			14:leaf=0.0299999993
booster[46]:
0:[zscore.contact.from.enhancer<0.291273654] yes=1,no=2,missing=1
	1:[zscore.contact.to.TSS<0.0642886534] yes=3,no=4,missing=3
		3:[XRCC3_TSS<0.5] yes=7,no=8,missing=7
			7:leaf=-0.0299999993
			8:leaf=0.00298093329
		4:[Enhancer.count.near.TSS<0.209510088] yes=9,no=10,missing=9
			9:leaf=0.0132952156
			10:leaf=-0.0258115754
	2:[C11orf30_TSS<0.166666672] yes=5,no=6,missing=5
		5:[normalized_h3K27ac_e<0.025265947] yes=11,no=12,missing=11
			11:leaf=-0.0238848161
			12:leaf=0.0138119943
		6:[normalized_h3K27ac_e<0.184840426] yes=13,no=14,missing=13
			13:leaf=-0.0299999993
			14:leaf=0.00166976673
booster[47]:
0:[zscore.contact.to.TSS<0.055992499] yes=1,no=2,missing=1
	1:[TF_NMF5_TSS<0.38466984] yes=3,no=4,missing=3
		3:[diff.from.max.contact.to.TSS<0.845460594] yes=7,no=8,missing=7
			7:leaf=-0.0299999993
			8:leaf=0.00570223201
		4:[CBX5_TSS<0.25] yes=9,no=10,missing=9
			9:leaf=-0.0186880585
			10:leaf=0.0299999993
	2:[TF_NMF1_e<0.170232907] yes=5,no=6,missing=5
		5:[remaining.enhancers.contact.to.TSS<0.26908952] yes=11,no=12,missing=11
			11:leaf=-0.00196686457
			12:leaf=-0.0239608344
		6:[TF_NMF1_TSS<0.178703725] yes=13,no=14,missing=13
			13:leaf=0.0213736836
			14:leaf=-0.00663197041
booster[48]:
0:[zscore.contact.from.enhancer<0.327606082] yes=1,no=2,missing=1
	1:[distance<0.0293641798] yes=3,no=4,missing=3
		3:[TF_NMF1_e<0.0178348273] yes=7,no=8,missing=7
			7:leaf=-0.0246854797
			8:leaf=0.0146647943
		4:[Enhancer.count.near.TSS<0.0340057611] yes=9,no=10,missing=9
			9:leaf=0.0207925998
			10:leaf=-0.0284185484
	2:[GATAD2A_e<0.166666672] yes=5,no=6,missing=5
		5:[distance<0.0167578775] yes=11,no=12,missing=11
			11:leaf=0.00562121952
			12:leaf=-0.0189999714
		6:[TSS.count.near.enhancer<0.713953495] yes=13,no=14,missing=13
			13:leaf=0.0231811721
			14:leaf=-0.0172573421
booster[49]:
0:[distance<0.113124877] yes=1,no=2,missing=1
	1:[TF_NMF1_TSS<0.150240123] yes=3,no=4,missing=3
		3:[Enhancer.count.near.TSS<0.300000012] yes=7,no=8,missing=7
			7:leaf=0.01731061
			8:leaf=-0.00790152699
		4:[SMARCB1_e<0.5] yes=9,no=10,missing=9
			9:leaf=-0.0237311814
			10:leaf=0.0280695204
	2:[TF_NMF5_TSS<0.855627239] yes=5,no=6,missing=5
		5:[XRCC3_TSS<0.5] yes=11,no=12,missing=11
			11:leaf=-0.0299999993
			12:leaf=-0.00131410279
		6:leaf=0.0124124577
booster[50]:
0:[hic_contact<0.0506848618] yes=1,no=2,missing=1
	1:[Enhancer.count.near.TSS<0.0340057611] yes=3,no=4,missing=3
		3:leaf=0.0238931794
		4:[XRCC3_TSS<0.5] yes=7,no=8,missing=7
			7:leaf=-0.0286855139
			8:leaf=0.00650694687
	2:[ELF1_TSS<0.25] yes=5,no=6,missing=5
		5:[Enhancer.count.near.TSS<0.221613824] yes=9,no=10,missing=9
			9:leaf=0.0289724767
			10:leaf=-0.000953237701
		6:[STAT1_e<0.25] yes=11,no=12,missing=11
			11:leaf=-0.0233716536
			12:leaf=0.00903858058
booster[51]:
0:[hic_contact<0.05164418] yes=1,no=2,missing=1
	1:[Enhancer.count.near.TSS<0.0340057611] yes=3,no=4,missing=3
		3:leaf=0.0204830579
		4:[MEIS2_e<0.75] yes=7,no=8,missing=7
			7:leaf=-0.0279224291
			8:leaf=0.0175150279
	2:[H3K27ac.RPKM.quantile_TSS<0.84977746] yes=5,no=6,missing=5
		5:[CHAMP1_e<0.25] yes=9,no=10,missing=9
			9:leaf=0.000636650191
			10:leaf=0.0258012973
		6:[distance<0.00770105841] yes=11,no=12,missing=11
			11:leaf=0.00728172157
			12:leaf=-0.0299999993
booster[52]:
0:[diff.from.max.contact.from.enhancer<0.999649107] yes=1,no=2,missing=1
	1:[XRCC3_TSS<0.5] yes=3,no=4,missing=3
		3:[AFF1_TSS<0.75] yes=7,no=8,missing=7
			7:leaf=-0.0279193707
			8:leaf=-0.00296407286
		4:[distance<0.265346527] yes=9,no=10,missing=9
			9:leaf=0.0299999993
			10:leaf=-0.0228903778
	2:[IRF1_e<0.166666672] yes=5,no=6,missing=5
		5:[TargetGeneExpression<0.542522311] yes=11,no=12,missing=11
			11:leaf=-0.00931679178
			12:leaf=0.0286240242
		6:[H3K27ac.RPKM.quantile_TSS<0.841734886] yes=13,no=14,missing=13
			13:leaf=0.02369247
			14:leaf=-0.00900154468
booster[53]:
0:[distance<0.0404078886] yes=1,no=2,missing=1
	1:[normalized_h3K27ac_e<0.315159559] yes=3,no=4,missing=3
		3:[TF_NMF1_TSS<0.139886662] yes=7,no=8,missing=7
			7:leaf=0.00655307528
			8:leaf=-0.0166446958
		4:leaf=0.0299999993
	2:[E2F7_e<0.5] yes=5,no=6,missing=5
		5:[TargetGeneExpression<0.452568173] yes=11,no=12,missing=11
			11:leaf=-0.0292727984
			12:leaf=-0.0167864934
		6:[zscore.contact.from.enhancer<0.297975481] yes=13,no=14,missing=13
			13:leaf=-0.0150390845
			14:leaf=0.0292944163
booster[54]:
0:[zscore.contact.to.TSS<0.0559956059] yes=1,no=2,missing=1
	1:[TF_NMF5_TSS<0.38466984] yes=3,no=4,missing=3
		3:[STAT1_e<0.25] yes=7,no=8,missing=7
			7:leaf=-0.0299999993
			8:leaf=-0.0189125538
		4:[ZSCAN29_e<0.25] yes=9,no=10,missing=9
			9:leaf=0.0145760048
			10:leaf=-0.0275757518
	2:[HCFC1_TSS<0.25] yes=5,no=6,missing=5
		5:[RBM25_TSS<0.25] yes=11,no=12,missing=11
			11:leaf=0.013133537
			12:leaf=-0.0158121269
		6:[diff.from.max.contact.to.TSS<0.849754512] yes=13,no=14,missing=13
			13:leaf=-0.0205250867
			14:leaf=0.00947468076
booster[55]:
0:[hic_contact<0.0613553599] yes=1,no=2,missing=1
	1:[CHAMP1_e<0.75] yes=3,no=4,missing=3
		3:[TF_NMF4_e<0.582674384] yes=7,no=8,missing=7
			7:leaf=-0.026387684
			8:leaf=0.0127856852
		4:leaf=0.0235621538
	2:[normalized_h3K27ac_e<0.0545212775] yes=5,no=6,missing=5
		5:[diff.from.max.contact.to.TSS<0.959608555] yes=9,no=10,missing=9
			9:leaf=-0.0252851769
			10:leaf=0.0111272847
		6:[CBX3_TSS<0.25] yes=11,no=12,missing=11
			11:leaf=0.0184606723
			12:leaf=-0.00686698593
booster[56]:
0:[zscore.contact.from.enhancer<0.29225719] yes=1,no=2,missing=1
	1:[zscore.contact.to.TSS<0.094495751] yes=3,no=4,missing=3
		3:[TF_NMF5_TSS<0.464769959] yes=7,no=8,missing=7
			7:leaf=-0.0279694684
			8:leaf=-0.0019322302
		4:[TSS.count.near.enhancer<0.183720931] yes=9,no=10,missing=9
			9:leaf=0.0241998192
			10:leaf=-0.0224674698
	2:[TF_NMF1_TSS<0.140167952] yes=5,no=6,missing=5
		5:[Enhancer.count.near.TSS<0.230835736] yes=11,no=12,missing=11
			11:leaf=0.02540778
			12:leaf=0.000805942691
		6:[TF_NMF10_TSS<0.0736131817] yes=13,no=14,missing=13
			13:leaf=0.00967000425
			14:leaf=-0.0231142025
booster[57]:
0:[hic_contact<0.0466885567] yes=1,no=2,missing=1
	1:[TF_NMF5_TSS<0.38466984] yes=3,no=4,missing=3
		3:[ZNF274_e<0.5] yes=7,no=8,missing=7
			7:leaf=-0.0288762376
			8:leaf=-0.0109570334
		4:[SIN3B_TSS<0.25] yes=9,no=10,missing=9
			9:leaf=0.0223916881
			10:leaf=-0.0215654988
	2:[TF_NMF1_e<0.173452735] yes=5,no=6,missing=5
		5:[TSS.count.near.enhancer<0.179069772] yes=11,no=12,missing=11
			11:leaf=0.00836584065
			12:leaf=-0.0177285876
		6:[TF_NMF1_TSS<0.292384326] yes=13,no=14,missing=13
			13:leaf=0.0229140222
			14:leaf=-0.00642493553
booster[58]:
0:[hic_contact<0.0516493097] yes=1,no=2,missing=1
	1:[ZNF274_e<0.5] yes=3,no=4,missing=3
		3:[TF_NMF1_TSS<0.151187688] yes=7,no=8,missing=7
			7:leaf=-0.0222042948
			8:leaf=-0.0299999993
		4:[remaining.enhancers.contact.to.TSS<0.112614512] yes=9,no=10,missing=9
			9:leaf=0.0257769432
			10:leaf=-0.0181916021
	2:[TF_NMF1_TSS<0.150764853] yes=5,no=6,missing=5
		5:[TF_NMF6_TSS<0.0210753847] yes=11,no=12,missing=11
			11:leaf=-0.00745693268
			12:leaf=0.01906454
		6:[TSS.count.near.enhancer<0.351162791] yes=13,no=14,missing=13
			13:leaf=-0.00200875499
			14:leaf=-0.0299999993
booster[59]:
0:[hic_contact<0.0633201674] yes=1,no=2,missing=1
	1:[normalized_h3K27ac_e<0.513297915] yes=3,no=4,missing=3
		3:[XRCC3_TSS<0.5] yes=7,no=8,missing=7
			7:leaf=-0.0254278984
			8:leaf=0.00524544856
		4:[CEBPB_e<0.166666672] yes=9,no=10,missing=9
			9:leaf=-0.0193428732
			10:leaf=0.0299999993
	2:[TSS.count.near.enhancer<0.18837209] yes=5,no=6,missing=5
		5:[diff.from.max.contact.to.TSS<0.777466953] yes=11,no=12,missing=11
			11:leaf=0.0299999993
			12:leaf=0.0101807136
		6:[STAT1_e<0.25] yes=13,no=14,missing=13
			13:leaf=-0.00987176318
			14:leaf=0.021395104
booster[60]:
0:[hic_contact<0.0506079122] yes=1,no=2,missing=1
	1:[TF_NMF5_TSS<0.38466984] yes=3,no=4,missing=3
		3:[Enhancer.count.near.TSS<0.147838622] yes=7,no=8,missing=7
			7:leaf=-0.0137706557
			8:leaf=-0.0277857035
		4:[Enhancer.count.near.TSS<0.479538918] yes=9,no=10,missing=9
			9:leaf=0.0133790718
			10:leaf=-0.02851828
	2:[normalized_h3K27ac_e<0.416223407] yes=5,no=6,missing=5
		5:[zscore.contact.from.enhancer<0.327576578] yes=11,no=12,missing=11
			11:leaf=-0.0171427391
			12:leaf=0.00511498377
		6:leaf=0.0299999993
booster[61]:
0:[hic_contact<0.0476427451] yes=1,no=2,missing=1
	1:[Enhancer.count.near.TSS<0.0342939496] yes=3,no=4,missing=3
		3:leaf=0.0299999993
		4:[TF_NMF8_e<0.497252047] yes=7,no=8,missing=7
			7:leaf=-0.0259423889
			8:leaf=0.0137651721
	2:[TSS.count.near.enhancer<0.193023264] yes=5,no=6,missing=5
		5:[RUNX1_TSS<0.166666672] yes=9,no=10,missing=9
			9:leaf=0.021739779
			10:leaf=-0.0131765595
		6:[zscore.contact.from.enhancer<0.538735867] yes=11,no=12,missing=11
			11:leaf=-0.0197223574
			12:leaf=0.0129900752
booster[62]:
0:[hic_contact<0.0506079122] yes=1,no=2,missing=1
	1:[ZNF24_TSS<0.5] yes=3,no=4,missing=3
		3:[TSS.count.near.enhancer<0.0581395328] yes=7,no=8,missing=7
			7:leaf=0.00749407103
			8:leaf=-0.0253046099
		4:[TF_NMF3_TSS<0.349722087] yes=9,no=10,missing=9
			9:leaf=-0.0299999993
			10:leaf=0.0235314164
	2:[TF_NMF1_TSS<0.21314466] yes=5,no=6,missing=5
		5:[TargetGeneExpression<0.408594429] yes=11,no=12,missing=11
			11:leaf=0.000430933578
			12:leaf=0.027946759
		6:[normalized_h3K27ac_e<0.0917553157] yes=13,no=14,missing=13
			13:leaf=-0.0299999993
			14:leaf=0.0041030799
booster[63]:
0:[diff.from.max.contact.from.enhancer<0.999649107] yes=1,no=2,missing=1
	1:[TF_NMF5_TSS<0.38466984] yes=3,no=4,missing=3
		3:[distance<0.122105554] yes=7,no=8,missing=7
			7:leaf=-0.0116488943
			8:leaf=-0.0272346903
		4:[TF_NMF4_e<0.0116062146] yes=9,no=10,missing=9
			9:leaf=0.0240724459
			10:leaf=-0.0178650618
	2:[normalized_h3K27ac_e<0.0465425551] yes=5,no=6,missing=5
		5:[CC2D1A_TSS<0.25] yes=11,no=12,missing=11
			11:leaf=-0.0298606064
			12:leaf=0.00353823579
		6:[TF_NMF1_TSS<0.19852078] yes=13,no=14,missing=13
			13:leaf=0.0156876687
			14:leaf=-0.00897553377
booster[64]:
0:[hic_contact<0.0518493801] yes=1,no=2,missing=1
	1:[HDAC6_TSS<0.166666672] yes=3,no=4,missing=3
		3:[GATAD2B_e<0.166666672] yes=7,no=8,missing=7
			7:leaf=-0.0271683466
			8:leaf=-0.0143285682
		4:[TF_NMF10_e<0.166305006] yes=9,no=10,missing=9
			9:leaf=0.0159196462
			10:leaf=-0.0251892265
	2:[RFX5_TSS<0.25] yes=5,no=6,missing=5
		5:[normalized_dhs<0.0172989145] yes=11,no=12,missing=11
			11:leaf=-0.0299999993
			12:leaf=0.00594497612
		6:leaf=-0.0299999993
booster[65]:
0:[hic_contact<0.0466526449] yes=1,no=2,missing=1
	1:[E2F7_e<0.5] yes=3,no=4,missing=3
		3:[normalized_h3K27ac_e<0.639627695] yes=7,no=8,missing=7
			7:leaf=-0.0253269654
			8:leaf=0.0145690935
		4:[FOXK2_e<0.166666672] yes=9,no=10,missing=9
			9:leaf=0.0299999993
			10:leaf=-0.0164823104
	2:[hic_contact<0.156409994] yes=5,no=6,missing=5
		5:[STAT5A_e<0.25] yes=11,no=12,missing=11
			11:leaf=-0.0168321654
			12:leaf=0.00885833334
		6:[TF_NMF11_TSS<0.0254118685] yes=13,no=14,missing=13
			13:leaf=0.0248491801
			14:leaf=0.00576954056
booster[66]:
0:[hic_contact<0.0466629043] yes=1,no=2,missing=1
	1:[HDAC6_TSS<0.166666672] yes=3,no=4,missing=3
		3:[TF_NMF8_e<0.497252047] yes=7,no=8,missing=7
			7:leaf=-0.0247278102
			8:leaf=0.0292770267
		4:[TF_NMF9_e<0.336683631] yes=9,no=10,missing=9
			9:leaf=0.0104554752
			10:leaf=-0.0299999993
	2:[TF_NMF1_e<0.18626532] yes=5,no=6,missing=5
		5:[NRF1_TSS<0.25] yes=11,no=12,missing=11
			11:leaf=0.0146017279
			12:leaf=-0.0133039439
		6:[H3K27ac.RPKM.quantile_TSS<0.894295931] yes=13,no=14,missing=13
			13:leaf=0.0219730139
			14:leaf=-0.026024323
booster[67]:
0:[distance<0.122105554] yes=1,no=2,missing=1
	1:[FOXM1_e<0.25] yes=3,no=4,missing=3
		3:[TargetGeneExpression<0.556497693] yes=7,no=8,missing=7
			7:leaf=-0.0188595578
			8:leaf=0.019847
		4:[TF_NMF10_TSS<0.460261226] yes=9,no=10,missing=9
			9:leaf=0.00435743341
			10:leaf=0.0299999993
	2:[XRCC3_TSS<0.5] yes=5,no=6,missing=5
		5:[TF_NMF4_e<0.593231797] yes=11,no=12,missing=11
			11:leaf=-0.0266388506
			12:leaf=0.0141296117
		6:[distance<0.265346527] yes=13,no=14,missing=13
			13:leaf=0.0299999993
			14:leaf=-0.0109318364
booster[68]:
0:[diff.from.max.contact.from.enhancer<0.999649107] yes=1,no=2,missing=1
	1:[TF_NMF3_TSS<0.365502924] yes=3,no=4,missing=3
		3:[zscore.contact.to.TSS<0.0645882636] yes=7,no=8,missing=7
			7:leaf=-0.0261207726
			8:leaf=-0.01080391
		4:[C11orf30_TSS<0.166666672] yes=9,no=10,missing=9
			9:leaf=0.00659786956
			10:leaf=-0.0241655763
	2:[TF_NMF3_e<0.401262522] yes=5,no=6,missing=5
		5:[hic_contact<0.163463801] yes=11,no=12,missing=11
			11:leaf=-0.00809434708
			12:leaf=0.0139108235
		6:leaf=0.0273463335
booster[69]:
0:[distance<0.122105554] yes=1,no=2,missing=1
	1:[diff.from.max.contact.to.TSS<0.741184473] yes=3,no=4,missing=3
		3:[TargetGeneExpression<0.596804798] yes=7,no=8,missing=7
			7:leaf=-0.0196542144
			8:leaf=0.0242450424
		4:[TF_NMF1_e<0.119113848] yes=9,no=10,missing=9
			9:leaf=-0.00365667022
			10:leaf=0.0164585598
	2:[RBBP5_TSS<0.166666672] yes=5,no=6,missing=5
		5:[TF_NMF10_e<0.422369659] yes=11,no=12,missing=11
			11:leaf=-0.0187525265
			12:leaf=0.0158925299
		6:[TF_NMF2_e<0.572571754] yes=13,no=14,missing=13
			13:leaf=-0.0275484398
			14:leaf=0.013020047
booster[70]:
0:[diff.from.max.contact.from.enhancer<0.999649107] yes=1,no=2,missing=1
	1:[normalized_h3K27ac_e<0.421542555] yes=3,no=4,missing=3
		3:[H3K27ac.RPKM.quantile_TSS<0.505105913] yes=7,no=8,missing=7
			7:leaf=-0.00704424269
			8:leaf=-0.0240119323
		4:[TF_NMF3_TSS<0.151058033] yes=9,no=10,missing=9
			9:leaf=-0.0176339429
			10:leaf=0.0224226359
	2:[STAT2_e<0.25] yes=5,no=6,missing=5
		5:[PRDM10_TSS<0.166666672] yes=11,no=12,missing=11
			11:leaf=-0.0110978205
			12:leaf=0.00794777181
		6:[THAP1_TSS<0.166666672] yes=13,no=14,missing=13
			13:leaf=0.0299508814
			14:leaf=0.00192899758
booster[71]:
0:[distance<0.114996664] yes=1,no=2,missing=1
	1:[TSS.count.near.enhancer<0.169767439] yes=3,no=4,missing=3
		3:[TF_NMF7_TSS<0.108945191] yes=7,no=8,missing=7
			7:leaf=0.0299999993
			8:leaf=0.00719525199
		4:[normalized_h3K27ac_e<0.414893627] yes=9,no=10,missing=9
			9:leaf=-0.0115519557
			10:leaf=0.0258666668
	2:[normalized_h3K27ac_e<0.639627695] yes=5,no=6,missing=5
		5:[ESRRA_TSS<0.75] yes=11,no=12,missing=11
			11:leaf=-0.0250187628
			12:leaf=0.00837837253
		6:leaf=0.0299920384
booster[72]:
0:[distance<0.114979669] yes=1,no=2,missing=1
	1:[NCOR1_e<0.166666672] yes=3,no=4,missing=3
		3:[TF_NMF10_TSS<0.585434914] yes=7,no=8,missing=7
			7:leaf=-0.0220762324
			8:leaf=0.00982522126
		4:[TF_NMF10_TSS<0.585434914] yes=9,no=10,missing=9
			9:leaf=0.00230742106
			10:leaf=0.0299999993
	2:[XRCC3_TSS<0.5] yes=5,no=6,missing=5
		5:[MEIS2_e<0.75] yes=11,no=12,missing=11
			11:leaf=-0.0232005715
			12:leaf=0.0297338124
		6:[zscore.contact.to.TSS<0.0203927383] yes=13,no=14,missing=13
			13:leaf=0.0299999993
			14:leaf=-0.00804574229
booster[73]:
0:[hic_contact<0.0466885567] yes=1,no=2,missing=1
	1:[HDAC6_TSS<0.166666672] yes=3,no=4,missing=3
		3:[Enhancer.count.near.TSS<0.0340057611] yes=7,no=8,missing=7
			7:leaf=0.0299999993
			8:leaf=-0.0227719527
		4:[Enhancer.count.near.TSS<0.512968302] yes=9,no=10,missing=9
			9:leaf=0.0137813147
			10:leaf=-0.0299999993
	2:[Enhancer.count.near.TSS<0.30230546] yes=5,no=6,missing=5
		5:[TF_NMF1_TSS<0.37124294] yes=11,no=12,missing=11
			11:leaf=0.0179865677
			12:leaf=-0.0236374028
		6:[zscore.contact.from.enhancer<0.5073843] yes=13,no=14,missing=13
			13:leaf=-0.02674767
			14:leaf=0.00748371985
booster[74]:
0:[distance<0.104617022] yes=1,no=2,missing=1
	1:[diff.from.max.contact.to.TSS<0.744235396] yes=3,no=4,missing=3
		3:[TF_NMF3_TSS<0.327270925] yes=7,no=8,missing=7
			7:leaf=-0.0245156866
			8:leaf=0.00386002637
		4:[TF_NMF7_TSS<0.0268120747] yes=9,no=10,missing=9
			9:leaf=0.0212591812
			10:leaf=-0.00135969429
	2:[MEIS2_e<0.75] yes=5,no=6,missing=5
		5:[XRCC3_TSS<0.5] yes=11,no=12,missing=11
			11:leaf=-0.0237864554
			12:leaf=0.00979252812
		6:leaf=0.0227536969
booster[75]:
0:[hic_contact<0.0506079122] yes=1,no=2,missing=1
	1:[diff.from.max.contact.from.enhancer<0.990237474] yes=3,no=4,missing=3
		3:[TF_NMF5_TSS<0.420642912] yes=7,no=8,missing=7
			7:leaf=-0.0235632695
			8:leaf=0.00147051609
		4:[H3K27ac.RPKM.quantile_TSS<0.729057789] yes=9,no=10,missing=9
			9:leaf=0.0145753929
			10:leaf=-0.029251527
	2:[TSS.count.near.enhancer<0.211627901] yes=5,no=6,missing=5
		5:[TF_NMF1_TSS<0.154897243] yes=11,no=12,missing=11
			11:leaf=0.0245471895
			12:leaf=-0.000549943594
		6:[hic_contact<0.336274564] yes=13,no=14,missing=13
			13:leaf=-0.0138936369
			14:leaf=0.0175682809
booster[76]:
0:[zscore.contact.from.enhancer<0.16812411] yes=1,no=2,missing=1
	1:[XRCC3_TSS<0.5] yes=3,no=4,missing=3
		3:[normalized_h3K4me3_e<0.299295783] yes=7,no=8,missing=7
			7:leaf=-0.0232878085
			8:leaf=-0.0026264973
		4:[zscore.contact.from.enhancer<0.0904894173] yes=9,no=10,missing=9
			9:leaf=0.0299999993
			10:leaf=-0.010108415
	2:[SUZ12_TSS<0.25] yes=5,no=6,missing=5
		5:[Enhancer.count.near.TSS<0.309221894] yes=11,no=12,missing=11
			11:leaf=0.00841100048
			12:leaf=-0.0081610065
		6:leaf=-0.0286484361
booster[77]:
0:[zscore.contact.to.TSS<0.0642590076] yes=1,no=2,missing=1
	1:[TSS.count.near.enhancer<0.0674418658] yes=3,no=4,missing=3
		3:[TF_NMF7_TSS<0.194618583] yes=7,no=8,missing=7
			7:leaf=0.0299999993
			8:leaf=-0.0230606813
		4:[XRCC3_TSS<0.5] yes=9,no=10,missing=9
			9:leaf=-0.0220937878
			10:leaf=0.0191505942
	2:[E2F8_TSS<0.25] yes=5,no=6,missing=5
		5:[TSS.count.near.enhancer<0.169767439] yes=11,no=12,missing=11
			11:leaf=0.0237451792
			12:leaf=-0.000791353872
		6:[normalized_h3K27ac_e<0.12632978] yes=13,no=14,missing=13
			13:leaf=-0.0248616878
			14:leaf=-0
booster[78]:
0:[distance<0.104617022] yes=1,no=2,missing=1
	1:[TF_NMF1_TSS<0.178685665] yes=3,no=4,missing=3
		3:[CHAMP1_e<0.25] yes=7,no=8,missing=7
			7:leaf=0.0020479816
			8:leaf=0.0242727194
		4:[diff.from.max.contact.to.TSS<0.786698461] yes=9,no=10,missing=9
			9:leaf=-0.0295218639
			10:leaf=-0.00578241982
	2:[normalized_h3K27ac_e<0.639627695] yes=5,no=6,missing=5
		5:[TF_NMF5_TSS<0.823399544] yes=11,no=12,missing=11
			11:leaf=-0.0229858942
			12:leaf=0.0289078262
		6:leaf=0.0299999993
booster[79]:
0:[distance<0.139261514] yes=1,no=2,missing=1
	1:[TSS.count.near.enhancer<0.193023264] yes=3,no=4,missing=3
		3:[TF_NMF1_e<0.0157583188] yes=7,no=8,missing=7
			7:leaf=-0.00712097296
			8:leaf=0.0225393269
		4:[distance<0.00866227411] yes=9,no=10,missing=9
			9:leaf=0.00893712789
			10:leaf=-0.0150992973
	2:[normalized_h3K27ac_e<0.628989339] yes=5,no=6,missing=5
		5:[MLLT1_TSS<0.166666672] yes=11,no=12,missing=11
			11:leaf=-0.0282571483
			12:leaf=-0.0163563062
		6:leaf=0.0299999993
booster[80]:
0:[distance<0.139261514] yes=1,no=2,missing=1
	1:[TF_NMF1_TSS<0.183978319] yes=3,no=4,missing=3
		3:[STAT2_e<0.25] yes=7,no=8,missing=7
			7:leaf=0.00324567105
			8:leaf=0.0297709368
		4:[normalized_h3K27ac_e<0.195478708] yes=9,no=10,missing=9
			9:leaf=-0.0225600973
			10:leaf=0.00287229498
	2:[TF_NMF5_TSS<0.823399544] yes=5,no=6,missing=5
		5:[TF_NMF10_TSS<0.386398196] yes=11,no=12,missing=11
			11:leaf=-0.0246080998
			12:leaf=-0.0123742186
		6:leaf=0.0299999993
booster[81]:
0:[distance<0.135948956] yes=1,no=2,missing=1
	1:[SP1_TSS<0.166666672] yes=3,no=4,missing=3
		3:[remaining.enhancers.contact.to.TSS<0.291401297] yes=7,no=8,missing=7
			7:leaf=0.0203188844
			8:leaf=-0.00613766303
		4:[TF_NMF1_e<0.107586525] yes=9,no=10,missing=9
			9:leaf=-0.0203448888
			10:leaf=0.00629698811
	2:[diff.from.max.contact.to.TSS<0.849110723] yes=5,no=6,missing=5
		5:[TF_NMF5_TSS<0.38466984] yes=11,no=12,missing=11
			11:leaf=-0.0227779802
			12:leaf=-0.000852833968
		6:leaf=0.025161881
booster[82]:
0:[distance<0.103072137] yes=1,no=2,missing=1
	1:[diff.from.max.contact.from.enhancer<0.959153533] yes=3,no=4,missing=3
		3:[TF_NMF4_TSS<0.0346200839] yes=7,no=8,missing=7
			7:leaf=0.00178388192
			8:leaf=-0.0273709223
		4:[C11orf30_TSS<0.166666672] yes=9,no=10,missing=9
			9:leaf=0.011362168
			10:leaf=-0.00708008977
	2:[MEIS2_e<0.75] yes=5,no=6,missing=5
		5:[TF_NMF4_TSS<0.564555526] yes=11,no=12,missing=11
			11:leaf=-0.0222126897
			12:leaf=0.000734531612
		6:leaf=0.0299999993
booster[83]:
0:[diff.from.max.contact.to.TSS<0.843132138] yes=1,no=2,missing=1
	1:[Enhancer.count.near.TSS<0.178386167] yes=3,no=4,missing=3
		3:[normalized_h3K27ac_e<0.0518617108] yes=7,no=8,missing=7
			7:leaf=-0.0275922939
			8:leaf=0.0156451091
		4:[normalized_h3K27ac_e<0.444148928] yes=9,no=10,missing=9
			9:leaf=-0.0194713362
			10:leaf=0.00337120937
	2:[TargetGeneExpression<0.128418595] yes=5,no=6,missing=5
		5:leaf=-0.0266035981
		6:[H3K4me3.RPKM.quantile_TSS<0.799804866] yes=11,no=12,missing=11
			11:leaf=0.0182670951
			12:leaf=-0.00726174517
booster[84]:
0:[distance<0.104637206] yes=1,no=2,missing=1
	1:[normalized_h3K27ac_e<0.416223407] yes=3,no=4,missing=3
		3:[TF_NMF1_TSS<0.101673663] yes=7,no=8,missing=7
			7:leaf=0.00415862445
			8:leaf=-0.0132603496
		4:leaf=0.0268286821
	2:[MEIS2_e<0.75] yes=5,no=6,missing=5
		5:[normalized_h3K27ac_e<0.639627695] yes=11,no=12,missing=11
			11:leaf=-0.0213650707
			12:leaf=0.0280753765
		6:leaf=0.0263835564
booster[85]:
0:[zscore.contact.from.enhancer<0.376996517] yes=1,no=2,missing=1
	1:[TargetGeneExpression<0.596691847] yes=3,no=4,missing=3
		3:[diff.from.max.contact.to.TSS<0.845371544] yes=7,no=8,missing=7
			7:leaf=-0.0205716547
			8:leaf=0.00763296429
		4:[H3K4me3.RPKM.quantile_TSS<0.703972995] yes=9,no=10,missing=9
			9:leaf=0.0299999993
			10:leaf=-0.00778488256
	2:[normalized_dhs<0.020789057] yes=5,no=6,missing=5
		5:leaf=-0.0299999993
		6:[TargetGeneExpression<0.185279727] yes=11,no=12,missing=11
			11:leaf=-0.00880962517
			12:leaf=0.0152239967
booster[86]:
0:[distance<0.113992244] yes=1,no=2,missing=1
	1:[SP1_TSS<0.166666672] yes=3,no=4,missing=3
		3:[ZNF592_e<0.166666672] yes=7,no=8,missing=7
			7:leaf=-0.00190576736
			8:leaf=0.0199227892
		4:[normalized_dhs<0.144309551] yes=9,no=10,missing=9
			9:leaf=-0.0137611367
			10:leaf=0.00743330456
	2:[distance<0.407901108] yes=5,no=6,missing=5
		5:[NR2F6_TSS<0.25] yes=11,no=12,missing=11
			11:leaf=-0.0158526376
			12:leaf=0.00838169083
		6:[TBP_TSS<0.5] yes=13,no=14,missing=13
			13:leaf=-0.0270215273
			14:leaf=0.00827234704
booster[87]:
0:[distance<0.114979669] yes=1,no=2,missing=1
	1:[Enhancer.count.near.TSS<0.290201724] yes=3,no=4,missing=3
		3:[H3K27ac.RPKM.quantile_TSS<0.894295931] yes=7,no=8,missing=7
			7:leaf=0.0147134373
			8:leaf=-0.0257388037
		4:[distance<0.008012373] yes=9,no=10,missing=9
			9:leaf=0.0162187982
			10:leaf=-0.0201816857
	2:[TF_NMF5_TSS<0.420540333] yes=5,no=6,missing=5
		5:[normalized_h3K27ac_e<0.628989339] yes=11,no=12,missing=11
			11:leaf=-0.0220172536
			12:leaf=0.0299999993
		6:[TF_NMF11_TSS<0.145933077] yes=13,no=14,missing=13
			13:leaf=0.0299999993
			14:leaf=-0.0148486141
booster[88]:
0:[distance<0.120622642] yes=1,no=2,missing=1
	1:[CHAMP1_e<0.25] yes=3,no=4,missing=3
		3:[ZBTB40_TSS<0.166666672] yes=7,no=8,missing=7
			7:leaf=0.00435762946
			8:leaf=-0.0154479593
		4:[H3K27ac.RPKM.quantile_TSS<0.798847198] yes=9,no=10,missing=9
			9:leaf=0.0240058675
			10:leaf=-0.00170046103
	2:[diff.from.max.contact.from.enhancer<0.999645591] yes=5,no=6,missing=5
		5:[ZBED1_TSS<0.25] yes=11,no=12,missing=11
			11:leaf=-0.0224574916
			12:leaf=-0.00907170307
		6:[EP400_e<0.166666672] yes=13,no=14,missing=13
			13:leaf=-0.019578157
			14:leaf=0.0299999993
booster[89]:
0:[zscore.contact.to.TSS<0.0299458131] yes=1,no=2,missing=1
	1:[TF_NMF5_TSS<0.38388595] yes=3,no=4,missing=3
		3:[USF2_e<0.5] yes=7,no=8,missing=7
			7:leaf=-0.0230277274
			8:leaf=0.00441575097
		4:[TF_NMF9_TSS<0.12237826] yes=9,no=10,missing=9
			9:leaf=0.0269470438
			10:leaf=-0.0299999993
	2:[Enhancer.count.near.TSS<0.267723352] yes=5,no=6,missing=5
		5:[IRF1_e<0.166666672] yes=11,no=12,missing=11
			11:leaf=-0.000319248851
			12:leaf=0.0215609856
		6:[zscore.contact.to.TSS<0.276422501] yes=13,no=14,missing=13
			13:leaf=-0.0163903888
			14:leaf=0.00932736974
booster[90]:
0:[distance<0.135948956] yes=1,no=2,missing=1
	1:[TSS.count.near.enhancer<0.183720931] yes=3,no=4,missing=3
		3:[STAT2_e<0.25] yes=7,no=8,missing=7
			7:leaf=0.00491908705
			8:leaf=0.0299999993
		4:[distance<0.00751051493] yes=9,no=10,missing=9
			9:leaf=0.0147318393
			10:leaf=-0.0136332642
	2:[TAF15_TSS<0.25] yes=5,no=6,missing=5
		5:[NCOR1_e<0.5] yes=11,no=12,missing=11
			11:leaf=-0.0217933673
			12:leaf=0.0160120856
		6:[ZBTB40_TSS<0.166666672] yes=13,no=14,missing=13
			13:leaf=0.0299999993
			14:leaf=-0.0114299851
booster[91]:
0:[diff.from.max.contact.to.TSS<0.843132138] yes=1,no=2,missing=1
	1:[STAT1_e<0.25] yes=3,no=4,missing=3
		3:[TF_NMF1_TSS<0.139387697] yes=7,no=8,missing=7
			7:leaf=-0.00940814149
			8:leaf=-0.0236723423
		4:[NCOA2_e<0.25] yes=9,no=10,missing=9
			9:leaf=-0.00850171503
			10:leaf=0.0235881396
	2:[TF_NMF6_TSS<0.0799150467] yes=5,no=6,missing=5
		5:[normalized_dhs<0.228679806] yes=11,no=12,missing=11
			11:leaf=-0.0112823443
			12:leaf=0.0287634246
		6:[SKIL_TSS<0.25] yes=13,no=14,missing=13
			13:leaf=0.0299999993
			14:leaf=0.00718723284
booster[92]:
0:[distance<0.112523139] yes=1,no=2,missing=1
	1:[SP1_TSS<0.166666672] yes=3,no=4,missing=3
		3:[TF_NMF2_e<0.01058977] yes=7,no=8,missing=7
			7:leaf=-0.000119146811
			8:leaf=0.0177473929
		4:[TF_NMF3_e<0.444361538] yes=9,no=10,missing=9
			9:leaf=-0.00992111024
			10:leaf=0.0199360922
	2:[MIER1_TSS<0.75] yes=5,no=6,missing=5
		5:[NR3C1_e<0.25] yes=11,no=12,missing=11
			11:leaf=-0.0220712833
			12:leaf=-0.00435746647
		6:leaf=0.024242999
booster[93]:
0:[distance<0.0819399133] yes=1,no=2,missing=1
	1:[Enhancer.count.near.TSS<0.248126805] yes=3,no=4,missing=3
		3:[TF_NMF1_TSS<0.197830141] yes=7,no=8,missing=7
			7:leaf=0.0204555765
			8:leaf=-0.00739397993
		4:[zscore.contact.from.enhancer<0.538740039] yes=9,no=10,missing=9
			9:leaf=-0.0189513434
			10:leaf=0.0094297491
	2:[HDAC6_TSS<0.166666672] yes=5,no=6,missing=5
		5:[TF_NMF8_e<0.03639514] yes=11,no=12,missing=11
			11:leaf=-0.0218919516
			12:leaf=-0.00294830883
		6:[remaining.enhancers.contact.to.TSS<0.363592267] yes=13,no=14,missing=13
			13:leaf=0.0257542785
			14:leaf=-0.0299999993
booster[94]:
0:[hic_contact<0.0180526339] yes=1,no=2,missing=1
	1:[NFXL1_TSS<0.25] yes=3,no=4,missing=3
		3:[ZBTB5_e<0.25] yes=7,no=8,missing=7
			7:leaf=-0.0238182023
			8:leaf=-0.00252549211
		4:[TF_NMF4_e<0.0253354795] yes=9,no=10,missing=9
			9:leaf=0.0299999993
			10:leaf=-0.0135017382
	2:[E2F8_TSS<0.25] yes=5,no=6,missing=5
		5:[GATAD2A_e<0.166666672] yes=11,no=12,missing=11
			11:leaf=-0.00241696625
			12:leaf=0.0180799216
		6:[UBTF_TSS<0.5] yes=13,no=14,missing=13
			13:leaf=-0.0157090034
			14:leaf=0.0209306721
booster[95]:
0:[distance<0.139261514] yes=1,no=2,missing=1
	1:[normalized_h3K27ac_e<0.0678191632] yes=3,no=4,missing=3
		3:[zscore.contact.to.TSS<0.240157664] yes=7,no=8,missing=7
			7:leaf=-0.0157832932
			8:leaf=0.0093252873
		4:[Enhancer.count.near.TSS<0.244956762] yes=9,no=10,missing=9
			9:leaf=0.0228388179
			10:leaf=-0.000502863026
	2:[SMAD1_TSS<0.25] yes=5,no=6,missing=5
		5:[ZNF274_e<0.5] yes=11,no=12,missing=11
			11:leaf=-0.0249911081
			12:leaf=0.00597812049
		6:[TF_NMF1_TSS<0.0450055003] yes=13,no=14,missing=13
			13:leaf=0.0176238138
			14:leaf=-0.0145246517
booster[96]:
0:[normalized_h3K27ac_e<0.3125] yes=1,no=2,missing=1
	1:[diff.from.max.contact.to.TSS<0.760455728] yes=3,no=4,missing=3
		3:[TargetGeneExpression<0.596691847] yes=7,no=8,missing=7
			7:leaf=-0.0196486674
			8:leaf=0.012235757
		4:[ZNF274_e<0.5] yes=9,no=10,missing=9
			9:leaf=-0.00623144396
			10:leaf=0.028896803
	2:[TF_NMF10_TSS<0.387175977] yes=5,no=6,missing=5
		5:[TF_NMF6_TSS<0.260207653] yes=11,no=12,missing=11
			11:leaf=-0.0248110071
			12:leaf=0.0243515614
		6:leaf=0.0299999993
booster[97]:
0:[hic_contact<0.018442519] yes=1,no=2,missing=1
	1:[TF_NMF5_TSS<0.38466984] yes=3,no=4,missing=3
		3:[TF_NMF10_TSS<0.407595575] yes=7,no=8,missing=7
			7:leaf=-0.0252900422
			8:leaf=-0.00951342005
		4:[TF_NMF4_e<0.0116062146] yes=9,no=10,missing=9
			9:leaf=0.0299999993
			10:leaf=-0.0137238884
	2:[TSS.count.near.enhancer<0.211627901] yes=5,no=6,missing=5
		5:[remaining.enhancers.contact.to.TSS<0.105421603] yes=11,no=12,missing=11
			11:leaf=-0.00676893676
			12:leaf=0.0180450287
		6:[hic_contact<0.16216591] yes=13,no=14,missing=13
			13:leaf=-0.0134285586
			14:leaf=0.00959924888
booster[98]:
0:[distance<0.104617022] yes=1,no=2,missing=1
	1:[SP1_TSS<0.166666672] yes=3,no=4,missing=3
		3:[TSS.count.near.enhancer<0.420930207] yes=7,no=8,missing=7
			7:leaf=0.0189892109
			8:leaf=-0.0132597713
		4:[TF_NMF11_TSS<0.0246388875] yes=9,no=10,missing=9
			9:leaf=0.0108083664
			10:leaf=-0.0151196122
	2:[ETS1_e<0.25] yes=5,no=6,missing=5
		5:[XRCC3_TSS<0.5] yes=11,no=12,missing=11
			11:leaf=-0.0187032744
			12:leaf=0.0231088139
		6:[ZNF384_e<0.25] yes=13,no=14,missing=13
			13:leaf=-0.0176996198
			14:leaf=0.0224963725
booster[99]:
0:[TargetGeneExpression<0.408389181] yes=1,no=2,missing=1
	1:[diff.from.max.contact.to.TSS<0.843981326] yes=3,no=4,missing=3
		3:[H3K27ac.RPKM.quantile_TSS<0.490197837] yes=7,no=8,missing=7
			7:leaf=0.00236289646
			8:leaf=-0.0201935582
		4:[H3K27ac.RPKM.quantile_TSS<0.849907279] yes=9,no=10,missing=9
			9:leaf=0.00955158565
			10:leaf=-0.0299054161
	2:[TF_NMF1_TSS<0.04441927] yes=5,no=6,missing=5
		5:[RB1_TSS<0.5] yes=11,no=12,missing=11
			11:leaf=0.0255471542
			12:leaf=-0.0259955339
		6:[TF_NMF9_e<0.107904941] yes=13,no=14,missing=13
			13:leaf=-0.0198601298
			14:leaf=0.00387256336
booster[100]:
0:[hic_contact<0.0256245844] yes=1,no=2,missing=1
	1:[ESRRA_TSS<0.75] yes=3,no=4,missing=3
		3:[TF_NMF5_TSS<0.38466984] yes=7,no=8,missing=7
			7:leaf=-0.018840611
			8:leaf=0.00759480149
		4:leaf=0.0299999993
	2:[normalized_h3K27ac_e<0.0438829735] yes=5,no=6,missing=5
		5:[KLF16_e<0.25] yes=9,no=10,missing=9
			9:leaf=-0.0245395713
			10:leaf=-0.00167517387
		6:[E2F8_TSS<0.25] yes=11,no=12,missing=11
			11:leaf=0.0146394242
			12:leaf=-0.0102566723
booster[101]:
0:[distance<0.135948956] yes=1,no=2,missing=1
	1:[STAT1_e<0.25] yes=3,no=4,missing=3
		3:[Enhancer.count.near.TSS<0.290201724] yes=7,no=8,missing=7
			7:leaf=0.00560662057
			8:leaf=-0.0130505422
		4:[ZNF316_e<0.25] yes=9,no=10,missing=9
			9:leaf=0.00354904402
			10:leaf=0.0299999993
	2:[CREB3L1_TSS<0.5] yes=5,no=6,missing=5
		5:[TF_NMF4_e<0.499535978] yes=11,no=12,missing=11
			11:leaf=-0.0203985237
			12:leaf=0.0125302197
		6:leaf=0.0173036605
booster[102]:
0:[distance<0.139261514] yes=1,no=2,missing=1
	1:[TF_NMF1_TSS<0.150240123] yes=3,no=4,missing=3
		3:[TargetGeneExpression<0.408768892] yes=7,no=8,missing=7
			7:leaf=-0.0015962458
			8:leaf=0.0273582339
		4:[TF_NMF10_TSS<0.344973862] yes=9,no=10,missing=9
			9:leaf=-0.0174250677
			10:leaf=0.00767386938
	2:[H3K27ac.RPKM.quantile_TSS<0.812815547] yes=5,no=6,missing=5
		5:[HDAC6_TSS<0.166666672] yes=11,no=12,missing=11
			11:leaf=-0.0231592748
			12:leaf=0.0197388828
		6:[TF_NMF10_TSS<0.40743655] yes=13,no=14,missing=13
			13:leaf=-0.0114907911
			14:leaf=0.0299999993
booster[103]:
0:[hic_contact<0.0177550912] yes=1,no=2,missing=1
	1:[NFXL1_TSS<0.25] yes=3,no=4,missing=3
		3:[TF_NMF3_TSS<0.422570467] yes=7,no=8,missing=7
			7:leaf=-0.0223089475
			8:leaf=0.00304998062
		4:[TF_NMF4_e<0.0115609448] yes=9,no=10,missing=9
			9:leaf=0.0299999993
			10:leaf=-0.0134633258
	2:[TSS.count.near.enhancer<0.211627901] yes=5,no=6,missing=5
		5:[MITF_e<0.25] yes=11,no=12,missing=11
			11:leaf=0.00201659836
			12:leaf=0.022259783
		6:[hic_contact<0.163150877] yes=13,no=14,missing=13
			13:leaf=-0.0145510845
			14:leaf=0.00713480497
booster[104]:
0:[distance<0.357248843] yes=1,no=2,missing=1
	1:[TargetGeneExpression<0.392692327] yes=3,no=4,missing=3
		3:[TSS.count.near.enhancer<0.193023264] yes=7,no=8,missing=7
			7:leaf=0.00591657544
			8:leaf=-0.014666128
		4:[TF_NMF1_TSS<0.238851339] yes=9,no=10,missing=9
			9:leaf=0.020214159
			10:leaf=-0.00995280873
	2:[SAFB_e<0.25] yes=5,no=6,missing=5
		5:[BRD9_TSS<0.5] yes=11,no=12,missing=11
			11:leaf=-0.0242458675
			12:leaf=0.00474808365
		6:leaf=0.017994497
booster[105]:
0:[distance<0.357248843] yes=1,no=2,missing=1
	1:[normalized_h3K27ac_e<0.461436152] yes=3,no=4,missing=3
		3:[Enhancer.count.near.TSS<0.147838622] yes=7,no=8,missing=7
			7:leaf=0.0102378428
			8:leaf=-0.00867178291
		4:[E2F8_TSS<0.25] yes=9,no=10,missing=9
			9:leaf=0.0299999993
			10:leaf=-0.00607144414
	2:[TargetGeneExpression<0.452568173] yes=5,no=6,missing=5
		5:[RBBP5_TSS<0.166666672] yes=11,no=12,missing=11
			11:leaf=-0.0100464001
			12:leaf=-0.0288848989
		6:[TargetGeneExpression<0.471156538] yes=13,no=14,missing=13
			13:leaf=0.0299999993
			14:leaf=-0.0149357282
booster[106]:
0:[distance<0.114979669] yes=1,no=2,missing=1
	1:[TF_NMF4_TSS<0.0344198123] yes=3,no=4,missing=3
		3:[ZMYM3_TSS<0.25] yes=7,no=8,missing=7
			7:leaf=0.0149598559
			8:leaf=-0.0299999993
		4:[distance<0.00816997886] yes=9,no=10,missing=9
			9:leaf=0.00950509869
			10:leaf=-0.0147924237
	2:[TAF15_TSS<0.25] yes=5,no=6,missing=5
		5:[ETS1_e<0.25] yes=11,no=12,missing=11
			11:leaf=-0.0195199065
			12:leaf=-0.00204980047
		6:[NFXL1_TSS<0.25] yes=13,no=14,missing=13
			13:leaf=-0.0196425654
			14:leaf=0.0299999993
booster[107]:
0:[SMAD1_TSS<0.25] yes=1,no=2,missing=1
	1:[NFRKB_TSS<0.5] yes=3,no=4,missing=3
		3:[diff.from.max.contact.from.enhancer<0.993232191] yes=7,no=8,missing=7
			7:leaf=-0.0196359362
			8:leaf=-0.000513976964
		4:leaf=0.0299999993
	2:[ARNT_TSS<0.25] yes=5,no=6,missing=5
		5:[FOXM1_TSS<0.25] yes=9,no=10,missing=9
			9:leaf=0.0031811262
			10:leaf=0.0299999993
		6:[SMC3_TSS<0.166666672] yes=11,no=12,missing=11
			11:leaf=-0.0186770428
			12:leaf=0.00533371372
booster[108]:
0:[distance<0.164699018] yes=1,no=2,missing=1
	1:[Enhancer.count.near.TSS<0.245821327] yes=3,no=4,missing=3
		3:[normalized_h3K27ac_e<0.121010631] yes=7,no=8,missing=7
			7:leaf=-0.000565711234
			8:leaf=0.0264502205
		4:[diff.from.max.contact.from.enhancer<0.983195186] yes=9,no=10,missing=9
			9:leaf=-0.017222112
			10:leaf=0.000285687041
	2:[TargetGeneExpression<0.452568173] yes=5,no=6,missing=5
		5:[MNT_TSS<0.5] yes=11,no=12,missing=11
			11:leaf=-0.0219784081
			12:leaf=0.0187407956
		6:[ELK1_TSS<0.25] yes=13,no=14,missing=13
			13:leaf=0.0237498786
			14:leaf=-0.0299999993
booster[109]:
0:[TargetGeneExpression<0.411734551] yes=1,no=2,missing=1
	1:[CHAMP1_e<0.25] yes=3,no=4,missing=3
		3:[H3K27me3.RPKM.quantile_TSS<0.768853009] yes=7,no=8,missing=7
			7:leaf=-0.019439552
			8:leaf=0.0229200702
		4:[distance<0.195087463] yes=9,no=10,missing=9
			9:leaf=0.0126354871
			10:leaf=-0.0190789569
	2:[TF_NMF1_TSS<0.139152646] yes=5,no=6,missing=5
		5:[diff.from.max.contact.to.TSS<0.616322279] yes=11,no=12,missing=11
			11:leaf=-0.0286024772
			12:leaf=0.0214531347
		6:[H3K27ac.RPKM.quantile_TSS<0.906558812] yes=13,no=14,missing=13
			13:leaf=0.00116856478
			14:leaf=-0.0244404096
booster[110]:
0:[hic_contact<0.0187811013] yes=1,no=2,missing=1
	1:[TargetGeneExpression<0.44895643] yes=3,no=4,missing=3
		3:[Enhancer.count.near.TSS<0.771469712] yes=7,no=8,missing=7
			7:leaf=-0.0225955304
			8:leaf=0.00184320228
		4:[MYBL2_TSS<0.25] yes=9,no=10,missing=9
			9:leaf=-0.0067466232
			10:leaf=0.0299999993
	2:[Enhancer.count.near.TSS<0.306916416] yes=5,no=6,missing=5
		5:[H3K4me3.RPKM.quantile_TSS<0.913996935] yes=11,no=12,missing=11
			11:leaf=0.0108682783
			12:leaf=-0.0206034109
		6:[zscore.contact.from.enhancer<0.538740039] yes=13,no=14,missing=13
			13:leaf=-0.0161430705
			14:leaf=0.00947976578
booster[111]:
0:[STAT1_e<0.25] yes=1,no=2,missing=1
	1:[AFF1_TSS<0.75] yes=3,no=4,missing=3
		3:[HCFC1_TSS<0.25] yes=7,no=8,missing=7
			7:leaf=-0.00332629122
			8:leaf=-0.016560927
		4:[TF_NMF5_e<0.041867394] yes=9,no=10,missing=9
			9:leaf=0.0299999993
			10:leaf=-0.0195445102
	2:[distance<0.170031756] yes=5,no=6,missing=5
		5:[ASH1L_TSS<0.25] yes=11,no=12,missing=11
			11:leaf=0.0299999993
			12:leaf=0.000427770166
		6:[GMEB1_TSS<0.25] yes=13,no=14,missing=13
			13:leaf=0.0136339851
			14:leaf=-0.0269747023
booster[112]:
0:[distance<0.357248843] yes=1,no=2,missing=1
	1:[STAT1_e<0.25] yes=3,no=4,missing=3
		3:[TF_NMF1_TSS<0.139387697] yes=7,no=8,missing=7
			7:leaf=0.00295898621
			8:leaf=-0.0114626111
		4:[MAFF_e<0.25] yes=9,no=10,missing=9
			9:leaf=0.00313773355
			10:leaf=0.0299999993
	2:[TCF7_TSS<0.25] yes=5,no=6,missing=5
		5:[RBBP5_TSS<0.166666672] yes=11,no=12,missing=11
			11:leaf=-0.00738910818
			12:leaf=-0.0299999993
		6:[H3K27me3.RPKM.quantile_TSS<0.39525038] yes=13,no=14,missing=13
			13:leaf=-0.0165778492
			14:leaf=0.0299999993
booster[113]:
0:[TF_NMF7_e<0.257162333] yes=1,no=2,missing=1
	1:[TF_NMF8_e<0.00737611111] yes=3,no=4,missing=3
		3:[TF_NMF10_e<0.594428062] yes=7,no=8,missing=7
			7:leaf=-0.0175677836
			8:leaf=0.0211249497
		4:[MBD2_TSS<0.25] yes=9,no=10,missing=9
			9:leaf=-0.015062145
			10:leaf=0.00437156158
	2:[TF_NMF2_e<0.0464122593] yes=5,no=6,missing=5
		5:[RLF_TSS<0.25] yes=11,no=12,missing=11
			11:leaf=-0.0104125198
			12:leaf=0.0110370545
		6:[TF_NMF11_TSS<0.1298033] yes=13,no=14,missing=13
			13:leaf=0.0299999993
			14:leaf=-0.00518280594
booster[114]:
0:[TSS.count.near.enhancer<0.211627901] yes=1,no=2,missing=1
	1:[TF_NMF10_TSS<0.576196432] yes=3,no=4,missing=3
		3:[TF_NMF5_TSS<0.128656089] yes=7,no=8,missing=7
			7:leaf=-0.00940104295
			8:leaf=0.0119627183
		4:[TF_NMF4_TSS<0.0609846562] yes=9,no=10,missing=9
			9:leaf=0.0299999993
			10:leaf=-5.71317069e-05
	2:[distance<0.00698669907] yes=5,no=6,missing=5
		5:[TSS.count.near.enhancer<0.323255837] yes=11,no=12,missing=11
			11:leaf=-0.0193073563
			12:leaf=0.0230950098
		6:[WHSC1_TSS<0.25] yes=13,no=14,missing=13
			13:leaf=-0.0148034878
			14:leaf=0.0299999993
booster[115]:
0:[zscore.contact.from.enhancer<0.327606082] yes=1,no=2,missing=1
	1:[XRCC3_TSS<0.5] yes=3,no=4,missing=3
		3:[normalized_h3K27ac_e<0.466755331] yes=7,no=8,missing=7
			7:leaf=-0.0118852695
			8:leaf=0.0236508865
		4:[TSS.count.near.enhancer<0.551162839] yes=9,no=10,missing=9
			9:leaf=0.0299999993
			10:leaf=-0.00846596248
	2:[H3K27ac.RPKM.quantile_TSS<0.84977746] yes=5,no=6,missing=5
		5:[MLLT1_TSS<0.166666672] yes=11,no=12,missing=11
			11:leaf=-0.00169431837
			12:leaf=0.0206399299
		6:[TF_NMF7_TSS<0.0542118177] yes=13,no=14,missing=13
			13:leaf=0.00894485228
			14:leaf=-0.0288894363
booster[116]:
0:[TargetGeneExpression<0.408389181] yes=1,no=2,missing=1
	1:[H3K27ac.RPKM.quantile_TSS<0.490197837] yes=3,no=4,missing=3
		3:[TF_NMF7_e<0.0530939735] yes=7,no=8,missing=7
			7:leaf=-0.0188529268
			8:leaf=0.0208866037
		4:[TF_NMF10_TSS<0.743771255] yes=9,no=10,missing=9
			9:leaf=-0.0129515277
			10:leaf=0.0299999993
	2:[H3K27ac.RPKM.quantile_TSS<0.906558812] yes=5,no=6,missing=5
		5:[TSS.count.near.enhancer<0.620930195] yes=11,no=12,missing=11
			11:leaf=0.0208453257
			12:leaf=-0.00308340928
		6:[MAFK_TSS<0.25] yes=13,no=14,missing=13
			13:leaf=-0.0299999993
			14:leaf=0.00363375992
booster[117]:
0:[distance<0.397758752] yes=1,no=2,missing=1
	1:[TF_NMF10_TSS<0.386293173] yes=3,no=4,missing=3
		3:[TF_NMF10_TSS<0.103989989] yes=7,no=8,missing=7
			7:leaf=0.00750971586
			8:leaf=-0.0124547426
		4:[normalized_dhs<0.0174506716] yes=9,no=10,missing=9
			9:leaf=-0.0299999993
			10:leaf=0.0133241499
	2:[TF_NMF2_e<0.00734895375] yes=5,no=6,missing=5
		5:leaf=-0.0299999993
		6:[TargetGeneExpression<0.452568173] yes=11,no=12,missing=11
			11:leaf=-0.0162417889
			12:leaf=0.020569291
booster[118]:
0:[diff.from.max.contact.from.enhancer<0.983195186] yes=1,no=2,missing=1
	1:[HDAC6_TSS<0.166666672] yes=3,no=4,missing=3
		3:[PRPF4_e<0.5] yes=7,no=8,missing=7
			7:leaf=-0.0157655701
			8:leaf=0.0260920748
		4:[TF_NMF9_e<0.316115379] yes=9,no=10,missing=9
			9:leaf=0.0270436835
			10:leaf=-0.0236631278
	2:[TF_NMF1_e<0.320358634] yes=5,no=6,missing=5
		5:[TF_NMF7_TSS<0.0268120747] yes=11,no=12,missing=11
			11:leaf=0.0122401444
			12:leaf=-0.00983051956
		6:[BRD4_TSS<0.25] yes=13,no=14,missing=13
			13:leaf=0.0251719225
			14:leaf=-0.00724441418
booster[119]:
0:[TargetGeneExpression<0.408768892] yes=1,no=2,missing=1
	1:[TF_NMF1_e<0.0190209541] yes=3,no=4,missing=3
		3:[MNT_TSS<0.5] yes=7,no=8,missing=7
			7:leaf=-0.0226212461
			8:leaf=0.0185958073
		4:[distance<0.127555862] yes=9,no=10,missing=9
			9:leaf=0.00965836179
			10:leaf=-0.016610669
	2:[H3K27ac.RPKM.quantile_TSS<0.910703838] yes=5,no=6,missing=5
		5:[HCFC1_TSS<0.25] yes=11,no=12,missing=11
			11:leaf=0.0293547772
			12:leaf=0.00359561713
		6:[TF_NMF4_e<0.00548723293] yes=13,no=14,missing=13
			13:leaf=0.00122303318
			14:leaf=-0.0276419055
booster[120]:
0:[hic_contact<0.0268455334] yes=1,no=2,missing=1
	1:[TF_NMF5_TSS<0.38466984] yes=3,no=4,missing=3
		3:[normalized_dhs<0.0350530818] yes=7,no=8,missing=7
			7:leaf=-0.0281434581
			8:leaf=-0.0113466596
		4:[TAL1_e<0.25] yes=9,no=10,missing=9
			9:leaf=-0.00709716743
			10:leaf=0.0299999993
	2:[H3K27ac.RPKM.quantile_TSS<0.84977746] yes=5,no=6,missing=5
		5:[TF_NMF6_TSS<0.030818183] yes=11,no=12,missing=11
			11:leaf=-0.00540704466
			12:leaf=0.0129994424
		6:[TF_NMF8_TSS<0.0010748026] yes=13,no=14,missing=13
			13:leaf=0.00416575558
			14:leaf=-0.0233432036
booster[121]:
0:[TargetGeneExpression<0.408768892] yes=1,no=2,missing=1
	1:[diff.from.max.contact.from.enhancer<0.980697155] yes=3,no=4,missing=3
		3:[E2F7_e<0.5] yes=7,no=8,missing=7
			7:leaf=-0.0172802247
			8:leaf=0.0149767231
		4:[TSS.count.near.enhancer<0.179069772] yes=9,no=10,missing=9
			9:leaf=0.00932099018
			10:leaf=-0.00953048747
	2:[TF_NMF4_TSS<0.00186751969] yes=5,no=6,missing=5
		5:[UBTF_TSS<0.166666672] yes=11,no=12,missing=11
			11:leaf=0.00947004743
			12:leaf=0.0299999993
		6:[ZZZ3_TSS<0.25] yes=13,no=14,missing=13
			13:leaf=0.00180960505
			14:leaf=-0.0299999993
booster[122]:
0:[hic_contact<0.0177550912] yes=1,no=2,missing=1
	1:[TF_NMF5_TSS<0.38466984] yes=3,no=4,missing=3
		3:[RLF_e<0.166666672] yes=7,no=8,missing=7
			7:leaf=-0.0219125394
			8:leaf=-0.000968408654
		4:[TF_NMF4_e<0.0116062146] yes=9,no=10,missing=9
			9:leaf=0.0299999993
			10:leaf=-0.0151549326
	2:[SAFB_TSS<0.166666672] yes=5,no=6,missing=5
		5:[H3K27ac.RPKM.quantile_TSS<0.848568559] yes=11,no=12,missing=11
			11:leaf=0.0100403549
			12:leaf=-0.0143861594
		6:[TF_NMF1_e<0.127859652] yes=13,no=14,missing=13
			13:leaf=-0.0291888807
			14:leaf=0.00158068491
booster[123]:
0:[CHAMP1_e<0.25] yes=1,no=2,missing=1
	1:[TF_NMF7_e<0.229395792] yes=3,no=4,missing=3
		3:[TSS.count.near.enhancer<0.890697658] yes=7,no=8,missing=7
			7:leaf=-0.0187141001
			8:leaf=0.00356821297
		4:[TF_NMF4_e<0.0166575722] yes=9,no=10,missing=9
			9:leaf=0.0142762745
			10:leaf=-0.00942998193
	2:[distance<0.349265873] yes=5,no=6,missing=5
		5:[ATF3_e<0.166666672] yes=11,no=12,missing=11
			11:leaf=0.0264692884
			12:leaf=0.00583447656
		6:[TF_NMF8_TSS<0.237437248] yes=13,no=14,missing=13
			13:leaf=-0.0275117345
			14:leaf=0.0177587196
booster[124]:
0:[normalized_h3K27ac_e<0.21941489] yes=1,no=2,missing=1
	1:[MLLT1_TSS<0.166666672] yes=3,no=4,missing=3
		3:[E2F6_e<0.166666672] yes=7,no=8,missing=7
			7:leaf=-0.0214849599
			8:leaf=-0.00139952847
		4:[NRF1_e<0.25] yes=9,no=10,missing=9
			9:leaf=0.00247032708
			10:leaf=-0.015687054
	2:[Enhancer.count.near.TSS<0.132853031] yes=5,no=6,missing=5
		5:leaf=0.0299999993
		6:[hic_contact<0.193849087] yes=11,no=12,missing=11
			11:leaf=-0.00388284656
			12:leaf=0.0249562971
booster[125]:
0:[zscore.contact.from.enhancer<0.0731326863] yes=1,no=2,missing=1
	1:[TargetGeneExpression<0.0711776838] yes=3,no=4,missing=3
		3:leaf=0.0227791108
		4:[MAX_TSS<0.5] yes=7,no=8,missing=7
			7:leaf=-0.0279766321
			8:leaf=-0.00402204785
	2:[TargetGeneExpression<0.408768892] yes=5,no=6,missing=5
		5:[SAFB_TSS<0.166666672] yes=9,no=10,missing=9
			9:leaf=-0.00154357427
			10:leaf=-0.0232509747
		6:[ELK1_TSS<0.25] yes=11,no=12,missing=11
			11:leaf=0.0165341254
			12:leaf=-0.011668806
booster[126]:
0:[TSS.count.near.enhancer<0.183720931] yes=1,no=2,missing=1
	1:[STAT2_e<0.25] yes=3,no=4,missing=3
		3:[NRF1_TSS<0.75] yes=7,no=8,missing=7
			7:leaf=-0.00485772174
			8:leaf=0.0286345202
		4:leaf=0.0299999993
	2:[remaining.enhancers.contact.to.TSS<0.311074227] yes=5,no=6,missing=5
		5:[IRF1_TSS<0.166666672] yes=11,no=12,missing=11
			11:leaf=-0.00316879246
			12:leaf=-0.0237085093
		6:[Enhancer.count.near.TSS<0.511527359] yes=13,no=14,missing=13
			13:leaf=0.00753509812
			14:leaf=-0.00955892727
booster[127]:
0:[STAT1_e<0.25] yes=1,no=2,missing=1
	1:[hic_contact<0.156122714] yes=3,no=4,missing=3
		3:[TargetGeneExpression<0.572908044] yes=7,no=8,missing=7
			7:leaf=-0.0118944412
			8:leaf=0.0163957626
		4:[distance<0.000933590461] yes=9,no=10,missing=9
			9:leaf=-0.0196102858
			10:leaf=0.012880493
	2:[distance<0.182997882] yes=5,no=6,missing=5
		5:[Enhancer.count.near.TSS<0.300576389] yes=11,no=12,missing=11
			11:leaf=0.0299999993
			12:leaf=0.00813474786
		6:[TF_NMF7_TSS<0.00854363479] yes=13,no=14,missing=13
			13:leaf=0.0299999993
			14:leaf=-0.026281368
booster[128]:
0:[TSS.count.near.enhancer<0.183720931] yes=1,no=2,missing=1
	1:[distance<0.130025133] yes=3,no=4,missing=3
		3:[diff.from.max.contact.to.TSS<0.791581333] yes=7,no=8,missing=7
			7:leaf=0.0299999993
			8:leaf=0.0030035472
		4:[TF_NMF5_TSS<0.13302964] yes=9,no=10,missing=9
			9:leaf=-0.0220012441
			10:leaf=0.0161768179
	2:[TF_NMF4_TSS<0.513680637] yes=5,no=6,missing=5
		5:[zscore.contact.from.enhancer<0.541374803] yes=11,no=12,missing=11
			11:leaf=-0.011845611
			12:leaf=0.00965624209
		6:[ZFP91_TSS<0.25] yes=13,no=14,missing=13
			13:leaf=-0.00864608865
			14:leaf=0.0299999993
booster[129]:
0:[TF_NMF10_TSS<0.407595575] yes=1,no=2,missing=1
	1:[TF_NMF8_TSS<0.0367534496] yes=3,no=4,missing=3
		3:[distance<0.11009708] yes=7,no=8,missing=7
			7:leaf=0.011794975
			8:leaf=-0.0119555388
		4:[U2AF1_TSS<0.25] yes=9,no=10,missing=9
			9:leaf=-0.0214663595
			10:leaf=-0.00196640799
	2:[normalized_h3K27ac_e<0.285904229] yes=5,no=6,missing=5
		5:[TF_NMF1_e<0.0409448892] yes=11,no=12,missing=11
			11:leaf=-0.00993858092
			12:leaf=0.0162243098
		6:[TF_NMF8_TSS<0.0153237451] yes=13,no=14,missing=13
			13:leaf=-0.00298127602
			14:leaf=0.0299999993
booster[130]:
0:[normalized_h3K27ac_e<0.628989339] yes=1,no=2,missing=1
	1:[SKIL_e<0.25] yes=3,no=4,missing=3
		3:[TF_NMF10_TSS<0.0690677613] yes=5,no=6,missing=5
			5:leaf=0.0182466041
			6:leaf=-0.00317792059
		4:[NCOA6_e<0.5] yes=7,no=8,missing=7
			7:leaf=-0.0169978086
			8:leaf=0.0122896554
	2:leaf=0.0299999993
booster[131]:
0:[SMAD1_TSS<0.25] yes=1,no=2,missing=1
	1:[zscore.contact.to.TSS<0.055992499] yes=3,no=4,missing=3
		3:[TargetGeneExpression<0.442503214] yes=7,no=8,missing=7
			7:leaf=-0.0221899673
			8:leaf=0.00808669068
		4:[CBFA2T3_e<0.25] yes=9,no=10,missing=9
			9:leaf=-0.0167698003
			10:leaf=0.0103418529
	2:[TF_NMF10_TSS<0.383004844] yes=5,no=6,missing=5
		5:[CUX1_e<0.25] yes=11,no=12,missing=11
			11:leaf=-0.00499600405
			12:leaf=0.025395859
		6:[TF_NMF10_TSS<0.462930769] yes=13,no=14,missing=13
			13:leaf=0.0299999993
			14:leaf=-0.00432901364
booster[132]:
0:[distance<0.608411968] yes=1,no=2,missing=1
	1:[TF_NMF7_e<0.229395792] yes=3,no=4,missing=3
		3:[STAT1_e<0.25] yes=5,no=6,missing=5
			5:leaf=-0.0095774224
			6:leaf=0.0125496546
		4:[TF_NMF4_e<0.0240857769] yes=7,no=8,missing=7
			7:leaf=0.0240520183
			8:leaf=-0.00111899315
	2:leaf=-0.0299999993
booster[133]:
0:[RBM22_TSS<0.166666672] yes=1,no=2,missing=1
	1:[diff.from.max.contact.to.TSS<0.843971074] yes=3,no=4,missing=3
		3:[CHAMP1_e<0.25] yes=7,no=8,missing=7
			7:leaf=-0.0148244705
			8:leaf=0.00277395826
		4:[TargetGeneExpression<0.136294767] yes=9,no=10,missing=9
			9:leaf=-0.0257089101
			10:leaf=0.0174424667
	2:[AFF1_TSS<0.75] yes=5,no=6,missing=5
		5:[STAT2_e<0.25] yes=11,no=12,missing=11
			11:leaf=-0.00193797844
			12:leaf=0.025734989
		6:[SKIL_e<0.25] yes=13,no=14,missing=13
			13:leaf=0.0299999993
			14:leaf=0.00069283467
booster[134]:
0:[TF_NMF1_e<0.0601655394] yes=1,no=2,missing=1
	1:[TargetGeneExpression<0.562182307] yes=3,no=4,missing=3
		3:[AFF1_TSS<0.75] yes=7,no=8,missing=7
			7:leaf=-0.0143082319
			8:leaf=0.0190077405
		4:[TF_NMF9_e<0.105512381] yes=9,no=10,missing=9
			9:leaf=0.0266611185
			10:leaf=-0.0233118925
	2:[zscore.contact.from.enhancer<0.0694355816] yes=5,no=6,missing=5
		5:leaf=-0.0253297128
		6:[TBP_e<0.166666672] yes=13,no=14,missing=13
			13:leaf=-0.00138919125
			14:leaf=0.0174584184
booster[135]:
0:[TargetGeneExpression<0.586107492] yes=1,no=2,missing=1
	1:[Enhancer.count.near.TSS<0.0340057611] yes=3,no=4,missing=3
		3:leaf=0.0299999993
		4:[normalized_h3K27ac_e<0.392287254] yes=7,no=8,missing=7
			7:leaf=-0.00738840224
			8:leaf=0.0168818776
	2:[Enhancer.count.near.TSS<0.584726214] yes=5,no=6,missing=5
		5:[TF_NMF1_TSS<0.246845454] yes=9,no=10,missing=9
			9:leaf=0.0299999993
			10:leaf=-0.00511507969
		6:leaf=-0.0221818238
booster[136]:
0:[Enhancer.count.near.TSS<0.529971182] yes=1,no=2,missing=1
	1:[TF_NMF4_TSS<0.530017734] yes=3,no=4,missing=3
		3:[TF_NMF10_e<0.423649967] yes=7,no=8,missing=7
			7:leaf=-0.00482851407
			8:leaf=0.0158824455
		4:[TSS.count.near.enhancer<0.388372093] yes=9,no=10,missing=9
			9:leaf=-0.00341816619
			10:leaf=0.0299999993
	2:[distance<0.00744818151] yes=5,no=6,missing=5
		5:[TF_NMF12_TSS<0.0802435279] yes=11,no=12,missing=11
			11:leaf=0.0269770827
			12:leaf=-0.0111810574
		6:[diff.from.max.contact.from.enhancer<0.856087208] yes=13,no=14,missing=13
			13:leaf=-0.00815852266
			14:leaf=-0.0281750578
booster[137]:
0:[TF_NMF10_TSS<0.386398196] yes=1,no=2,missing=1
	1:[hic_contact<0.0080490429] yes=3,no=4,missing=3
		3:[TF_NMF12_e<0.24884598] yes=7,no=8,missing=7
			7:leaf=-0.0234958772
			8:leaf=0.018153837
		4:[THAP1_TSS<0.166666672] yes=9,no=10,missing=9
			9:leaf=0.00331241405
			10:leaf=-0.015106272
	2:[SMAD1_TSS<0.25] yes=5,no=6,missing=5
		5:[TRIM24_e<0.25] yes=11,no=12,missing=11
			11:leaf=-0.0131994477
			12:leaf=0.0144765964
		6:[U2AF1_TSS<0.25] yes=13,no=14,missing=13
			13:leaf=0.0299999993
			14:leaf=-0.00852240343
booster[138]:
0:[distance<0.113124877] yes=1,no=2,missing=1
	1:[H3K27ac.RPKM.quantile_TSS<0.498229325] yes=3,no=4,missing=3
		3:[hic_contact<0.0846714228] yes=7,no=8,missing=7
			7:leaf=0.0299999993
			8:leaf=0.00270005828
		4:[Enhancer.count.near.TSS<0.300576359] yes=9,no=10,missing=9
			9:leaf=0.00770456577
			10:leaf=-0.00934121478
	2:[SMAD1_e<0.25] yes=5,no=6,missing=5
		5:[TF_NMF6_TSS<0.337659568] yes=11,no=12,missing=11
			11:leaf=-0.0193017535
			12:leaf=0.0112839388
		6:[TF_NMF6_TSS<0.107705846] yes=13,no=14,missing=13
			13:leaf=0.0261773448
			14:leaf=-0.0222130734
booster[139]:
0:[E2F8_TSS<0.25] yes=1,no=2,missing=1
	1:[TargetGeneExpression<0.39242214] yes=3,no=4,missing=3
		3:[TF_NMF2_e<0.0464209318] yes=7,no=8,missing=7
			7:leaf=-0.0106973527
			8:leaf=0.00880439766
		4:[diff.from.max.contact.to.TSS<0.608823419] yes=9,no=10,missing=9
			9:leaf=-0.0280645229
			10:leaf=0.0210359823
	2:[TF_NMF7_e<0.0111970603] yes=5,no=6,missing=5
		5:[HES1_e<0.25] yes=11,no=12,missing=11
			11:leaf=-0.00803003553
			12:leaf=0.0260318685
		6:[TF_NMF4_e<5.38585737e-05] yes=13,no=14,missing=13
			13:leaf=0.00114626903
			14:leaf=-0.0222452823
booster[140]:
0:[H3K27ac.RPKM.quantile_TSS<0.84977746] yes=1,no=2,missing=1
	1:[H3K27ac.RPKM.quantile_TSS<0.822983861] yes=3,no=4,missing=3
		3:[TargetGeneExpression<0.408306897] yes=7,no=8,missing=7
			7:leaf=-0.00835468993
			8:leaf=0.0135137197
		4:[TF_NMF2_TSS<0.0420814268] yes=9,no=10,missing=9
			9:leaf=-0.0137163168
			10:leaf=0.0299999993
	2:[ZBTB7A_e<0.166666672] yes=5,no=6,missing=5
		5:[ARHGAP35_TSS<0.25] yes=11,no=12,missing=11
			11:leaf=-0.0270542186
			12:leaf=-0.00181076908
		6:[MAX_e<0.166666672] yes=13,no=14,missing=13
			13:leaf=0.0299999993
			14:leaf=-0.0124159232
booster[141]:
0:[ZNF274_e<0.5] yes=1,no=2,missing=1
	1:[TF_NMF6_TSS<0.0155503405] yes=3,no=4,missing=3
		3:[MYBL2_e<0.5] yes=7,no=8,missing=7
			7:leaf=-0.0142794624
			8:leaf=0.0238084756
		4:[TF_NMF6_TSS<0.024567008] yes=9,no=10,missing=9
			9:leaf=0.0299999993
			10:leaf=-0.00110656943
	2:[TF_NMF9_e<0.325874239] yes=5,no=6,missing=5
		5:[MBD2_TSS<0.25] yes=11,no=12,missing=11
			11:leaf=-0.00415793341
			12:leaf=0.0299999993
		6:[TF_NMF5_e<0.27476573] yes=13,no=14,missing=13
			13:leaf=-0.0218511038
			14:leaf=0.0260737147
booster[142]:
0:[normalized_h3K27ac_e<0.416223407] yes=1,no=2,missing=1
	1:[TargetGeneExpression<0.408768892] yes=3,no=4,missing=3
		3:[RNF2_TSS<0.25] yes=7,no=8,missing=7
			7:leaf=1.48967192e-05
			8:leaf=-0.0145460516
		4:[CBX5_TSS<0.25] yes=9,no=10,missing=9
			9:leaf=-0.00106623687
			10:leaf=0.0246996116
	2:[TF_NMF3_TSS<0.151058033] yes=5,no=6,missing=5
		5:[distance<0.0278107934] yes=11,no=12,missing=11
			11:leaf=0.0275620054
			12:leaf=-0.0245298538
		6:leaf=0.0299999993
booster[143]:
0:[distance<0.18994385] yes=1,no=2,missing=1
	1:[TF_NMF2_TSS<0.167467639] yes=3,no=4,missing=3
		3:[zscore.contact.to.TSS<0.0397675335] yes=7,no=8,missing=7
			7:leaf=0.0288876873
			8:leaf=0.00432965765
		4:[TF_NMF6_TSS<0.250965595] yes=9,no=10,missing=9
			9:leaf=-0.0231254697
			10:leaf=0.00433290377
	2:[TF_NMF3_TSS<0.422570467] yes=5,no=6,missing=5
		5:[ZBTB7A_e<0.166666672] yes=11,no=12,missing=11
			11:leaf=-0.02086211
			12:leaf=-0.00172680186
		6:[TF_NMF8_e<0.096412085] yes=13,no=14,missing=13
			13:leaf=0.028913958
			14:leaf=-0.0299999993
booster[144]:
0:[normalized_h3K27ac_e<0.392287254] yes=1,no=2,missing=1
	1:[TF_NMF1_TSS<0.0441837721] yes=3,no=4,missing=3
		3:[TF_NMF10_e<0.446361095] yes=7,no=8,missing=7
			7:leaf=-0.00073648477
			8:leaf=0.0267971847
		4:[XRCC5_TSS<0.25] yes=9,no=10,missing=9
			9:leaf=-0.0159047991
			10:leaf=0.000833724043
	2:[TF_NMF1_TSS<0.386812836] yes=5,no=6,missing=5
		5:[GABPA_TSS<0.25] yes=11,no=12,missing=11
			11:leaf=0.00109333964
			12:leaf=0.0299999993
		6:leaf=-0.0203874055
booster[145]:
0:[STAT2_e<0.25] yes=1,no=2,missing=1
	1:[TF_NMF10_TSS<0.0866651833] yes=3,no=4,missing=3
		3:[NBN_e<0.25] yes=7,no=8,missing=7
			7:leaf=0.0179922767
			8:leaf=-0.0140283192
		4:[zscore.contact.from.enhancer<0.419943035] yes=9,no=10,missing=9
			9:leaf=-0.0137291159
			10:leaf=0.00611286471
	2:[TSS.count.near.enhancer<0.169767439] yes=5,no=6,missing=5
		5:leaf=0.0299999993
		6:[ASH1L_TSS<0.25] yes=13,no=14,missing=13
			13:leaf=0.0101302676
			14:leaf=-0.0243364237
booster[146]:
0:[TF_NMF1_TSS<0.139387697] yes=1,no=2,missing=1
	1:[AFF1_TSS<0.25] yes=3,no=4,missing=3
		3:[HES1_TSS<0.25] yes=7,no=8,missing=7
			7:leaf=-0.00466862042
			8:leaf=0.0299999993
		4:[MAFK_e<0.25] yes=9,no=10,missing=9
			9:leaf=0.0224366523
			10:leaf=-0.00661808904
	2:[TF_NMF6_e<0.657391548] yes=5,no=6,missing=5
		5:[XRCC5_TSS<0.25] yes=11,no=12,missing=11
			11:leaf=-0.0206707753
			12:leaf=-0.0044717025
		6:leaf=0.0299999993
booster[147]:
0:[TF_NMF10_TSS<0.383101583] yes=1,no=2,missing=1
	1:[TF_NMF10_TSS<0.0870165378] yes=3,no=4,missing=3
		3:[TF_NMF4_e<0.0118718967] yes=7,no=8,missing=7
			7:leaf=0.0255297292
			8:leaf=-0.00701606274
		4:[diff.from.max.contact.to.TSS<0.843703985] yes=9,no=10,missing=9
			9:leaf=-0.0163409878
			10:leaf=0.0077253608
	2:[normalized_h3K4me3_e<0.066901423] yes=5,no=6,missing=5
		5:[TF_NMF1_e<0.0409448892] yes=11,no=12,missing=11
			11:leaf=-0.0132223256
			12:leaf=0.0104549909
		6:[MXI1_TSS<0.25] yes=13,no=14,missing=13
			13:leaf=0.00900507346
			14:leaf=0.0299999993
booster[148]:
0:[normalized_dhs<0.0277693234] yes=1,no=2,missing=1
	1:[H3K27ac.RPKM.quantile_TSS<0.452437282] yes=3,no=4,missing=3
		3:leaf=0.0188808516
		4:[remaining.TSS.contact.from.enhancer<0.347915173] yes=7,no=8,missing=7
			7:leaf=-0.0240544099
			8:leaf=0.00855557527
	2:[TF_NMF8_TSS<0.289765239] yes=5,no=6,missing=5
		5:[PHF20_e<0.25] yes=9,no=10,missing=9
			9:leaf=0.00793311652
			10:leaf=-0.0130302059
		6:[ELF1_TSS<0.25] yes=11,no=12,missing=11
			11:leaf=-0.00368038472
			12:leaf=-0.029304646
booster[149]:
0:[TF_NMF10_TSS<0.383101583] yes=1,no=2,missing=1
	1:[Enhancer.count.near.TSS<0.0397694521] yes=3,no=4,missing=3
		3:leaf=0.0299999993
		4:[TF_NMF10_e<0.532256246] yes=7,no=8,missing=7
			7:leaf=-0.00950697344
			8:leaf=0.0206014477
	2:[FOXM1_TSS<0.25] yes=5,no=6,missing=5
		5:[TRIM24_e<0.25] yes=9,no=10,missing=9
			9:leaf=-0.0151975732
			10:leaf=0.0136993304
		6:[NR2C1_TSS<0.25] yes=11,no=12,missing=11
			11:leaf=0.0120828524
			12:leaf=0.0299999993
booster[150]:
0:[distance<0.616166472] yes=1,no=2,missing=1
	1:[TF_NMF6_TSS<1.71384636e-05] yes=3,no=4,missing=3
		3:[TF_NMF7_TSS<0.0266549736] yes=7,no=8,missing=7
			7:leaf=0.00412425818
			8:leaf=-0.0225763824
		4:[TF_NMF8_TSS<0.289765239] yes=9,no=10,missing=9
			9:leaf=0.00713951001
			10:leaf=-0.0140380254
	2:leaf=-0.0269778315
booster[151]:
0:[zscore.contact.from.enhancer<0.0655932426] yes=1,no=2,missing=1
	1:leaf=-0.0224414859
	2:[TF_NMF2_e<0.00287073618] yes=5,no=6,missing=5
		5:[SAFB_TSS<0.166666672] yes=9,no=10,missing=9
			9:leaf=-0.00136694091
			10:leaf=-0.0221103244
		6:[TF_NMF3_TSS<0.366289109] yes=11,no=12,missing=11
			11:leaf=0.000464473298
			12:leaf=0.0186520834
booster[152]:
0:[SMAD1_TSS<0.25] yes=1,no=2,missing=1
	1:[ZNF592_e<0.166666672] yes=3,no=4,missing=3
		3:[hic_contact<0.011958139] yes=7,no=8,missing=7
			7:leaf=-0.0284541082
			8:leaf=-0.0105009424
		4:[TF_NMF11_e<0.355757236] yes=9,no=10,missing=9
			9:leaf=0.00444272999
			10:leaf=-0.0151699819
	2:[H3K27ac.RPKM.quantile_TSS<0.623537064] yes=5,no=6,missing=5
		5:[MYNN_TSS<0.25] yes=11,no=12,missing=11
			11:leaf=6.31556832e-05
			12:leaf=0.0299999993
		6:[ZBED1_TSS<0.25] yes=13,no=14,missing=13
			13:leaf=-0.00787976384
			14:leaf=0.0130023006
booster[153]:
0:[TF_NMF7_e<0.24393332] yes=1,no=2,missing=1
	1:[TargetGeneExpression<0.562943339] yes=3,no=4,missing=3
		3:[TF_NMF3_e<0.424548417] yes=7,no=8,missing=7
			7:leaf=-0.0111136353
			8:leaf=0.0117125995
		4:[TF_NMF1_TSS<0.0734290257] yes=9,no=10,missing=9
			9:leaf=0.0299999993
			10:leaf=-0.00739610568
	2:[TF_NMF4_e<0.00924864598] yes=5,no=6,missing=5
		5:[remaining.TSS.contact.from.enhancer<0.0631918237] yes=11,no=12,missing=11
			11:leaf=-0.0117462873
			12:leaf=0.0299999993
		6:[TF_NMF8_TSS<0.0367534496] yes=13,no=14,missing=13
			13:leaf=0.0136525193
			14:leaf=-0.0134408763
booster[154]:
0:[TF_NMF7_TSS<0.0325243175] yes=1,no=2,missing=1
	1:[TSS.count.near.enhancer<0.169767439] yes=3,no=4,missing=3
		3:[distance<0.127755255] yes=7,no=8,missing=7
			7:leaf=0.0299999993
			8:leaf=-0.0161777716
		4:[TF_NMF2_e<0.0495354608] yes=9,no=10,missing=9
			9:leaf=-0.0129835419
			10:leaf=0.0129147889
	2:[TF_NMF6_TSS<3.79350604e-05] yes=5,no=6,missing=5
		5:[TF_NMF4_TSS<0.0453381948] yes=11,no=12,missing=11
			11:leaf=-0.0102211032
			12:leaf=-0.0299999993
		6:[TF_NMF1_TSS<0.150240123] yes=13,no=14,missing=13
			13:leaf=0.0070955269
			14:leaf=-0.0121541396
booster[155]:
0:[RBBP5_TSS<0.166666672] yes=1,no=2,missing=1
	1:[TF_NMF8_TSS<0.0649598613] yes=3,no=4,missing=3
		3:[TF_NMF10_e<0.436096668] yes=7,no=8,missing=7
			7:leaf=-0.0071043158
			8:leaf=0.0297027901
		4:[zscore.contact.to.TSS<0.0207499918] yes=9,no=10,missing=9
			9:leaf=0.0299999993
			10:leaf=0.00389417005
	2:[zscore.contact.to.TSS<0.0559956059] yes=5,no=6,missing=5
		5:[HDAC6_TSS<0.166666672] yes=11,no=12,missing=11
			11:leaf=-0.0220342781
			12:leaf=0.0118919834
		6:[TF_NMF8_TSS<0.0635040402] yes=13,no=14,missing=13
			13:leaf=0.00958662666
			14:leaf=-0.0115756169
booster[156]:
0:[KLF16_TSS<0.25] yes=1,no=2,missing=1
	1:[zscore.contact.from.enhancer<0.0621285811] yes=3,no=4,missing=3
		3:leaf=-0.0296067633
		4:[ZNF24_TSS<0.5] yes=7,no=8,missing=7
			7:leaf=-4.21987206e-05
			8:leaf=0.0232109651
	2:[TF_NMF10_TSS<0.115616076] yes=5,no=6,missing=5
		5:[CBFA2T2_e<0.25] yes=9,no=10,missing=9
			9:leaf=-0.0266861636
			10:leaf=0.0152591653
		6:leaf=-0.0293406527
booster[157]:
0:[zscore.contact.from.enhancer<0.538740039] yes=1,no=2,missing=1
	1:[WHSC1_TSS<0.25] yes=3,no=4,missing=3
		3:[TF_NMF1_TSS<0.635914087] yes=7,no=8,missing=7
			7:leaf=-0.00315434439
			8:leaf=-0.0299999993
		4:leaf=0.0299999993
	2:[KDM5B_TSS<0.166666672] yes=5,no=6,missing=5
		5:leaf=-0.0116949715
		6:[normalized_h3K27ac_e<0.0545212775] yes=11,no=12,missing=11
			11:leaf=0.0012650789
			12:leaf=0.0290985741
booster[158]:
0:[TF_NMF8_TSS<0.289765239] yes=1,no=2,missing=1
	1:[TF_NMF6_TSS<1.71384636e-05] yes=3,no=4,missing=3
		3:[diff.from.max.contact.from.enhancer<0.988719225] yes=7,no=8,missing=7
			7:leaf=-0.017356379
			8:leaf=0.00747404061
		4:[TF_NMF6_TSS<0.024567008] yes=9,no=10,missing=9
			9:leaf=0.0299999993
			10:leaf=0.00490060821
	2:[TF_NMF10_TSS<0.00378612522] yes=5,no=6,missing=5
		5:leaf=0.0103671486
		6:[H3K4me3.RPKM.quantile_TSS<0.621223629] yes=11,no=12,missing=11
			11:leaf=-0.000497482833
			12:leaf=-0.0278016701
booster[159]:
0:[XRCC3_TSS<0.5] yes=1,no=2,missing=1
	1:[RBBP5_TSS<0.166666672] yes=3,no=4,missing=3
		3:[ELF4_e<0.25] yes=7,no=8,missing=7
			7:leaf=0.0138727752
			8:leaf=-0.0121707451
		4:[distance<0.113124877] yes=9,no=10,missing=9
			9:leaf=0.00163457892
			10:leaf=-0.0156185497
	2:[KDM1A_TSS<0.25] yes=5,no=6,missing=5
		5:leaf=-0.0112801371
		6:leaf=0.0299999993
booster[160]:
0:[remaining.TSS.contact.from.enhancer<0.0850370675] yes=1,no=2,missing=1
	1:[TF_NMF12_TSS<0.285925448] yes=3,no=4,missing=3
		3:[PRDM10_TSS<0.5] yes=7,no=8,missing=7
			7:leaf=0.000180695584
			8:leaf=0.0299999993
		4:[ELF1_TSS<0.25] yes=9,no=10,missing=9
			9:leaf=0.0014316201
			10:leaf=0.0299999993
	2:[hic_contact<0.271384597] yes=5,no=6,missing=5
		5:[TF_NMF7_e<0.427566886] yes=11,no=12,missing=11
			11:leaf=-0.0102918688
			12:leaf=0.0166006535
		6:[remaining.TSS.contact.from.enhancer<0.146654382] yes=13,no=14,missing=13
			13:leaf=-0.0114752492
			14:leaf=0.0219561867
booster[161]:
0:[TF_NMF1_e<0.529118955] yes=1,no=2,missing=1
	1:[Enhancer.count.near.TSS<0.0331412107] yes=3,no=4,missing=3
		3:leaf=0.0299999993
		4:[ZBTB7A_TSS<0.5] yes=7,no=8,missing=7
			7:leaf=-0.00228342949
			8:leaf=-0.0203646105
	2:leaf=0.0282313749
booster[162]:
0:[normalized_h3K27ac_e<0.392287254] yes=1,no=2,missing=1
	1:[TF_NMF4_e<0.00507791108] yes=3,no=4,missing=3
		3:[CBX5_TSS<0.25] yes=7,no=8,missing=7
			7:leaf=0.000768497994
			8:leaf=0.0299999993
		4:[TF_NMF6_TSS<0.0106609818] yes=9,no=10,missing=9
			9:leaf=-0.0200198498
			10:leaf=-0.00401560543
	2:[TF_NMF3_TSS<0.151058033] yes=5,no=6,missing=5
		5:[hic_contact<0.0636997893] yes=11,no=12,missing=11
			11:leaf=-0.0282793157
			12:leaf=0.0237391368
		6:leaf=0.0299999993
booster[163]:
0:[TargetGeneExpression<0.408768892] yes=1,no=2,missing=1
	1:[zscore.contact.to.TSS<0.0111458562] yes=3,no=4,missing=3
		3:leaf=-0.0295950416
		4:[KLF16_TSS<0.25] yes=7,no=8,missing=7
			7:leaf=-0.00175827113
			8:leaf=-0.0216093864
	2:[TF_NMF1_TSS<0.139152646] yes=5,no=6,missing=5
		5:[GABPA_TSS<0.25] yes=9,no=10,missing=9
			9:leaf=0.00771914888
			10:leaf=0.0299999993
		6:[TF_NMF2_e<0.202173054] yes=11,no=12,missing=11
			11:leaf=-0.0154550849
			12:leaf=0.01848354
booster[164]:
0:[STAT1_e<0.25] yes=1,no=2,missing=1
	1:[HCFC1_TSS<0.25] yes=3,no=4,missing=3
		3:[TargetGeneExpression<0.408594429] yes=7,no=8,missing=7
			7:leaf=-0.00201743073
			8:leaf=0.0235816166
		4:[TF_NMF4_e<0.573950887] yes=9,no=10,missing=9
			9:leaf=-0.0131103033
			10:leaf=0.0299999993
	2:[ZBTB7A_TSS<0.166666672] yes=5,no=6,missing=5
		5:[ZNF384_TSS<0.25] yes=11,no=12,missing=11
			11:leaf=-0.0299999993
			12:leaf=0.00726613821
		6:[STAT5A_e<0.25] yes=13,no=14,missing=13
			13:leaf=-0.00693154428
			14:leaf=0.0299999993
