{"learner":{"attributes":{"best_iteration":"187","best_ntree_limit":"188"},"feature_names":["normalized_h3K27ac_e","normalized_h3K4me3_e","normalized_dhs","TargetGeneExpression","distance","H3K27ac.RPKM.quantile_TSS","H3K4me3.RPKM.quantile_TSS","H3K27me3.RPKM.quantile_TSS","hic_contact","Enhancer.count.near.TSS","zscore.contact.to.TSS","diff.from.max.contact.to.TSS","remaining.enhancers.contact.to.TSS","TSS.count.near.enhancer","zscore.contact.from.enhancer","diff.from.max.contact.from.enhancer","remaining.TSS.contact.from.enhancer","ARID3A_e","ARNT_e","ATF3_e","BHLHE40_e","BRD9_e","C11orf30_e","CBX3_e","CC2D1A_e","CHAMP1_e","CTBP1_e","E2F7_e","FOXM1_e","GATA1_e","GATA2_e","GATAD2A_e","GATAD2B_e","GMEB1_e","HDAC3_e","HMBOX1_e","IRF1_e","JUN_e","KLF16_e","MCM7_e","MEIS2_e","MYBL2_e","MYC_e","NBN_e","NCOA2_e","NCOR1_e","NFRKB_e","NR2F1_e","NR3C1_e","NRF1_e","PHB2_e","PML_e","POLR2A_e","PRDM10_e","RBM22_e","SAFB_e","SMAD1_e","SMARCA4_e","SMARCE1_e","STAT1_e","STAT2_e","STAT5A_e","TAF9B_e","TCF12_e","TEAD4_e","ZBTB2_e","ZBTB5_e","ZBTB7A_e","ZNF274_e","ZNF282_e","AFF1_TSS","ARHGAP35_TSS","ASH1L_TSS","ATF7_TSS","C11orf30_TSS","CBX5_TSS","CEBPB_TSS","E2F6_TSS","E2F8_TSS","ELF4_TSS","ELK1_TSS","ESRRA_TSS","GABPA_TSS","HCFC1_TSS","HDAC6_TSS","IRF1_TSS","IRF2_TSS","JUNB_TSS","L3MBTL2_TSS","MEIS2_TSS","MIER1_TSS","MLLT1_TSS","MTA3_TSS","NCOA1_TSS","NFRKB_TSS","NFXL1_TSS","NR2F2_TSS","PRDM10_TSS","RBBP5_TSS","RBM22_TSS","RUNX1_TSS","SIN3B_TSS","SIX5_TSS","SMAD1_TSS","SMARCA4_TSS","SNRNP70_TSS","SP1_TSS","SUZ12_TSS","TAF15_TSS","TAF7_TSS","TBL1XR1_TSS","TBP_TSS","TCF7L2_TSS","THAP1_TSS","U2AF1_TSS","UBTF_TSS","WHSC1_TSS","XRCC3_TSS","XRCC5_TSS","YY1_TSS","ZBTB11_TSS","ZBTB40_TSS","ZBTB7A_TSS","ZNF184_TSS","ZNF24_TSS","TF_NMF1_e","TF_NMF2_e","TF_NMF3_e","TF_NMF4_e","TF_NMF5_e","TF_NMF6_e","TF_NMF7_e","TF_NMF8_e","TF_NMF9_e","TF_NMF10_e","TF_NMF11_e","TF_NMF1_TSS","TF_NMF2_TSS","TF_NMF3_TSS","TF_NMF4_TSS","TF_NMF5_TSS","TF_NMF6_TSS","TF_NMF7_TSS","TF_NMF8_TSS","TF_NMF9_TSS","TF_NMF10_TSS","TF_NMF11_TSS","TF_NMF12_TSS"],"feature_types":["float","float","float","float","float","float","float","float","float","float","float","float","float","float","float","float","float","float","float","float","float","float","float","float","float","float","float","float","float","float","float","float","float","float","float","float","float","float","float","float","float","float","float","float","float","float","float","float","float","float","float","float","float","float","float","float","float","float","float","float","float","float","float","float","float","float","float","float","float","float","float","float","float","float","float","float","float","float","float","float","float","float","float","float","float","float","float","float","float","float","float","float","float","float","float","float","float","float","float","float","float","float","float","float","float","float","float","float","float","float","float","float","float","float","float","float","float","float","float","float","float","float","float","float","float","float","float","float","float","float","float","float","float","float","float","float","float","float","float","float","float","float","float","float","float","float","float","float"],"gradient_booster":{"model":{"gbtree_model_param":{"num_parallel_tree":"1","num_trees":"188","size_leaf_vector":"0"},"tree_info":[0,0,0,0,0,0,0,0,0,0,0,0,0,0,0,0,0,0,0,0,0,0,0,0,0,0,0,0,0,0,0,0,0,0,0,0,0,0,0,0,0,0,0,0,0,0,0,0,0,0,0,0,0,0,0,0,0,0,0,0,0,0,0,0,0,0,0,0,0,0,0,0,0,0,0,0,0,0,0,0,0,0,0,0,0,0,0,0,0,0,0,0,0,0,0,0,0,0,0,0,0,0,0,0,0,0,0,0,0,0,0,0,0,0,0,0,0,0,0,0,0,0,0,0,0,0,0,0,0,0,0,0,0,0,0,0,0,0,0,0,0,0,0,0,0,0,0,0,0,0,0,0,0,0,0,0,0,0,0,0,0,0,0,0,0,0,0,0,0,0,0,0,0,0,0,0,0,0,0,0,0,0,0,0,0,0,0,0],"trees":[{"base_weights":[-1E0,-1E0,5.693178E-3,-1E0,-4.829476E-1,-5.3096646E-1,6.2927026E-1,-8.7479395E-1,1.0206658E-1,-1.995685E-1,1E0],"categories":[],"categories_nodes":[],"categories_segments":[],"categories_sizes":[],"default_left":[1,1,1,1,1,1,1,0,0,0,0],"id":0,"left_children":[1,-1,5,-1,-1,7,9,-1,-1,-1,-1],"loss_changes":[4.850503E2,3.4296875E0,1.6237982E2,0E0,0E0,5.704641E1,7.746034E1,0E0,0E0,0E0,0E0],"parents":[2147483647,0,0,1,1,2,2,5,5,6,6],"right_children":[2,-1,6,-1,-1,8,10,-1,-1,-1,-1],"split_conditions":[9.996491E-1,-3E-2,2.5E-1,-3E-2,-1.4488427E-2,2.4012265E-1,9.165399E-2,-2.6243817E-2,3.0619972E-3,-5.9870547E-3,3E-2],"split_indices":[15,132,38,2147483647,2147483647,10,2,0,0,0,0],"split_type":[0,0,0,0,0,0,0,0,0,0,0],"sum_hessian":[3.7627764E3,3.2833696E3,4.794068E2,3.2629727E3,2.0397133E1,2.5781345E2,2.2159335E2,1.6648207E2,9.133136E1,7.4287094E1,1.4730626E2],"tree_param":{"num_deleted":"2","num_feature":"148","num_nodes":"11","size_leaf_vector":"0"}},{"base_weights":[-1E0,-1E0,1.4980784E-1,-4.540574E-1,-1E0,-3.804554E-1,9.683948E-1,4.7302052E-1,-1E0,-1.5110083E-1,-1E0,-1E0,2.0225568E-1,1E0,-1.8516278E-1],"categories":[],"categories_nodes":[],"categories_segments":[],"categories_sizes":[],"default_left":[1,1,1,1,1,1,1,0,0,0,0,0,0,0,0],"id":1,"left_children":[1,3,5,7,9,11,13,-1,-1,-1,-1,-1,-1,-1,-1],"loss_changes":[5.0124463E2,3.447998E1,1.6658112E2,7.613936E1,1.3906738E1,8.623479E1,3.5636475E1,0E0,0E0,0E0,0E0,0E0,0E0,0E0,0E0],"parents":[2147483647,0,0,1,1,2,2,3,3,4,4,5,5,6,6],"right_children":[2,4,6,8,10,12,14,-1,-1,-1,-1,-1,-1,-1,-1],"split_conditions":[3.7699652E-1,2.6013032E-2,1.7345273E-1,1.6138327E-1,3.953488E-2,1.6355102E-1,2.688601E-1,1.4190615E-2,-3E-2,-4.533025E-3,-3E-2,-3E-2,6.0676704E-3,3E-2,-5.5548833E-3],"split_indices":[14,4,125,9,13,8,136,0,0,0,0,0,0,0,0],"split_type":[0,0,0,0,0,0,0,0,0,0,0,0,0,0,0],"sum_hessian":[3.7408342E3,3.3624634E3,3.7837076E2,1.22208755E2,3.2402546E3,2.3043842E2,1.4793234E2,5.06796E1,7.152916E1,2.0492317E1,3.2197625E3,1.09871544E2,1.2056688E2,1.23340866E2,2.459148E1],"tree_param":{"num_deleted":"0","num_feature":"148","num_nodes":"15","size_leaf_vector":"0"}},{"base_weights":[-1E0,-1E0,1.0995557E-1,-7.276966E-1,-1E0,-7.551642E-1,4.97705E-1,-1E0,3.992231E-1,-1E0,3.6723378E-1,7.97441E-2,1E0],"categories":[],"categories_nodes":[],"categories_segments":[],"categories_sizes":[],"default_left":[1,1,1,1,0,1,1,0,0,0,0,0,0],"id":2,"left_children":[1,3,5,7,-1,9,11,-1,-1,-1,-1,-1,-1],"loss_changes":[5.8850586E2,2.5253906E0,1.6206273E2,4.5587395E1,0E0,1.08946205E2,6.989441E1,0E0,0E0,0E0,0E0,0E0,0E0],"parents":[2147483647,0,0,1,1,2,2,3,3,5,5,6,6],"right_children":[2,4,6,8,-1,10,12,-1,-1,-1,-1,-1,-1],"split_conditions":[9.996491E-1,2.0836137E-2,6.780383E-2,2.5E-1,-3E-2,2.61433E-1,1.2236729E-1,-3E-2,1.1976693E-2,-3E-2,1.1017013E-2,2.392323E-3,3E-2],"split_indices":[15,4,8,29,0,125,125,0,0,0,0,0,0],"split_type":[0,0,0,0,0,0,0,0,0,0,0,0,0],"sum_hessian":[3.7175098E3,3.2404524E3,4.770572E2,6.780082E1,3.1726516E3,1.4680806E2,3.302491E2,4.3268013E1,2.4532806E1,8.509136E1,6.1716686E1,1.8226344E2,1.4798569E2],"tree_param":{"num_deleted":"0","num_feature":"148","num_nodes":"13","size_leaf_vector":"0"}},{"base_weights":[-1E0,-1E0,1.5269633E-1,-1E0,-7.7956307E-1,-8.3841914E-1,5.052268E-1,1E0,-1E0,-1E0,8.148272E-2,7.697643E-1,-5.4789275E-1],"categories":[],"categories_nodes":[],"categories_segments":[],"categories_sizes":[],"default_left":[1,1,1,0,1,1,1,0,0,0,0,0,0],"id":3,"left_children":[1,3,5,-1,7,9,11,-1,-1,-1,-1,-1,-1],"loss_changes":[6.5182324E2,3.163086E0,1.7333182E2,0E0,9.023884E1,4.7400414E1,1.0292516E2,0E0,0E0,0E0,0E0,0E0,0E0],"parents":[2147483647,0,0,1,1,2,2,4,4,5,5,6,6],"right_children":[2,4,6,-1,8,10,12,-1,-1,-1,-1,-1,-1],"split_conditions":[9.999861E-1,8.0362186E-2,6.147848E-2,-3E-2,2.1354467E-1,1.23670205E-1,2.4556836E-1,3E-2,-3E-2,-3E-2,2.4444817E-3,2.309293E-2,-1.6436782E-2],"split_indices":[15,8,8,0,9,0,136,0,0,0,0,0,0],"split_type":[0,0,0,0,0,0,0,0,0,0,0,0,0],"sum_hessian":[3.718113E3,3.2283223E3,4.8979077E2,3.1104724E3,1.1784993E2,1.2749144E2,3.6229935E2,2.1616838E1,9.623309E1,8.4592155E1,4.289928E1,2.9018784E2,7.2111496E1],"tree_param":{"num_deleted":"0","num_feature":"148","num_nodes":"13","size_leaf_vector":"0"}},{"base_weights":[-1E0,-1E0,1.953458E-1,-2.0497285E-1,-1E0,5.920047E-1,-9.345916E-1,8.3254915E-1,-1E0,-1E0,-3.9683744E-1,1.3568346E-1,1E0,-1E0,2.1599516E-1],"categories":[],"categories_nodes":[],"categories_segments":[],"categories_sizes":[],"default_left":[1,1,1,1,1,1,1,0,0,0,0,0,0,0,0],"id":4,"left_children":[1,3,5,7,9,11,13,-1,-1,-1,-1,-1,-1,-1,-1],"loss_changes":[5.717554E2,3.1519531E1,1.8176437E2,6.7414055E1,2.9374512E1,7.217934E1,4.0198334E1,0E0,0E0,0E0,0E0,0E0,0E0,0E0,0E0],"parents":[2147483647,0,0,1,1,2,2,3,3,4,4,5,5,6,6],"right_children":[2,4,6,8,10,12,14,-1,-1,-1,-1,-1,-1,-1,-1],"split_conditions":[8.7595545E-2,2.5320984E-2,2.1314466E-1,1.627907E-1,3.7699652E-1,3.995741E-1,2.3271278E-1,2.4976473E-2,-3E-2,-3E-2,-1.19051235E-2,4.0705036E-3,3E-2,-3E-2,6.4798547E-3],"split_indices":[8,4,136,13,14,3,0,0,0,0,0,0,0,0,0],"split_type":[0,0,0,0,0,0,0,0,0,0,0,0,0,0,0],"sum_hessian":[3.7159326E3,3.3166965E3,3.9923615E2,5.1589535E1,3.265107E3,2.9648523E2,1.0275093E2,2.8307419E1,2.3282116E1,3.1794785E3,8.5628525E1,1.6426378E2,1.3222145E2,7.624161E1,2.650932E1],"tree_param":{"num_deleted":"0","num_feature":"148","num_nodes":"15","size_leaf_vector":"0"}},{"base_weights":[-1E0,-1E0,7.457185E-2,-1E0,-5.7039833E-1,-4.8233962E-1,8.956111E-1,-1E0,-2.5694138E-1,4.5702755E-1,-1E0,2.8720918E-1,-7.730442E-1,-3.3377376E-1,1E0],"categories":[],"categories_nodes":[],"categories_segments":[],"categories_sizes":[],"default_left":[1,1,1,1,1,1,1,1,1,0,0,0,0,0,0],"id":5,"left_children":[1,3,5,-1,9,11,13,-1,-1,-1,-1,-1,-1,-1,-1],"loss_changes":[5.0088867E2,2.0374512E1,2.006994E2,1.1479004E1,8.9147934E1,5.919224E1,4.2926147E1,0E0,0E0,0E0,0E0,0E0,0E0,0E0,0E0],"parents":[2147483647,0,0,1,1,2,2,3,3,4,4,5,5,6,6],"right_children":[2,4,6,-1,10,12,14,-1,-1,-1,-1,-1,-1,-1,-1],"split_conditions":[8.135228E-2,6.135536E-2,1.4777777E-1,-3E-2,8.94466E-2,1.7906977E-1,9.6003604E-1,-3E-2,-7.708241E-3,1.3710827E-2,-3E-2,8.616275E-3,-2.3191327E-2,-1.0013212E-2,3E-2],"split_indices":[8,8,125,25,16,13,15,2147483647,2147483647,0,0,0,0,0,0],"split_type":[0,0,0,0,0,0,0,0,0,0,0,0,0,0,0],"sum_hessian":[3.7225876E3,3.2892913E3,4.3329633E2,3.1668108E3,1.2248042E2,2.5877997E2,1.7451634E2,3.1436743E3,2.3136444E1,5.1341072E1,7.113935E1,7.089699E1,1.87883E2,2.3937754E1,1.5057858E2],"tree_param":{"num_deleted":"2","num_feature":"148","num_nodes":"15","size_leaf_vector":"0"}},{"base_weights":[-1E0,-1E0,9.440353E-2,-4.5859274E-3,-1E0,-6.015852E-1,5.359798E-1,-5.8592683E-1,-1E0,-8.310023E-1,9.6396035E-1,-1E0,7.4157166E-1],"categories":[],"categories_nodes":[],"categories_segments":[],"categories_sizes":[],"default_left":[1,1,1,0,1,1,1,0,0,0,0,0,0],"id":6,"left_children":[1,3,5,-1,7,9,11,-1,-1,-1,-1,-1,-1],"loss_changes":[5.4492725E2,1.9762695E1,1.4146962E2,0E0,1.7405762E1,6.644111E1,9.669571E1,0E0,0E0,0E0,0E0,0E0,0E0],"parents":[2147483647,0,0,1,1,2,2,4,4,5,5,6,6],"right_children":[2,4,6,-1,8,10,12,-1,-1,-1,-1,-1,-1],"split_conditions":[9.996456E-1,3.7752163E-2,2.5E-1,-1.3757782E-4,2.9376578E-2,5.564122E-1,3.3108175E-1,-1.7577805E-2,-3E-2,-2.493007E-2,2.891881E-2,-3E-2,2.2247149E-2],"split_indices":[15,9,52,0,4,3,14,0,0,0,0,0,0],"split_type":[0,0,0,0,0,0,0,0,0,0,0,0,0],"sum_hessian":[3.6991926E3,3.2447878E3,4.5440482E2,2.0108404E1,3.2246794E3,1.7595413E2,2.7845068E2,1.1471687E2,3.1099626E3,1.5459325E2,2.136088E1,2.9704151E1,2.4874654E2],"tree_param":{"num_deleted":"0","num_feature":"148","num_nodes":"13","size_leaf_vector":"0"}},{"base_weights":[-1E0,-1E0,1.1958125E-2,-6.1723214E-1,-1E0,-5.965193E-1,4.8887223E-1,6.167768E-1,-1E0,-1E0,-5.255862E-1,3.5477844E-1,-1E0,1.3164121E-2,9.2813164E-1],"categories":[],"categories_nodes":[],"categories_segments":[],"categories_sizes":[],"default_left":[1,1,1,1,1,1,1,0,0,1,1,0,0,0,0],"id":7,"left_children":[1,3,5,7,-1,11,13,-1,-1,-1,-1,-1,-1,-1,-1],"loss_changes":[4.7402637E2,7.239258E0,1.35959E2,5.3986145E1,4.604492E0,8.781522E1,5.479738E1,0E0,0E0,0E0,0E0,0E0,0E0,0E0,0E0],"parents":[2147483647,0,0,1,1,2,2,3,3,4,4,5,5,6,6],"right_children":[2,4,6,8,-1,12,14,-1,-1,-1,-1,-1,-1,-1,-1],"split_conditions":[9.996491E-1,2.0836137E-2,7.579787E-2,1.0413619E-1,-3E-2,7.716288E-3,2.5E-1,1.8503305E-2,-3E-2,-3E-2,-1.5767585E-2,1.0643353E-2,-3E-2,3.949236E-4,2.7843948E-2],"split_indices":[15,4,0,10,140,4,38,0,0,2147483647,2147483647,0,0,0,0],"split_type":[0,0,0,0,0,0,0,0,0,0,0,0,0,0,0],"sum_hessian":[3.6618884E3,3.1991975E3,4.6269098E2,6.528509E1,3.1339124E3,2.0294641E2,2.5974457E2,2.2711685E1,4.25734E1,3.1039956E3,2.9916769E1,6.4737274E1,1.3820914E2,1.26090775E2,1.336538E2],"tree_param":{"num_deleted":"2","num_feature":"148","num_nodes":"15","size_leaf_vector":"0"}},{"base_weights":[-1E0,-1E0,1.6020596E-1,-5.1820564E-1,-1E0,-8.8956577E-1,4.8894665E-1,5.7417E-1,-1E0,-1E0,-6.917039E-1,4.6264532E-1,-1E0,-4.567516E-1,7.8886676E-1],"categories":[],"categories_nodes":[],"categories_segments":[],"categories_sizes":[],"default_left":[1,1,1,1,1,1,1,0,0,1,1,0,0,0,0],"id":8,"left_children":[1,3,5,7,-1,11,13,-1,-1,-1,-1,-1,-1,-1,-1],"loss_changes":[6.6927686E2,1.1990234E1,1.73527E2,5.4057343E1,6.364258E0,5.7652206E1,1.09383354E2,0E0,0E0,0E0,0E0,0E0,0E0,0E0,0E0],"parents":[2147483647,0,0,1,1,2,2,3,3,4,4,5,5,6,6],"right_children":[2,4,6,8,-1,12,14,-1,-1,-1,-1,-1,-1,-1,-1],"split_conditions":[9.996491E-1,2.0631073E-2,3.856383E-2,1.23753816E-1,-3E-2,3.7294033E-3,3.7847352E-1,1.72251E-2,-3E-2,-3E-2,-2.0751117E-2,1.387936E-2,-3E-2,-1.3702548E-2,2.3666002E-2],"split_indices":[15,4,0,10,8,4,14,0,0,2147483647,2147483647,0,0,0,0],"split_type":[0,0,0,0,0,0,0,0,0,0,0,0,0,0,0],"sum_hessian":[3.665376E3,3.1689749E3,4.9640106E2,6.0751724E1,3.1082231E3,1.1724586E2,3.7915518E2,2.6052353E1,3.4699368E1,3.0154634E3,9.275985E1,2.6112667E1,9.1133194E1,9.090232E1,2.8825287E2],"tree_param":{"num_deleted":"2","num_feature":"148","num_nodes":"15","size_leaf_vector":"0"}},{"base_weights":[-1E0,-1E0,6.6298075E-2,-9.909623E-3,-1E0,4.0434152E-1,-8.713452E-1,-1E0,-6.972882E-1,-1.1535999E-1,9.706853E-1,-1E0,1.4008862E-1],"categories":[],"categories_nodes":[],"categories_segments":[],"categories_sizes":[],"default_left":[1,1,1,0,1,1,1,0,0,0,0,0,0],"id":9,"left_children":[1,3,5,-1,7,9,11,-1,-1,-1,-1,-1,-1],"loss_changes":[5.1740967E2,2.0134766E1,1.4601492E2,0E0,1.517334E1,9.992897E1,3.8317947E1,0E0,0E0,0E0,0E0,0E0,0E0],"parents":[2147483647,0,0,1,1,2,2,4,4,5,5,6,6],"right_children":[2,4,6,-1,8,10,12,-1,-1,-1,-1,-1,-1],"split_conditions":[9.998089E-1,3.7752163E-2,1.990906E-1,-2.972887E-4,6.304827E-2,1.4844817E-1,1.662234E-1,-3E-2,-2.0918647E-2,-3.4607996E-3,2.9120559E-2,-3E-2,4.2026583E-3],"split_indices":[15,9,136,0,8,8,0,0,0,0,0,0,0],"split_type":[0,0,0,0,0,0,0,0,0,0,0,0,0],"sum_hessian":[3.6637983E3,3.209179E3,4.5461942E2,2.073189E1,3.188447E3,3.3531738E2,1.1930205E2,2.9960085E3,1.9243835E2,1.759012E2,1.5941617E2,8.901807E1,3.0283981E1],"tree_param":{"num_deleted":"0","num_feature":"148","num_nodes":"13","size_leaf_vector":"0"}},{"base_weights":[-1E0,-1E0,1.619986E-1,-1E0,-5.794106E-1,-3.5188657E-1,8.849184E-1,-1.4734888E-2,-1E0,-1E0,-9.45253E-3,-5.615996E-1,8.95694E-1,1E0,-4.250294E-1],"categories":[],"categories_nodes":[],"categories_segments":[],"categories_sizes":[],"default_left":[1,1,1,1,1,1,1,0,0,0,0,0,0,0,0],"id":10,"left_children":[1,3,5,7,9,11,13,-1,-1,-1,-1,-1,-1,-1,-1],"loss_changes":[4.5704883E2,2.9621582E1,1.2745274E2,1.9708008E1,7.893126E1,5.4001E1,4.1748E1,0E0,0E0,0E0,0E0,0E0,0E0,0E0,0E0],"parents":[2147483647,0,0,1,1,2,2,3,3,4,4,5,5,6,6],"right_children":[2,4,6,8,10,12,14,-1,-1,-1,-1,-1,-1,-1,-1],"split_conditions":[1.3930771E-1,9.6584216E-2,1.7307407E-1,3.6599424E-2,6.5159574E-2,5.3350425E-1,2.680927E-1,-4.4204664E-4,-3E-2,-3E-2,-2.835759E-4,-1.6847989E-2,2.687082E-2,3E-2,-1.2750882E-2],"split_indices":[10,10,125,9,0,134,136,0,0,0,0,0,0,0,0],"split_type":[0,0,0,0,0,0,0,0,0,0,0,0,0,0,0],"sum_hessian":[3.64474E3,3.3070552E3,3.3768484E2,3.1268865E3,1.8016856E2,1.9812172E2,1.3956313E2,2.0522858E1,3.1063638E3,6.663014E1,1.13538414E2,1.709116E2,2.7210104E1,1.1953344E2,2.0029684E1],"tree_param":{"num_deleted":"0","num_feature":"148","num_nodes":"15","size_leaf_vector":"0"}},{"base_weights":[-1E0,-1E0,1.786377E-1,-1E0,-6.0377985E-1,5.22112E-1,-9.3243414E-1,-1E0,-4.6360072E-1,1.6246648E-1,-1E0,1.4418368E-1,1E0,-1E0,-5.0936293E-2],"categories":[],"categories_nodes":[],"categories_segments":[],"categories_sizes":[],"default_left":[1,1,1,1,1,1,1,0,0,0,0,0,0,0,0],"id":11,"left_children":[1,3,5,7,9,11,13,-1,-1,-1,-1,-1,-1,-1,-1],"loss_changes":[4.2638477E2,3.258252E1,1.1926365E2,1.4711426E1,1.1587988E2,5.010659E1,2.7184586E1,0E0,0E0,0E0,0E0,0E0,0E0,0E0,0E0],"parents":[2147483647,0,0,1,1,2,2,3,3,4,4,5,5,6,6],"right_children":[2,4,6,8,10,12,14,-1,-1,-1,-1,-1,-1,-1,-1],"split_conditions":[1.5430689E-1,9.400293E-2,2.664439E-1,5.326987E-1,2.2255751E-1,1.7345273E-1,3.2380307E-1,-3E-2,-1.3908021E-2,4.8739943E-3,-3E-2,4.3255105E-3,3E-2,-3E-2,-1.5280887E-3],"split_indices":[10,10,136,125,12,125,10,0,0,0,0,0,0,0,0],"split_type":[0,0,0,0,0,0,0,0,0,0,0,0,0,0,0],"sum_hessian":[3.654822E3,3.3487534E3,3.060686E2,3.126564E3,2.2218962E2,2.3491965E2,7.114896E1,3.068585E3,5.7978783E1,1.11023155E2,1.1116647E2,1.4353699E2,9.138266E1,4.01653E1,3.0983662E1],"tree_param":{"num_deleted":"0","num_feature":"148","num_nodes":"15","size_leaf_vector":"0"}},{"base_weights":[-1E0,-1E0,4.0389307E-2,-1E0,-3.7986568E-1,-4.174908E-1,8.37178E-1,-1E0,-2.401676E-1,-1E0,4.7969627E-1,-1E0,-9.840898E-2,1E0,-2.1208477E-1],"categories":[],"categories_nodes":[],"categories_segments":[],"categories_sizes":[],"default_left":[1,1,1,1,1,1,1,1,1,0,0,0,0,0,0],"id":12,"left_children":[1,3,5,-1,9,11,13,-1,-1,-1,-1,-1,-1,-1,-1],"loss_changes":[4.9731738E2,2.4356934E1,1.6960052E2,1.0741211E1,4.225013E1,8.054266E1,5.1952606E1,0E0,0E0,0E0,0E0,0E0,0E0,0E0,0E0],"parents":[2147483647,0,0,1,1,2,2,3,3,4,4,5,5,6,6],"right_children":[2,4,6,-1,10,12,14,-1,-1,-1,-1,-1,-1,-1,-1],"split_conditions":[3.2760608E-1,8.4511817E-1,2.371332E-1,-3E-2,5.9457242E-2,6.998409E-2,1.9394591E-1,-3E-2,-7.205028E-3,-3E-2,1.4390888E-2,-3E-2,-2.9522695E-3,3E-2,-6.362543E-3],"split_indices":[14,11,125,132,8,8,136,2147483647,2147483647,0,0,0,0,0,0],"split_type":[0,0,0,0,0,0,0,0,0,0,0,0,0,0,0],"sum_hessian":[3.646883E3,3.187765E3,4.5911807E2,3.1199448E3,6.7820206E1,2.9231696E2,1.6680113E2,3.0992097E3,2.0735031E1,3.7722855E1,3.0097353E1,6.943086E1,2.228861E2,1.293603E2,3.7440826E1],"tree_param":{"num_deleted":"2","num_feature":"148","num_nodes":"15","size_leaf_vector":"0"}},{"base_weights":[-1E0,-1E0,1.2188963E-1,-4.6713543E-1,-1E0,-3.8014922E-1,8.094531E-1,-1E0,8.67017E-1,-1E0,-5.416914E-1,-8.2457536E-1,3.8353997E-1,1E0,-6.991218E-1],"categories":[],"categories_nodes":[],"categories_segments":[],"categories_sizes":[],"default_left":[1,1,1,1,1,1,1,0,0,1,1,0,0,0,0],"id":13,"left_children":[1,3,5,7,-1,11,13,-1,-1,-1,-1,-1,-1,-1,-1],"loss_changes":[6.0498975E2,3.1722168E1,1.676041E2,1.1209542E2,8.241699E0,9.626513E1,7.27834E1,0E0,0E0,0E0,0E0,0E0,0E0,0E0,0E0],"parents":[2147483647,0,0,1,1,2,2,3,3,4,4,5,5,6,6],"right_children":[2,4,6,8,-1,12,14,-1,-1,-1,-1,-1,-1,-1,-1],"split_conditions":[9.996456E-1,2.936418E-2,1.803792E-1,2.3629811E-1,-3E-2,2.0102601E-1,2.688601E-1,-3E-2,2.6010508E-2,-3E-2,-1.6250743E-2,-2.4737261E-2,1.1506199E-2,3E-2,-2.0973653E-2],"split_indices":[15,4,125,125,8,8,136,0,0,2147483647,2147483647,0,0,0,0],"split_type":[0,0,0,0,0,0,0,0,0,0,0,0,0,0,0],"sum_hessian":[3.5947537E3,3.1147524E3,4.8000116E2,1.18693695E2,2.9960588E3,2.7805994E2,2.0194122E2,7.864389E1,4.0049805E1,2.9465059E3,4.9553043E1,1.7569376E2,1.0236618E2,1.7598824E2,2.595299E1],"tree_param":{"num_deleted":"2","num_feature":"148","num_nodes":"15","size_leaf_vector":"0"}},{"base_weights":[-1E0,-1E0,2.9353969E-2,-1E0,-5.9891284E-1,-6.052799E-1,5.420798E-1,-1E0,-7.3551095E-1,2.4970436E-2,-1E0,1.5723718E-2,-1E0,7.866049E-1,-3.6095658E-1],"categories":[],"categories_nodes":[],"categories_segments":[],"categories_sizes":[],"default_left":[1,1,1,1,1,1,1,1,1,0,0,0,0,0,0],"id":14,"left_children":[1,3,5,-1,9,11,13,-1,-1,-1,-1,-1,-1,-1,-1],"loss_changes":[4.7623193E2,6.926758E0,1.4804845E2,2.224121E0,2.7471586E1,5.8594505E1,5.637918E1,0E0,0E0,0E0,0E0,0E0,0E0,0E0,0E0],"parents":[2147483647,0,0,1,1,2,2,3,3,4,4,5,5,6,6],"right_children":[2,4,6,-1,10,12,14,-1,-1,-1,-1,-1,-1,-1,-1],"split_conditions":[9.999931E-1,5E-1,7.74637E-2,-3E-2,2.5E-1,1.7623682E-2,2.3595391E-1,-3E-2,-2.2065328E-2,7.491131E-4,-3E-2,4.7171154E-4,-3E-2,2.3598146E-2,-1.0828697E-2],"split_indices":[15,117,125,14,101,146,136,2147483647,2147483647,0,0,0,0,0,0],"split_type":[0,0,0,0,0,0,0,0,0,0,0,0,0,0,0],"sum_hessian":[3.5819531E3,3.1327786E3,4.491745E2,3.075491E3,5.72878E1,2.0044966E2,2.4872484E2,3.0077795E3,6.771131E1,3.5013794E1,2.2274006E1,8.7197296E1,1.13252365E2,1.960563E2,5.2668537E1],"tree_param":{"num_deleted":"2","num_feature":"148","num_nodes":"15","size_leaf_vector":"0"}},{"base_weights":[-1E0,-1E0,9.719099E-2,5.94348E-1,-1E0,4.8604992E-1,-8.587316E-1,-1E0,-5.6255914E-2,9.759663E-1,-1.2079445E-1,-1E0,1.158274E-1],"categories":[],"categories_nodes":[],"categories_segments":[],"categories_sizes":[],"default_left":[1,1,1,0,1,1,1,0,0,0,0,0,0],"id":15,"left_children":[1,3,5,-1,7,9,11,-1,-1,-1,-1,-1,-1],"loss_changes":[6.481372E2,6.7024414E1,2.0216571E2,0E0,2.002295E1,1.1520075E2,5.0930107E1,0E0,0E0,0E0,0E0,0E0,0E0],"parents":[2147483647,0,0,1,1,2,2,4,4,5,5,6,6],"right_children":[2,4,6,-1,8,10,12,-1,-1,-1,-1,-1,-1],"split_conditions":[6.4428255E-2,3.314121E-2,1.9783014E-1,1.783044E-2,7.5E-1,3.0057636E-1,2.4745822E-1,-3E-2,-1.6876773E-3,2.9278988E-2,-3.6238334E-3,-3E-2,3.4748218E-3],"split_indices":[8,9,136,0,25,9,125,0,0,0,0,0,0],"split_type":[0,0,0,0,0,0,0,0,0,0,0,0,0],"sum_hessian":[3.5608743E3,3.023054E3,5.3782025E2,2.4665304E1,2.9983887E3,3.832851E2,1.5453516E2,2.9754338E3,2.2954828E1,2.1124081E2,1.7204428E2,1.11773674E2,4.2761486E1],"tree_param":{"num_deleted":"0","num_feature":"148","num_nodes":"13","size_leaf_vector":"0"}},{"base_weights":[-1E0,-1E0,1.8299077E-1,-1E0,-2.6806822E-1,-7.145366E-1,5.0249946E-1,-1E0,-1.5176165E-1,-1E0,3.6303604E-1,2.2077921E-1,-1E0,1E0,1.7443727E-1],"categories":[],"categories_nodes":[],"categories_segments":[],"categories_sizes":[],"default_left":[1,1,1,1,1,1,1,0,0,0,0,0,0,0,0],"id":16,"left_children":[1,3,5,7,9,11,13,-1,-1,-1,-1,-1,-1,-1,-1],"loss_changes":[4.496997E2,5.2040527E1,9.374543E1,1.3858887E1,5.072986E1,2.8582169E1,5.247802E1,0E0,0E0,0E0,0E0,0E0,0E0,0E0,0E0],"parents":[2147483647,0,0,1,1,2,2,3,3,4,4,5,5,6,6],"right_children":[2,4,6,8,10,12,14,-1,-1,-1,-1,-1,-1,-1,-1],"split_conditions":[3.9948565E-1,8.439231E-1,1.6666667E-1,9.1140354E-1,1.3397202E-1,2.3467261E-3,2.3285303E-1,-3E-2,-4.5528496E-3,-3E-2,1.0891081E-2,6.623376E-3,-3E-2,3E-2,5.233118E-3],"split_indices":[14,11,45,140,141,4,9,0,0,0,0,0,0,0,0],"split_type":[0,0,0,0,0,0,0,0,0,0,0,0,0,0,0],"sum_hessian":[3.5385024E3,3.2180422E3,3.2046008E2,3.1184058E3,9.963659E1,8.320944E1,2.3725066E2,3.0979434E3,2.0462383E1,4.4217968E1,5.5418625E1,2.2858631E1,6.035081E1,7.181775E1,1.654329E2],"tree_param":{"num_deleted":"0","num_feature":"148","num_nodes":"15","size_leaf_vector":"0"}},{"base_weights":[-1E0,-1E0,8.174078E-2,4.0925658E-1,-1E0,3.0408877E-1,-8.3034116E-1,-1E0,1.16814636E-1,-1.162388E-1,7.2376525E-1,-1E0,5.2459683E-2],"categories":[],"categories_nodes":[],"categories_segments":[],"categories_sizes":[],"default_left":[1,1,1,0,1,1,1,0,0,0,0,0,0],"id":17,"left_children":[1,3,5,-1,7,9,11,-1,-1,-1,-1,-1,-1],"loss_changes":[4.9185596E2,4.9654785E1,8.645995E1,0E0,3.197168E1,6.061344E1,2.7530083E1,0E0,0E0,0E0,0E0,0E0,0E0],"parents":[2147483647,0,0,1,1,2,2,4,4,5,5,6,6],"right_children":[2,4,6,-1,8,10,12,-1,-1,-1,-1,-1,-1],"split_conditions":[3.3634198E-1,3.400576E-2,8.4977746E-1,1.2277697E-2,8.0785346E-1,1.6666667E-1,1.4764793E-1,-3E-2,3.504439E-3,-3.487164E-3,2.1712957E-2,-3E-2,1.5737904E-3],"split_indices":[14,9,5,0,127,33,2,0,0,0,0,0,0],"split_type":[0,0,0,0,0,0,0,0,0,0,0,0,0],"sum_hessian":[3.4960898E3,3.0762734E3,4.1981638E2,2.3582445E1,3.052691E3,3.3902042E2,8.079598E1,3.0277092E3,2.4981829E1,1.7025844E2,1.6876196E2,5.418442E1,2.661156E1],"tree_param":{"num_deleted":"0","num_feature":"148","num_nodes":"13","size_leaf_vector":"0"}},{"base_weights":[-1E0,-1E0,2.0302024E-2,-1E0,-5.7097834E-1,5.6513166E-1,-5.825123E-1,-1E0,-4.8597848E-1,-1E0,4.4311556E-1,8.494461E-1,-5.956281E-1,-1E0,2.989866E-1],"categories":[],"categories_nodes":[],"categories_segments":[],"categories_sizes":[],"default_left":[1,1,1,1,1,1,1,0,0,0,0,0,0,0,0],"id":18,"left_children":[1,3,5,7,9,11,13,-1,-1,-1,-1,-1,-1,-1,-1],"loss_changes":[6.588198E2,1.7448242E1,2.0967825E2,1.2381836E1,8.1979126E1,1.12077126E2,1.5311884E2,0E0,0E0,0E0,0E0,0E0,0E0,0E0,0E0],"parents":[2147483647,0,0,1,1,2,2,3,3,4,4,5,5,6,6],"right_children":[2,4,6,8,10,12,14,-1,-1,-1,-1,-1,-1,-1,-1],"split_conditions":[5.068486E-2,9.998089E-1,3.092219E-1,5E-1,2.5E-1,2.4709982E-1,5.0190353E-1,-3E-2,-1.4579354E-2,-3E-2,1.32934665E-2,2.5483383E-2,-1.7868843E-2,-3E-2,8.969598E-3],"split_indices":[8,15,9,117,43,136,14,0,0,0,0,0,0,0,0],"split_type":[0,0,0,0,0,0,0,0,0,0,0,0,0,0,0],"sum_hessian":[3.513248E3,2.8806262E3,6.3262177E2,2.773705E3,1.0692119E2,3.324401E2,3.0018167E2,2.7191575E3,5.4547527E1,5.938025E1,4.754094E1,2.6765482E2,6.478528E1,1.7938036E2,1.2080132E2],"tree_param":{"num_deleted":"0","num_feature":"148","num_nodes":"15","size_leaf_vector":"0"}},{"base_weights":[-1E0,-1E0,1.2653135E-1,-2.9611498E-1,-1E0,-3.0726847E-1,6.5839314E-1,1E0,-1E0,-1E0,-4.0571663E-1,-1E0,5.6953356E-2,-2.2926334E-1,1E0],"categories":[],"categories_nodes":[],"categories_segments":[],"categories_sizes":[],"default_left":[1,1,1,1,1,1,1,0,0,0,0,0,0,0,0],"id":19,"left_children":[1,3,5,7,9,11,13,-1,-1,-1,-1,-1,-1,-1,-1],"loss_changes":[5.976548E2,5.5405273E1,1.097902E2,1.3843687E2,1.4833984E1,8.352103E1,7.1930695E1,0E0,0E0,0E0,0E0,0E0,0E0,0E0,0E0],"parents":[2147483647,0,0,1,1,2,2,3,3,4,4,5,5,6,6],"right_children":[2,4,6,8,10,12,14,-1,-1,-1,-1,-1,-1,-1,-1],"split_conditions":[9.996491E-1,2.936418E-2,9.787555E-2,1.6046512E-1,8.042887E-2,5.6779355E-2,2.5E-1,3E-2,-3E-2,-3E-2,-1.21714985E-2,-3E-2,1.7086007E-3,-6.8779E-3,3E-2],"split_indices":[15,4,2,13,8,8,38,0,0,0,0,0,0,0,0],"split_type":[0,0,0,0,0,0,0,0,0,0,0,0,0,0,0],"sum_hessian":[3.482541E3,3.01229E3,4.7025104E2,1.1473446E2,2.8975557E3,2.5955005E2,2.10701E2,3.3649807E1,8.1084656E1,2.850445E3,4.711043E1,7.26484E1,1.8690164E2,6.303495E1,1.4766606E2],"tree_param":{"num_deleted":"0","num_feature":"148","num_nodes":"15","size_leaf_vector":"0"}},{"base_weights":[-1E0,-1E0,1.5310645E-1,-1E0,-5.363614E-1,5.547129E-1,-8.068592E-1,-1E0,-2.5893465E-1,-4.680082E-2,-1E0,-2.7847001E-2,1E0,-1E0,4.7911796E-1],"categories":[],"categories_nodes":[],"categories_segments":[],"categories_sizes":[],"default_left":[1,1,1,1,1,1,1,0,0,0,0,0,0,0,0],"id":20,"left_children":[1,3,5,7,9,11,13,-1,-1,-1,-1,-1,-1,-1,-1],"loss_changes":[4.84771E2,2.6690918E1,1.426247E2,1.4544434E1,5.224797E1,8.50444E1,5.191416E1,0E0,0E0,0E0,0E0,0E0,0E0,0E0,0E0],"parents":[2147483647,0,0,1,1,2,2,3,3,4,4,5,5,6,6],"right_children":[2,4,6,8,10,12,14,-1,-1,-1,-1,-1,-1,-1,-1],"split_conditions":[3.7694222E-1,9.996491E-1,1.5143594E-1,8.2339954E-1,1.4812681E-1,1.431281E-1,4.0444523E-1,-3E-2,-7.768039E-3,-1.4040245E-3,-3E-2,-8.3541E-4,3E-2,-3E-2,1.4373538E-2],"split_indices":[14,15,136,140,9,125,135,0,0,0,0,0,0,0,0],"split_type":[0,0,0,0,0,0,0,0,0,0,0,0,0,0,0],"sum_hessian":[3.4323123E3,3.0685078E3,3.638044E2,2.9343203E3,1.3418733E2,2.5734067E2,1.0646376E2,2.9054639E3,2.8856434E1,9.022384E1,4.3963497E1,1.2896179E2,1.2837888E2,8.2425224E1,2.4038534E1],"tree_param":{"num_deleted":"0","num_feature":"148","num_nodes":"15","size_leaf_vector":"0"}},{"base_weights":[-1E0,-1E0,1.3229902E-1,-3.5125342E-1,-1E0,-5.5556923E-1,4.3311825E-1,1E0,-8.11813E-1,-1E0,-2.4585226E-1,-1E0,3.3541584E-1,7.162247E-1,-2.2225015E-1],"categories":[],"categories_nodes":[],"categories_segments":[],"categories_sizes":[],"default_left":[1,1,1,1,1,1,1,0,0,0,0,0,0,0,0],"id":21,"left_children":[1,3,5,7,9,11,13,-1,-1,-1,-1,-1,-1,-1,-1],"loss_changes":[6.034358E2,4.284082E1,9.854618E1,7.562291E1,2.794873E1,8.531936E1,6.1826786E1,0E0,0E0,0E0,0E0,0E0,0E0,0E0,0E0],"parents":[2147483647,0,0,1,1,2,2,3,3,4,4,5,5,6,6],"right_children":[2,4,6,8,10,12,14,-1,-1,-1,-1,-1,-1,-1,-1],"split_conditions":[9.996491E-1,2.93656E-2,6.776792E-2,1.5116279E-1,5E-1,1.6666667E-1,1.5104485E-1,3E-2,-2.4354389E-2,-3E-2,-7.3755677E-3,-3E-2,1.0062475E-2,2.148674E-2,-6.667504E-3],"split_indices":[15,4,8,13,117,20,136,0,0,0,0,0,0,0,0],"split_type":[0,0,0,0,0,0,0,0,0,0,0,0,0,0,0],"sum_hessian":[3.417548E3,2.9475945E3,4.6995352E2,1.0566849E2,2.841926E3,1.4223268E2,3.2772083E2,2.4246368E1,8.142212E1,2.7905823E3,5.1343708E1,7.964923E1,6.2583458E1,2.2875938E2,9.896146E1],"tree_param":{"num_deleted":"0","num_feature":"148","num_nodes":"15","size_leaf_vector":"0"}},{"base_weights":[-1E0,-1E0,-1.24958254E-1,1.6664258E-1,-1E0,-5.6053126E-1,4.9932688E-1,-1E0,-4.0134647E-1,-7.180876E-1,7.1356833E-1,2.3820007E-2,1E0],"categories":[],"categories_nodes":[],"categories_segments":[],"categories_sizes":[],"default_left":[1,1,1,0,1,1,1,0,0,0,0,0,0],"id":22,"left_children":[1,3,5,-1,7,9,11,-1,-1,-1,-1,-1,-1],"loss_changes":[4.011023E2,3.337744E1,1.4431026E2,0E0,3.0174805E1,6.411989E1,6.19965E1,0E0,0E0,0E0,0E0,0E0,0E0],"parents":[2147483647,0,0,1,1,2,2,4,4,5,5,6,6],"right_children":[2,4,6,-1,8,10,12,-1,-1,-1,-1,-1,-1],"split_conditions":[9.4502926E-2,3.7752163E-2,1.2843186E-1,4.999277E-3,6.682265E-1,5.324985E-1,3.6878985E-1,-3E-2,-1.2040394E-2,-2.1542627E-2,2.140705E-2,7.146002E-4,3E-2],"split_indices":[10,9,125,0,3,134,145,0,0,0,0,0,0],"split_type":[0,0,0,0,0,0,0,0,0,0,0,0,0],"sum_hessian":[3.388922E3,2.8641108E3,5.248113E2,2.3698814E1,2.840412E3,3.093534E2,2.1545792E2,2.7512183E3,8.919377E1,2.7639084E2,3.296257E1,1.2263745E2,9.282046E1],"tree_param":{"num_deleted":"0","num_feature":"148","num_nodes":"13","size_leaf_vector":"0"}},{"base_weights":[-1E0,-1E0,1.9374214E-1,5.581165E-1,-1E0,8.520612E-1,-2.0997721E-1,1.2513937E-1,-1E0,1E0,-4.2333344E-1,-8.5859984E-1,5.036131E-1],"categories":[],"categories_nodes":[],"categories_segments":[],"categories_sizes":[],"default_left":[1,1,1,0,1,1,1,0,0,0,0,0,0],"id":23,"left_children":[1,3,5,-1,7,9,11,-1,-1,-1,-1,-1,-1],"loss_changes":[6.277976E2,5.81416E1,1.1819505E2,0E0,5.0503418E1,4.3382202E1,1.2919322E2,0E0,0E0,0E0,0E0,0E0,0E0],"parents":[2147483647,0,0,1,1,2,2,4,4,5,5,6,6],"right_children":[2,4,6,-1,8,10,12,-1,-1,-1,-1,-1,-1],"split_conditions":[7.916175E-2,3.314121E-2,2.3256484E-1,1.6743494E-2,2.5394652E-2,2.4709982E-1,1.9226903E-1,3.754181E-3,-3E-2,3E-2,-1.2700003E-2,-2.5757995E-2,1.51083935E-2],"split_indices":[8,9,9,0,4,136,8,0,0,0,0,0,0],"split_type":[0,0,0,0,0,0,0,0,0,0,0,0,0],"sum_hessian":[3.3900613E3,2.950418E3,4.3964334E2,2.2294374E1,2.9281235E3,1.6606538E2,2.7357797E2,3.9212E1,2.8889116E3,1.4428404E2,2.178134E1,1.430801E2,1.3049788E2],"tree_param":{"num_deleted":"0","num_feature":"148","num_nodes":"13","size_leaf_vector":"0"}},{"base_weights":[-1E0,-1E0,1.0892223E-1,-1E0,-4.8952472E-1,-7.296787E-1,3.6731952E-1,-1E0,-4.8433122E-1,-9.170767E-1,4.0640068E-1,-9.758029E-1,5.17225E-1,3.145412E-2,8.1707215E-1],"categories":[],"categories_nodes":[],"categories_segments":[],"categories_sizes":[],"default_left":[1,1,1,1,1,1,1,1,1,0,0,0,0,0,0],"id":24,"left_children":[1,3,5,-1,9,11,13,-1,-1,-1,-1,-1,-1,-1,-1],"loss_changes":[6.6049E2,3.3197266E1,1.1765507E2,8.003418E0,5.3959934E1,4.0709763E1,6.2475094E1,0E0,0E0,0E0,0E0,0E0,0E0,0E0,0E0],"parents":[2147483647,0,0,1,1,2,2,3,3,4,4,5,5,6,6],"right_children":[2,4,6,-1,10,12,14,-1,-1,-1,-1,-1,-1,-1,-1],"split_conditions":[6.332017E-2,9.996491E-1,4.6542555E-2,-3E-2,4.819166E-2,5.4179585E-1,2.5E-1,-3E-2,-1.4529936E-2,-2.75123E-2,1.219202E-2,-2.9274086E-2,1.55167505E-2,9.436236E-4,2.4512164E-2],"split_indices":[8,15,0,116,8,3,29,2147483647,2147483647,0,0,0,0,0,0],"split_type":[0,0,0,0,0,0,0,0,0,0,0,0,0,0,0],"sum_hessian":[3.376779E3,2.84029E3,5.36489E2,2.7050686E3,1.3522131E2,1.2516281E2,4.113262E2,2.6673542E3,3.771454E1,9.154743E1,4.3673878E1,1.0505958E2,2.0103231E1,2.3719592E2,1.7413028E2],"tree_param":{"num_deleted":"2","num_feature":"148","num_nodes":"15","size_leaf_vector":"0"}},{"base_weights":[-1E0,-1E0,1.0765554E-1,-1E0,-5.687719E-1,5.0940406E-1,-6.134744E-1,-1E0,-3.1692237E-2,-1E0,3.6353606E-1,-2.6731995E-1,8.341232E-1,1.7131897E-2,-1E0],"categories":[],"categories_nodes":[],"categories_segments":[],"categories_sizes":[],"default_left":[1,1,1,1,1,1,1,0,0,0,0,0,0,0,0],"id":25,"left_children":[1,3,5,7,9,11,13,-1,-1,-1,-1,-1,-1,-1,-1],"loss_changes":[6.391128E2,2.2451172E1,1.5247404E2,2.3324707E1,6.635727E1,8.58053E1,6.4595985E1,0E0,0E0,0E0,0E0,0E0,0E0,0E0,0E0],"parents":[2147483647,0,0,1,1,2,2,3,3,4,4,5,5,6,6],"right_children":[2,4,6,8,10,12,14,-1,-1,-1,-1,-1,-1,-1,-1],"split_conditions":[6.405889E-2,4.7827423E-2,1.5104485E-1,8.2339954E-1,2.645975E-1,2.1075385E-2,1.3181408E-1,-3E-2,-9.507671E-4,-3E-2,1.0906082E-2,-8.019598E-3,2.5023695E-2,5.139569E-4,-3E-2],"split_indices":[8,8,136,140,131,141,16,0,0,0,0,0,0,0,0],"split_type":[0,0,0,0,0,0,0,0,0,0,0,0,0,0,0],"sum_hessian":[3.3296343E3,2.8093347E3,5.2029956E2,2.676626E3,1.3270891E2,3.34708E2,1.8559154E2,2.651429E3,2.5197008E1,8.4842384E1,4.7866528E1,9.875213E1,2.3595587E2,8.9348015E1,9.624353E1],"tree_param":{"num_deleted":"0","num_feature":"148","num_nodes":"15","size_leaf_vector":"0"}},{"base_weights":[-1E0,-1E0,1.3770436E-1,-3.8533345E-1,-1E0,-8.499269E-1,3.4985882E-1,-9.96344E-1,5.76461E-1,-1E0,-2.9557872E-1,-1E0,6.6005623E-1,8.590197E-3,7.6405644E-1],"categories":[],"categories_nodes":[],"categories_segments":[],"categories_sizes":[],"default_left":[1,1,1,1,1,1,1,0,0,0,0,0,0,0,0],"id":26,"left_children":[1,3,5,7,9,11,13,-1,-1,-1,-1,-1,-1,-1,-1],"loss_changes":[5.910056E2,3.78667E1,9.69804E1,6.489507E1,2.6343262E1,5.83874E1,5.361608E1,0E0,0E0,0E0,0E0,0E0,0E0,0E0,0E0],"parents":[2147483647,0,0,1,1,2,2,3,3,4,4,5,5,6,6],"right_children":[2,4,6,8,10,12,14,-1,-1,-1,-1,-1,-1,-1,-1],"split_conditions":[9.996456E-1,2.834134E-2,4.7858205E-2,1.5026595E-1,5E-1,4.093724E-1,1.2869783E-1,-2.989032E-2,1.729383E-2,-3E-2,-8.867362E-3,-3E-2,1.9801687E-2,2.5770592E-4,2.2921693E-2],"split_indices":[15,4,8,0,117,125,125,0,0,0,0,0,0,0,0],"split_type":[0,0,0,0,0,0,0,0,0,0,0,0,0,0,0],"sum_hessian":[3.2718123E3,2.8159424E3,4.5586978E2,1.0483493E2,2.7111077E3,7.9137115E1,3.7673267E2,6.40936E1,4.074133E1,2.6551187E3,5.5988842E1,5.906858E1,2.0068535E1,2.0813184E2,1.6860083E2],"tree_param":{"num_deleted":"0","num_feature":"148","num_nodes":"15","size_leaf_vector":"0"}},{"base_weights":[-1E0,-1E0,3.8113143E-2,1.3429841E-1,-1E0,-4.6469116E-1,3.80707E-1,-1E0,-2.6526353E-1,9.851589E-2,-9.098136E-1,-5.136901E-2,7.882082E-1],"categories":[],"categories_nodes":[],"categories_segments":[],"categories_sizes":[],"default_left":[1,1,1,0,1,1,1,0,0,0,0,0,0],"id":27,"left_children":[1,3,5,-1,7,9,11,-1,-1,-1,-1,-1,-1],"loss_changes":[5.610593E2,2.7134521E1,9.0659996E1,0E0,1.5861328E1,5.377885E1,5.5257782E1,0E0,0E0,0E0,0E0,0E0,0E0],"parents":[2147483647,0,0,1,1,2,2,4,4,5,5,6,6],"right_children":[2,4,6,-1,8,10,12,-1,-1,-1,-1,-1,-1],"split_conditions":[6.135536E-2,3.6599424E-2,2.5E-1,4.028952E-3,6.396277E-1,1.835474E-3,3.0979142E-1,-3E-2,-7.9579055E-3,2.9554768E-3,-2.7294407E-2,-1.5410703E-3,2.3646245E-2],"split_indices":[8,9,63,0,0,139,145,0,0,0,0,0,0],"split_type":[0,0,0,0,0,0,0,0,0,0,0,0,0],"sum_hessian":[3.2588145E3,2.738521E3,5.2029364E2,2.0374207E1,2.7181467E3,2.1038045E2,3.099132E2,2.686307E3,3.1839691E1,9.371826E1,1.16662186E2,1.5146814E2,1.5844508E2],"tree_param":{"num_deleted":"0","num_feature":"148","num_nodes":"13","size_leaf_vector":"0"}},{"base_weights":[-9.9909097E-1,-1E0,1.02239296E-1,-4.71696E-1,-1E0,-6.753223E-1,3.3796144E-1,7.790147E-1,-9.572811E-1,-1E0,-6.133117E-1,-1E0,6.3599E-1,-3.7638474E-1,5.6230867E-1],"categories":[],"categories_nodes":[],"categories_segments":[],"categories_sizes":[],"default_left":[1,1,1,1,1,1,1,0,0,0,0,0,0,0,0],"id":28,"left_children":[1,3,5,7,9,11,13,-1,-1,-1,-1,-1,-1,-1,-1],"loss_changes":[5.348213E2,2.6497559E1,8.177418E1,6.5782936E1,1.5076172E1,6.300085E1,5.5345505E1,0E0,0E0,0E0,0E0,0E0,0E0,0E0,0E0],"parents":[2147483647,0,0,1,1,2,2,3,3,4,4,5,5,6,6],"right_children":[2,4,6,8,10,12,14,-1,-1,-1,-1,-1,-1,-1,-1],"split_conditions":[9.997464E-1,2.936418E-2,5.677423E-2,1.880285E-1,7.5E-1,2.5E-1,4.577466E-2,2.3370441E-2,-2.8718432E-2,-3E-2,-1.839935E-2,-3E-2,1.90797E-2,-1.1291542E-2,1.686926E-2],"split_indices":[15,4,8,12,70,56,1,0,0,0,0,0,0,0,0],"split_type":[0,0,0,0,0,0,0,0,0,0,0,0,0,0,0],"sum_hessian":[3.1794146E3,2.739802E3,4.3961246E2,1.0207559E2,2.6377263E3,1.0104457E2,3.385679E2,2.8057442E1,7.401815E1,2.5214014E3,1.16324936E2,7.51901E1,2.5854467E1,8.0412704E1,2.5815518E2],"tree_param":{"num_deleted":"0","num_feature":"148","num_nodes":"15","size_leaf_vector":"0"}},{"base_weights":[-9.707349E-1,-1E0,1.4860655E-1,-1E0,-4.5953763E-1,-1.6138153E-1,8.844926E-1,-1E0,-3.9981893E-1,5.034071E-1,-9.8762643E-1,-5.483173E-1,3.1250456E-1,1E0,-5.308707E-1],"categories":[],"categories_nodes":[],"categories_segments":[],"categories_sizes":[],"default_left":[1,1,1,1,1,1,1,0,0,0,0,0,0,0,0],"id":29,"left_children":[1,3,5,7,9,11,13,-1,-1,-1,-1,-1,-1,-1,-1],"loss_changes":[6.1512134E2,4.6279053E1,1.07817825E2,1.921582E1,8.683273E1,6.1635464E1,5.1908897E1,0E0,0E0,0E0,0E0,0E0,0E0,0E0,0E0],"parents":[2147483647,0,0,1,1,2,2,3,3,4,4,5,5,6,6],"right_children":[2,4,6,8,10,12,14,-1,-1,-1,-1,-1,-1,-1,-1],"split_conditions":[9.996456E-1,6.461294E-2,1.4673747E-1,5.132979E-1,1.6022228E-1,1.4789924E-1,2.0348665E-1,-3E-2,-1.1994568E-2,1.5102213E-2,-2.9628793E-2,-1.6449519E-2,9.375136E-3,3E-2,-1.592612E-2],"split_indices":[15,8,2,0,16,8,136,0,0,0,0,0,0,0,0],"split_type":[0,0,0,0,0,0,0,0,0,0,0,0,0,0,0],"sum_hessian":[3.189405E3,2.721851E3,4.675539E2,2.5567073E3,1.651438E2,3.3037152E2,1.3718237E2,2.4984033E3,5.830382E1,5.848778E1,1.0665602E2,1.8172092E2,1.4865059E2,1.1586023E2,2.1322145E1],"tree_param":{"num_deleted":"0","num_feature":"148","num_nodes":"15","size_leaf_vector":"0"}},{"base_weights":[-9.671918E-1,-1E0,-1.1595052E-3,5.5502576E-1,-1E0,5.9500134E-1,-5.5141526E-1,-1E0,-6.254144E-1,8.586901E-1,-3.3260956E-1,-9.3657446E-1,6.226177E-1],"categories":[],"categories_nodes":[],"categories_segments":[],"categories_sizes":[],"default_left":[1,1,1,0,1,1,1,0,0,0,0,0,0],"id":30,"left_children":[1,3,5,-1,7,9,11,-1,-1,-1,-1,-1,-1],"loss_changes":[5.982551E2,5.240869E1,1.9976584E2,0E0,2.0540771E1,7.2304016E1,1.448255E2,0E0,0E0,0E0,0E0,0E0,0E0],"parents":[2147483647,0,0,1,1,2,2,4,4,5,5,6,6],"right_children":[2,4,6,-1,8,10,12,-1,-1,-1,-1,-1,-1],"split_conditions":[5.0607912E-2,3.7175793E-2,2.925072E-1,1.6650772E-2,5E-1,2.259646E-1,2.6427436E-1,-3E-2,-1.876243E-2,2.5760703E-2,-9.978287E-3,-2.8097233E-2,1.8678531E-2],"split_indices":[8,9,9,0,68,136,8,0,0,0,0,0,0],"split_type":[0,0,0,0,0,0,0,0,0,0,0,0,0],"sum_hessian":[3.1326655E3,2.5294983E3,6.031673E2,2.0023123E1,2.509475E3,2.8934338E2,3.138239E2,2.3464016E3,1.6307362E2,2.2551057E2,6.383282E1,2.3675142E2,7.707249E1],"tree_param":{"num_deleted":"0","num_feature":"148","num_nodes":"13","size_leaf_vector":"0"}},{"base_weights":[-9.078239E-1,-1E0,1.4301656E-1,-1E0,-1.9241074E-1,-2.1253484E-1,7.261887E-1,-1E0,-4.8606175E-1,6.6399527E-1,-8.2111055E-1,-7.0125663E-1,3.5227334E-1,-1.0000202E-1,9.113269E-1],"categories":[],"categories_nodes":[],"categories_segments":[],"categories_sizes":[],"default_left":[1,1,1,1,1,1,1,0,0,0,0,0,0,0,0],"id":31,"left_children":[1,3,5,7,9,11,13,-1,-1,-1,-1,-1,-1,-1,-1],"loss_changes":[6.555432E2,3.0289307E1,1.09209656E2,2.8524414E1,2.8936827E1,9.12061E1,3.0800323E1,0E0,0E0,0E0,0E0,0E0,0E0,0E0,0E0],"parents":[2147483647,0,0,1,1,2,2,3,3,4,4,5,5,6,6],"right_children":[2,4,6,8,10,12,14,-1,-1,-1,-1,-1,-1,-1,-1],"split_conditions":[6.405889E-2,5E-1,1.7345273E-1,4.7642745E-2,2.0893773E-2,3.9269233E-1,8.467375E-2,-3E-2,-1.4581853E-2,1.9919857E-2,-2.4633316E-2,-2.1037698E-2,1.05682E-2,-3.0000606E-3,2.7339807E-2],"split_indices":[8,117,125,8,10,3,2,0,0,0,0,0,0,0,0],"split_type":[0,0,0,0,0,0,0,0,0,0,0,0,0,0,0],"sum_hessian":[3.1261533E3,2.604801E3,5.2135236E2,2.556768E3,4.8033028E1,3.248624E2,1.9648996E2,2.4410874E3,1.15680534E2,2.0224356E1,2.7808672E1,1.7388275E2,1.5097963E2,3.612615E1,1.6036382E2],"tree_param":{"num_deleted":"0","num_feature":"148","num_nodes":"15","size_leaf_vector":"0"}},{"base_weights":[-9.380466E-1,-1E0,1.2766817E-1,-9.6195735E-2,-1E0,3.2477006E-1,-8.2320255E-1,1E0,-1E0,-1E0,-4.4427192E-1,-3.3633732E-3,7.88177E-1,-1E0,2.3740634E-1],"categories":[],"categories_nodes":[],"categories_segments":[],"categories_sizes":[],"default_left":[1,1,1,1,1,1,1,0,0,0,0,0,0,0,0],"id":32,"left_children":[1,3,5,7,9,11,13,-1,-1,-1,-1,-1,-1,-1,-1],"loss_changes":[5.788462E2,5.2287354E1,8.8235756E1,7.815116E1,2.204126E1,5.917259E1,2.9992207E1,0E0,0E0,0E0,0E0,0E0,0E0,0E0,0E0],"parents":[2147483647,0,0,1,1,2,2,3,3,4,4,5,5,6,6],"right_children":[2,4,6,8,10,12,14,-1,-1,-1,-1,-1,-1,-1,-1],"split_conditions":[9.996491E-1,2.0609468E-2,8.499073E-1,1.2082639E-1,6.682265E-1,1.23670205E-1,2.3670211E-1,3E-2,-3E-2,-3E-2,-1.3328157E-2,-1.009012E-4,2.364531E-2,-3E-2,7.12219E-3],"split_indices":[15,4,5,10,3,0,0,0,0,0,0,0,0,0,0],"split_type":[0,0,0,0,0,0,0,0,0,0,0,0,0,0,0],"sum_hessian":[3.0672266E3,2.6034602E3,4.6376627E2,6.475954E1,2.5387007E3,3.85652E2,7.811427E1,3.027469E1,3.448484E1,2.4611233E3,7.757744E1,2.2724007E2,1.5841194E2,5.7928852E1,2.0185425E1],"tree_param":{"num_deleted":"0","num_feature":"148","num_nodes":"15","size_leaf_vector":"0"}},{"base_weights":[-9.0611094E-1,-1E0,9.170353E-3,-1E0,-4.636004E-1,6.5127176E-1,-3.5062903E-1,-3.9144036E-1,-1E0,-8.8074076E-1,5.3042644E-1,-6.471038E-2,8.944938E-1,-6.418155E-1,5.222813E-1],"categories":[],"categories_nodes":[],"categories_segments":[],"categories_sizes":[],"default_left":[1,1,1,1,1,1,1,0,0,0,0,0,0,0,0],"id":33,"left_children":[1,3,5,7,9,11,13,-1,-1,-1,-1,-1,-1,-1,-1],"loss_changes":[5.994507E2,2.35708E1,1.4350795E2,1.925879E1,3.9311646E1,3.9067505E1,1.0208415E2,0E0,0E0,0E0,0E0,0E0,0E0,0E0,0E0],"parents":[2147483647,0,0,1,1,2,2,3,3,4,4,5,5,6,6],"right_children":[2,4,6,8,10,12,14,-1,-1,-1,-1,-1,-1,-1,-1],"split_conditions":[5.068486E-2,2.5E-1,2.2247839E-1,4.908327E-2,2.5E-1,1.0629063E-1,2.6427436E-1,-1.174321E-2,-3E-2,-2.6422223E-2,1.5912794E-2,-1.9413113E-3,2.6834814E-2,-1.9254465E-2,1.5668439E-2],"split_indices":[8,105,9,4,75,12,8,0,0,0,0,0,0,0,0],"split_type":[0,0,0,0,0,0,0,0,0,0,0,0,0,0,0],"sum_hessian":[3.092027E3,2.476833E3,6.151942E2,2.3880625E3,8.877051E1,2.2022087E2,3.9497333E2,5.6756348E1,2.3313062E3,6.2792683E1,2.5977825E1,5.6264168E1,1.639567E2,2.9676285E2,9.821047E1],"tree_param":{"num_deleted":"0","num_feature":"148","num_nodes":"15","size_leaf_vector":"0"}},{"base_weights":[-9.20212E-1,-1E0,-7.947683E-2,4.9878585E-1,-1E0,3.9638638E-1,-5.138086E-1,-1E0,-1.3909976E-1,5.8776736E-1,-1E0,-9.2910415E-1,6.263398E-1],"categories":[],"categories_nodes":[],"categories_segments":[],"categories_sizes":[],"default_left":[1,1,1,0,1,1,1,0,0,0,0,0,0],"id":34,"left_children":[1,3,5,-1,7,9,11,-1,-1,-1,-1,-1,-1],"loss_changes":[4.6169434E2,5.048828E1,1.18623276E2,0E0,3.3925537E1,7.918981E1,1.4358246E2,0E0,0E0,0E0,0E0,0E0,0E0],"parents":[2147483647,0,0,1,1,2,2,4,4,5,5,6,6],"right_children":[2,4,6,-1,8,10,12,-1,-1,-1,-1,-1,-1],"split_conditions":[5.0607912E-2,3.400576E-2,2.925072E-1,1.4963576E-2,5E-1,3.804456E-1,2.7445748E-1,-3E-2,-4.172993E-3,1.763302E-2,-3E-2,-2.7873123E-2,1.8790193E-2],"split_indices":[8,9,9,0,117,136,8,0,0,0,0,0,0],"split_type":[0,0,0,0,0,0,0,0,0,0,0,0,0],"sum_hessian":[3.0031594E3,2.4351008E3,5.680587E2,2.0906263E1,2.4141946E3,2.7110443E2,2.9695425E2,2.3673306E3,4.6863934E1,2.4154274E2,2.9561697E1,2.1807466E2,7.887959E1],"tree_param":{"num_deleted":"0","num_feature":"148","num_nodes":"13","size_leaf_vector":"0"}},{"base_weights":[-8.771603E-1,-1E0,1.0334145E-1,-6.0492146E-1,-1E0,4.2845142E-1,-7.209062E-1,1.2698253E-3,-1E0,-1E0,5.1790915E-2,5.7535723E-2,9.701146E-1,2.2184023E-1,-1E0],"categories":[],"categories_nodes":[],"categories_segments":[],"categories_sizes":[],"default_left":[1,1,1,1,1,1,1,0,0,0,0,0,0,0,0],"id":35,"left_children":[1,3,5,7,9,11,13,-1,-1,-1,-1,-1,-1,-1,-1],"loss_changes":[4.980713E2,7.182617E1,1.2122917E2,1.3489746E2,2.909375E1,6.4883545E1,4.8963875E1,0E0,0E0,0E0,0E0,0E0,0E0,0E0,0E0],"parents":[2147483647,0,0,1,1,2,2,3,3,4,4,5,5,6,6],"right_children":[2,4,6,8,10,12,14,-1,-1,-1,-1,-1,-1,-1,-1],"split_conditions":[3.2757658E-1,1.140057E-1,1.9638345E-1,2.6253605E-1,6.396277E-1,4.009815E-1,4.652915E-3,3.8094757E-5,-3E-2,-3E-2,1.5537274E-3,1.7260717E-3,2.9103437E-2,6.655207E-3,-3E-2],"split_indices":[14,4,136,9,0,3,146,0,0,0,0,0,0,0,0],"split_type":[0,0,0,0,0,0,0,0,0,0,0,0,0,0,0],"sum_hessian":[3.036864E3,2.590663E3,4.462009E2,4.749141E2,2.115749E3,3.2096448E2,1.2523641E2,2.087109E2,2.6620316E2,2.0898372E3,2.5911863E1,1.9233315E2,1.2863133E2,3.845326E1,8.678315E1],"tree_param":{"num_deleted":"0","num_feature":"148","num_nodes":"15","size_leaf_vector":"0"}},{"base_weights":[-8.861415E-1,-1E0,-1.8322745E-2,-1E0,-4.2173424E-1,2.0920497E-1,-8.083882E-1,-1E0,-4.948746E-1,8.511199E-2,-1E0,-1.702154E-1,7.9550517E-1,-1E0,1.605883E-1],"categories":[],"categories_nodes":[],"categories_segments":[],"categories_sizes":[],"default_left":[1,1,1,1,1,1,1,0,0,0,0,0,0,0,0],"id":36,"left_children":[1,3,5,7,9,11,13,-1,-1,-1,-1,-1,-1,-1,-1],"loss_changes":[4.284348E2,3.6645752E1,8.8173706E1,2.8992676E1,4.3306843E1,8.507576E1,3.5310585E1,0E0,0E0,0E0,0E0,0E0,0E0,0E0,0E0],"parents":[2147483647,0,0,1,1,2,2,3,3,4,4,5,5,6,6],"right_children":[2,4,6,8,10,12,14,-1,-1,-1,-1,-1,-1,-1,-1],"split_conditions":[6.405889E-2,9.996456E-1,2.6847646E-1,5.850689E-1,1.6976744E-1,4.087484E-1,5.425953E-1,-3E-2,-1.4846237E-2,2.5533596E-3,-3E-2,-5.1064617E-3,2.3865154E-2,-3E-2,4.817649E-3],"split_indices":[8,15,136,3,13,3,14,0,0,0,0,0,0,0,0],"split_type":[0,0,0,0,0,0,0,0,0,0,0,0,0,0,0],"sum_hessian":[2.936273E3,2.4519358E3,4.8433722E2,2.336807E3,1.1512889E2,3.7749435E2,1.0684288E2,2.2151313E3,1.2167548E2,6.963501E1,4.5493877E1,2.3025691E2,1.4723744E2,7.8467636E1,2.8375246E1],"tree_param":{"num_deleted":"0","num_feature":"148","num_nodes":"15","size_leaf_vector":"0"}},{"base_weights":[-8.482694E-1,-1E0,1.8335934E-1,-6.1273617E-1,-1E0,-5.209425E-1,4.0268168E-1,-7.192223E-1,1E0,-1E0,-2.2569518E-1,4.000973E-1,-8.3272344E-1,-4.974655E-1,5.34204E-1],"categories":[],"categories_nodes":[],"categories_segments":[],"categories_sizes":[],"default_left":[1,1,1,1,1,1,1,0,0,0,0,0,0,0,0],"id":37,"left_children":[1,3,5,7,9,11,13,-1,-1,-1,-1,-1,-1,-1,-1],"loss_changes":[5.858152E2,6.0785645E1,7.300836E1,7.5108475E1,1.4891113E1,3.326808E1,4.327075E1,0E0,0E0,0E0,0E0,0E0,0E0,0E0,0E0],"parents":[2147483647,0,0,1,1,2,2,3,3,4,4,5,5,6,6],"right_children":[2,4,6,8,10,12,14,-1,-1,-1,-1,-1,-1,-1,-1],"split_conditions":[9.996456E-1,1.0358462E-1,3.856383E-2,4.4414893E-1,6.396277E-1,3.718778E-3,3.1493786E-1,-2.1576669E-2,3E-2,-3E-2,-6.7708553E-3,1.2002919E-2,-2.4981702E-2,-1.4923965E-2,1.602612E-2],"split_indices":[15,4,0,0,0,4,14,0,0,0,0,0,0,0,0],"split_type":[0,0,0,0,0,0,0,0,0,0,0,0,0,0,0],"sum_hessian":[2.9356787E3,2.469926E3,4.6575272E2,4.207589E2,2.049167E3,1.096526E2,3.561001E2,3.962381E2,2.4520798E1,2.0223734E3,2.679357E1,2.7484423E1,8.216818E1,4.438598E1,3.117141E2],"tree_param":{"num_deleted":"0","num_feature":"148","num_nodes":"15","size_leaf_vector":"0"}},{"base_weights":[-8.356722E-1,-1E0,1.3362181E-1,-2.8610972E-1,-1E0,-4.7430095E-1,4.7395983E-1,1E0,-5.704345E-1,-1E0,-2.5272888E-1,3.158363E-1,-7.846417E-1,3.7749574E-2,8.9330125E-1],"categories":[],"categories_nodes":[],"categories_segments":[],"categories_sizes":[],"default_left":[1,1,1,1,1,1,1,0,0,0,0,0,0,0,0],"id":38,"left_children":[1,3,5,7,9,11,13,-1,-1,-1,-1,-1,-1,-1,-1],"loss_changes":[4.9297998E2,8.5855225E1,9.309724E1,7.509235E1,4.4111816E1,4.038535E1,5.2529915E1,0E0,0E0,0E0,0E0,0E0,0E0,0E0,0E0],"parents":[2147483647,0,0,1,1,2,2,3,3,4,4,5,5,6,6],"right_children":[2,4,6,8,10,12,14,-1,-1,-1,-1,-1,-1,-1,-1],"split_conditions":[9.996491E-1,4.297526E-2,5.984042E-2,4.938251E-1,2.5E-1,5.613584E-3,1.6993378E-1,3E-2,-1.7113036E-2,-3E-2,-7.5818663E-3,9.475089E-3,-2.353925E-2,1.1324872E-3,2.6799036E-2],"split_indices":[15,4,0,5,105,4,125,0,0,0,0,0,0,0,0],"split_type":[0,0,0,0,0,0,0,0,0,0,0,0,0,0,0],"sum_hessian":[2.8994817E3,2.455617E3,4.438647E2,1.712182E2,2.2843987E3,1.5885742E2,2.8500726E2,2.5750654E1,1.4546754E2,2.2031133E3,8.128536E1,4.472259E1,1.14134834E2,1.4119719E2,1.4381009E2],"tree_param":{"num_deleted":"0","num_feature":"148","num_nodes":"15","size_leaf_vector":"0"}},{"base_weights":[-8.4938383E-1,-1E0,-2.0065245E-1,4.4145423E-1,-1E0,3.215069E-1,-6.921956E-1,-1E0,4.0036723E-1,6.518654E-2,9.885795E-1,-9.967867E-1,3.0004336E-2],"categories":[],"categories_nodes":[],"categories_segments":[],"categories_sizes":[],"default_left":[1,1,1,0,1,1,1,0,0,0,0,0,0],"id":39,"left_children":[1,3,5,-1,7,9,11,-1,-1,-1,-1,-1,-1],"loss_changes":[3.4722363E2,4.765796E1,1.672172E2,0E0,4.247168E1,5.3936203E1,7.389252E1,0E0,0E0,0E0,0E0,0E0,0E0],"parents":[2147483647,0,0,1,1,2,2,4,4,5,5,6,6],"right_children":[2,4,6,-1,8,10,12,-1,-1,-1,-1,-1,-1],"split_conditions":[6.997528E-2,3.400576E-2,1.0540454E-1,1.3243627E-2,8.2339954E-1,3.6278266E-1,2.3954615E-1,-3E-2,1.2011017E-2,1.955596E-3,2.9657384E-2,-2.99036E-2,9.0013E-4],"split_indices":[10,9,16,0,140,125,10,0,0,0,0,0,0],"split_type":[0,0,0,0,0,0,0,0,0,0,0,0,0],"sum_hessian":[2.8400542E3,2.19406E3,6.459941E2,2.1460155E1,2.1726E3,3.1362027E2,3.3237384E2,2.152346E3,2.0254114E1,2.287502E2,8.487008E1,2.3313243E2,9.92414E1],"tree_param":{"num_deleted":"0","num_feature":"148","num_nodes":"13","size_leaf_vector":"0"}},{"base_weights":[-8.083666E-1,-9.8822737E-1,1.2803961E-1,-1E0,-2.5269485E-1,-1.1580572E-1,9.74713E-1,-1E0,-4.1491815E-1,5.3270286E-1,-8.3092767E-1,-4.7714263E-1,4.2046875E-1,1E0,2.3145595E-1],"categories":[],"categories_nodes":[],"categories_segments":[],"categories_sizes":[],"default_left":[1,1,1,1,1,1,1,0,0,0,0,0,0,1,1],"id":40,"left_children":[1,3,5,7,9,11,-1,-1,-1,-1,-1,-1,-1,-1,-1],"loss_changes":[4.7335034E2,7.4156006E1,9.437344E1,5.8962402E1,6.41692E1,6.950629E1,1.1186867E1,0E0,0E0,0E0,0E0,0E0,0E0,0E0,0E0],"parents":[2147483647,0,0,1,1,2,2,3,3,4,4,5,5,6,6],"right_children":[2,4,6,8,10,12,-1,-1,-1,-1,-1,-1,-1,-1,-1],"split_conditions":[9.996456E-1,3.8466984E-1,2.5E-1,9.1495454E-2,1.4593308E-1,2.3954615E-1,2.924139E-2,-3E-2,-1.2447544E-2,1.5981086E-2,-2.492783E-2,-1.4314279E-2,1.2614062E-2,3E-2,6.9436785E-3],"split_indices":[15,140,60,10,146,10,113,0,0,0,0,0,0,2147483647,2147483647],"split_type":[0,0,0,0,0,0,0,0,0,0,0,0,0,0,0],"sum_hessian":[2.8052227E3,2.3531638E3,4.5205893E2,2.2175073E3,1.356563E2,3.526975E2,9.936141E1,2.0399124E3,1.7759512E2,5.7561844E1,7.809446E1,2.1097014E2,1.4172739E2,7.8292274E1,2.1069132E1],"tree_param":{"num_deleted":"2","num_feature":"148","num_nodes":"15","size_leaf_vector":"0"}},{"base_weights":[-8.150502E-1,-1E0,1.3437957E-1,-3.6954272E-1,-1E0,-2.8814656E-1,5.439371E-1,4.126508E-1,-8.7193704E-1,-1E0,-2.806625E-1,-9.4568425E-1,4.2930655E-2,7.910604E-1,-1.1165564E-1],"categories":[],"categories_nodes":[],"categories_segments":[],"categories_sizes":[],"default_left":[1,1,1,1,1,1,1,0,0,0,0,0,0,0,0],"id":41,"left_children":[1,3,5,7,9,11,13,-1,-1,-1,-1,-1,-1,-1,-1],"loss_changes":[4.8914624E2,7.5816895E1,7.943863E1,7.879198E1,3.9773438E1,4.9487244E1,3.800757E1,0E0,0E0,0E0,0E0,0E0,0E0,0E0,0E0],"parents":[2147483647,0,0,1,1,2,2,3,3,4,4,5,5,6,6],"right_children":[2,4,6,8,10,12,14,-1,-1,-1,-1,-1,-1,-1,-1],"split_conditions":[9.997464E-1,4.811001E-2,7.9583585E-2,2.4921942E-1,5E-1,4.577466E-2,1.7772724E-1,1.2379523E-2,-2.6158111E-2,-3E-2,-8.419875E-3,-2.8370528E-2,1.2879196E-3,2.3731811E-2,-3.349669E-3],"split_indices":[15,4,125,12,94,1,136,0,0,0,0,0,0,0,0],"split_type":[0,0,0,0,0,0,0,0,0,0,0,0,0,0,0],"sum_hessian":[2.7786748E3,2.3253547E3,4.533201E2,1.9500099E2,2.1303538E3,2.2343292E2,2.2988719E2,7.639593E1,1.1860506E2,2.0508135E3,7.954013E1,7.3239975E1,1.5019295E2,1.6663129E2,6.32559E1],"tree_param":{"num_deleted":"0","num_feature":"148","num_nodes":"15","size_leaf_vector":"0"}},{"base_weights":[-7.9079956E-1,-1E0,3.1948797E-2,-1E0,-5.193166E-1,4.6931192E-1,-4.0111494E-1,-1E0,2.835991E-2,-9.4186056E-1,6.549816E-2,6.649456E-2,8.527733E-1,-7.116573E-1,4.270696E-1],"categories":[],"categories_nodes":[],"categories_segments":[],"categories_sizes":[],"default_left":[1,1,1,1,1,1,1,0,0,0,0,0,0,0,0],"id":42,"left_children":[1,3,5,7,9,11,13,-1,-1,-1,-1,-1,-1,-1,-1],"loss_changes":[4.9396814E2,4.6406494E1,1.1030692E2,4.568506E1,5.284164E1,4.455389E1,7.6115814E1,0E0,0E0,0E0,0E0,0E0,0E0,0E0,0E0],"parents":[2147483647,0,0,1,1,2,2,3,3,4,4,5,5,6,6],"right_children":[2,4,6,8,10,12,14,-1,-1,-1,-1,-1,-1,-1,-1],"split_conditions":[5.1854514E-2,9.902375E-1,1.0540454E-1,5E-1,2.5501464E-2,1.2378006E-1,2.4162006E-1,-3E-2,8.507973E-4,-2.8255817E-2,1.9649446E-3,1.9948368E-3,2.5583198E-2,-2.1349719E-2,1.2812088E-2],"split_indices":[8,15,16,117,8,125,8,0,0,0,0,0,0,0,0],"split_type":[0,0,0,0,0,0,0,0,0,0,0,0,0,0,0],"sum_hessian":[2.7446382E3,2.1682004E3,5.764377E2,1.958207E3,2.0999353E2,2.867637E2,2.89674E2,1.9152863E3,4.2920662E1,1.2103504E2,8.895849E1,1.4146378E2,1.4529993E2,2.110101E2,7.86639E1],"tree_param":{"num_deleted":"0","num_feature":"148","num_nodes":"15","size_leaf_vector":"0"}},{"base_weights":[-7.951134E-1,-1E0,4.050179E-3,-1E0,4.5872048E-1,4.641609E-1,-4.1658488E-1,-1E0,7.5877585E-2,6.2325025E-1,-4.8516485E-1,-7.2876376E-1,5.063072E-1],"categories":[],"categories_nodes":[],"categories_segments":[],"categories_sizes":[],"default_left":[1,1,1,1,0,1,1,0,0,0,0,0,0],"id":43,"left_children":[1,3,5,7,-1,9,11,-1,-1,-1,-1,-1,-1],"loss_changes":[4.9070386E2,4.6143555E1,1.17310326E2,3.129126E1,0E0,4.458743E1,9.222479E1,0E0,0E0,0E0,0E0,0E0,0E0],"parents":[2147483647,0,0,1,1,2,2,3,3,5,5,6,6],"right_children":[2,4,6,8,-1,10,12,-1,-1,-1,-1,-1,-1],"split_conditions":[4.7858205E-2,7.5E-1,1.067082E-1,6.396277E-1,1.37616135E-2,1.5118986E-1,2.713846E-1,-3E-2,2.2763275E-3,1.8697508E-2,-1.4554945E-2,-2.1862913E-2,1.5189216E-2],"split_indices":[8,40,16,0,0,129,8,0,0,0,0,0,0],"split_type":[0,0,0,0,0,0,0,0,0,0,0,0,0],"sum_hessian":[2.725503E3,2.125335E3,6.001681E2,2.1051555E3,2.0179445E1,2.865809E2,3.135872E2,2.0786133E3,2.6542015E1,2.4629393E2,4.0286957E1,2.3479874E2,7.878845E1],"tree_param":{"num_deleted":"0","num_feature":"148","num_nodes":"13","size_leaf_vector":"0"}},{"base_weights":[-7.428892E-1,-9.28415E-1,1.747092E-1,-3.7081534E-1,-9.77718E-1,-3.9740878E-1,3.8763005E-1,2.648461E-1,-9.2422855E-1,-1E0,-2.7921832E-1,5.3098504E-2,-8.543884E-1,5.522124E-1,-3.0615598E-1],"categories":[],"categories_nodes":[],"categories_segments":[],"categories_sizes":[],"default_left":[1,1,1,1,1,1,1,0,0,0,0,0,0,0,0],"id":44,"left_children":[1,3,5,7,9,11,13,-1,-1,-1,-1,-1,-1,-1,-1],"loss_changes":[4.553999E2,6.0114258E1,5.5499863E1,6.588943E1,4.6629517E1,2.571262E1,3.8272102E1,0E0,0E0,0E0,0E0,0E0,0E0,0E0,0E0],"parents":[2147483647,0,0,1,1,2,2,3,3,4,4,5,5,6,6],"right_children":[2,4,6,8,10,12,14,-1,-1,-1,-1,-1,-1,-1,-1],"split_conditions":[9.996491E-1,4.8077427E-2,4.3882973E-2,2.9534882E-1,7.5E-1,1.6976744E-1,2.5E-1,7.945382E-3,-2.7726855E-2,-3E-2,-8.376549E-3,1.5929551E-3,-2.5631651E-2,1.6566372E-2,-9.184679E-3],"split_indices":[15,4,0,13,70,13,120,0,0,0,0,0,0,0,0],"split_type":[0,0,0,0,0,0,0,0,0,0,0,0,0,0,0],"sum_hessian":[2.6692776E3,2.2203894E3,4.4888824E2,1.8233496E2,2.0380544E3,1.2103524E2,3.27853E2,8.5449524E1,9.688543E1,1.9437018E3,9.435274E1,6.205816E1,5.8977085E1,2.6551053E2,6.2342464E1],"tree_param":{"num_deleted":"0","num_feature":"148","num_nodes":"15","size_leaf_vector":"0"}},{"base_weights":[-7.902768E-1,-9.9686545E-1,-5.9474986E-2,-1E0,1.7436935E-1,5.268967E-1,-4.3451947E-1,-1E0,4.5195016E-1,1E0,-6.178941E-1,1E0,1.1306995E-1,6.8948734E-1,-6.6351753E-1],"categories":[],"categories_nodes":[],"categories_segments":[],"categories_sizes":[],"default_left":[1,1,1,1,1,1,1,0,0,0,0,0,0,0,0],"id":45,"left_children":[1,3,5,7,9,11,13,-1,-1,-1,-1,-1,-1,-1,-1],"loss_changes":[3.933319E2,6.1803833E1,1.2769744E2,4.549341E1,3.4235477E1,5.0744175E1,9.237447E1,0E0,0E0,0E0,0E0,0E0,0E0,0E0,0E0],"parents":[2147483647,0,0,1,1,2,2,3,3,4,4,5,5,6,6],"right_children":[2,4,6,8,10,12,14,-1,-1,-1,-1,-1,-1,-1,-1],"split_conditions":[4.7642745E-2,5E-1,7.9352155E-2,7.2918844E-1,9.048942E-2,7.983577E-1,3.1149194E-3,-3E-2,1.3558504E-2,3E-2,-1.8536823E-2,3E-2,3.3920985E-3,2.068462E-2,-1.9905526E-2],"split_indices":[8,117,16,140,14,11,4,0,0,0,0,0,0,0,0],"split_type":[0,0,0,0,0,0,0,0,0,0,0,0,0,0,0],"sum_hessian":[2.603894E3,2.0292003E3,5.746938E2,1.9852223E3,4.3977997E1,2.2369327E2,3.5100052E2,1.9651376E3,2.0084732E1,2.0527256E1,2.345074E1,9.398551E1,1.2970776E2,5.8450085E1,2.9255045E2],"tree_param":{"num_deleted":"0","num_feature":"148","num_nodes":"15","size_leaf_vector":"0"}},{"base_weights":[-7.6290905E-1,-9.506475E-1,1.1914265E-1,-5.5061287E-1,-1E0,3.7076634E-1,-6.5648806E-1,4.6660375E-2,-8.7354004E-1,-1E0,2.9058138E-1,-6.1008865E-1,5.237651E-1,-1E0,1.21049054E-1],"categories":[],"categories_nodes":[],"categories_segments":[],"categories_sizes":[],"default_left":[1,1,1,1,1,1,1,0,0,0,0,0,0,0,0],"id":46,"left_children":[1,3,5,7,9,11,13,-1,-1,-1,-1,-1,-1,-1,-1],"loss_changes":[4.2978284E2,8.2075806E1,9.001204E1,8.6175186E1,6.175891E1,5.3037407E1,3.4161884E1,0E0,0E0,0E0,0E0,0E0,0E0,0E0,0E0],"parents":[2147483647,0,0,1,1,2,2,3,3,4,4,5,5,6,6],"right_children":[2,4,6,8,10,12,14,-1,-1,-1,-1,-1,-1,-1,-1],"split_conditions":[9.996456E-1,1.2062264E-1,1.6666667E-1,2.9020172E-1,5E-1,2.5265947E-2,2.701978E-1,1.3998112E-3,-2.6206201E-2,-3E-2,8.717441E-3,-1.8302659E-2,1.5712952E-2,-3E-2,3.6314714E-3],"split_indices":[15,4,74,9,117,0,141,0,0,0,0,0,0,0,0],"split_type":[0,0,0,0,0,0,0,0,0,0,0,0,0,0,0],"sum_hessian":[2.590298E3,2.1356182E3,4.5468E2,4.4300485E2,1.6926134E3,3.4442377E2,1.10256195E2,1.5618863E2,2.8681622E2,1.6567054E3,3.5907883E1,4.5341194E1,2.9908258E2,7.317612E1,3.7080082E1],"tree_param":{"num_deleted":"0","num_feature":"148","num_nodes":"15","size_leaf_vector":"0"}},{"base_weights":[-7.3742026E-1,-9.34925E-1,5.6788273E-2,-9.844022E-1,-3.2569602E-1,3.7955248E-1,-5.60516E-1,-1E0,-1.9415843E-1,-9.3563807E-1,2.6974323E-1,-5.7635307E-3,7.482371E-1,-9.6116716E-1,2.875526E-1],"categories":[],"categories_nodes":[],"categories_segments":[],"categories_sizes":[],"default_left":[1,1,1,1,1,1,1,0,0,0,0,0,0,0,0],"id":47,"left_children":[1,3,5,7,9,11,13,-1,-1,-1,-1,-1,-1,-1,-1],"loss_changes":[4.0029956E2,6.0681274E1,1.0236487E2,3.7556152E1,5.8047756E1,4.7960716E1,6.075827E1,0E0,0E0,0E0,0E0,0E0,0E0,0E0,0E0],"parents":[2147483647,0,0,1,1,2,2,3,3,4,4,5,5,6,6],"right_children":[2,4,6,8,10,12,14,-1,-1,-1,-1,-1,-1,-1,-1],"split_conditions":[5.5666134E-2,1.6666667E-1,1.6234593E-1,4.5079786E-1,7.2534084E-1,2.5E-1,2.5E-1,-3E-2,-5.824753E-3,-2.8069142E-2,8.092297E-3,-1.7290591E-4,2.2447111E-2,-2.8835014E-2,8.626577E-3],"split_indices":[8,84,16,0,11,28,29,0,0,0,0,0,0,0,0],"split_type":[0,0,0,0,0,0,0,0,0,0,0,0,0,0,0],"sum_hessian":[2.5477803E3,2.0400685E3,5.077117E2,1.8852123E3,1.5485617E2,3.3414026E2,1.7357144E2,1.8250658E3,6.0146492E1,7.58023E1,7.905387E1,1.6457498E2,1.6956528E2,1.17695274E2,5.5876167E1],"tree_param":{"num_deleted":"0","num_feature":"148","num_nodes":"15","size_leaf_vector":"0"}},{"base_weights":[-6.99636E-1,-9.234578E-1,1.06401876E-1,-9.884281E-1,-5.7429695E-1,4.0959287E-1,-5.866885E-1,-1E0,-2.6907238E-1,9.857914E-1,-7.52957E-1,7.615372E-2,9.5010465E-1,2.2630138E-2,-1E0],"categories":[],"categories_nodes":[],"categories_segments":[],"categories_sizes":[],"default_left":[1,1,1,1,1,1,1,0,0,0,0,0,0,0,0],"id":48,"left_children":[1,3,5,7,9,11,13,-1,-1,-1,-1,-1,-1,-1,-1],"loss_changes":[4.6163135E2,4.3872314E1,1.1800669E2,4.956604E1,9.145754E1,7.007821E1,4.6438797E1,0E0,0E0,0E0,0E0,0E0,0E0,0E0,0E0],"parents":[2147483647,0,0,1,1,2,2,3,3,4,4,5,5,6,6],"right_children":[2,4,6,8,10,12,14,-1,-1,-1,-1,-1,-1,-1,-1],"split_conditions":[5.5666134E-2,2.5619455E-2,1.9783014E-1,3.8466984E-1,6.7022756E-2,4.087689E-1,1.977861E-1,-3E-2,-8.072171E-3,2.957374E-2,-2.258871E-2,2.2846116E-3,2.8503139E-2,6.789041E-4,-3E-2],"split_indices":[8,8,136,140,12,3,12,0,0,0,0,0,0,0,0],"split_type":[0,0,0,0,0,0,0,0,0,0,0,0,0,0,0],"sum_hessian":[2.5541284E3,1.998797E3,5.5533124E2,1.680942E3,3.1785498E2,3.871584E2,1.6817288E2,1.5852368E3,9.570521E1,3.138453E1,2.8647046E2,2.4140338E2,1.45755E2,7.20059E1,9.6166985E1],"tree_param":{"num_deleted":"0","num_feature":"148","num_nodes":"15","size_leaf_vector":"0"}},{"base_weights":[-7.2918355E-1,-9.303638E-1,1.14692636E-1,-5.294502E-1,-1E0,6.6214037E-1,-1.9625752E-1,5.697887E-1,-7.5032514E-1,-1E0,-5.321281E-1,1E0,5.861024E-2,-8.575096E-1,1.4578496E-1],"categories":[],"categories_nodes":[],"categories_segments":[],"categories_sizes":[],"default_left":[1,1,1,1,1,1,1,0,0,0,0,0,0,0,0],"id":49,"left_children":[1,3,5,7,9,11,13,-1,-1,-1,-1,-1,-1,-1,-1],"loss_changes":[4.2459424E2,6.0977295E1,8.275662E1,8.183555E1,2.4471436E1,3.788645E1,7.065694E1,0E0,0E0,0E0,0E0,0E0,0E0,0E0,0E0],"parents":[2147483647,0,0,1,1,2,2,3,3,4,4,5,5,6,6],"right_children":[2,4,6,8,10,12,14,-1,-1,-1,-1,-1,-1,-1,-1],"split_conditions":[6.443852E-2,1.1312488E-1,2.2161382E-1,3.4407116E-2,1.6666667E-1,2.5E-1,2.5E-1,1.709366E-2,-2.2509754E-2,-3E-2,-1.5963843E-2,3E-2,1.7583072E-3,-2.5725288E-2,4.3735486E-3],"split_indices":[8,4,9,16,84,83,52,0,0,0,0,0,0,0,0],"split_type":[0,0,0,0,0,0,0,0,0,0,0,0,0,0,0],"sum_hessian":[2.496054E3,2.015393E3,4.806611E2,3.2920468E2,1.6861882E3,1.731081E2,3.07553E2,5.4324833E1,2.7487985E2,1.5646011E3,1.2158713E2,1.0728106E2,6.5827034E1,1.035516E2,2.0400143E2],"tree_param":{"num_deleted":"0","num_feature":"148","num_nodes":"15","size_leaf_vector":"0"}},{"base_weights":[-7.1181303E-1,-9.121906E-1,9.980544E-2,-5.871878E-1,-9.9288285E-1,4.4538724E-1,-6.086115E-1,4.6945158E-1,-7.522186E-1,-1E0,1.8820855E-1,9.580822E-1,6.31755E-2,-9.142756E-1,4.4910613E-1],"categories":[],"categories_nodes":[],"categories_segments":[],"categories_sizes":[],"default_left":[1,1,1,1,1,1,1,0,0,0,0,0,0,0,0],"id":50,"left_children":[1,3,5,7,9,11,13,-1,-1,-1,-1,-1,-1,-1,-1],"loss_changes":[4.0054248E2,5.0196655E1,1.20699005E2,7.067528E1,2.9605103E1,6.464337E1,5.3469894E1,0E0,0E0,0E0,0E0,0E0,0E0,0E0,0E0],"parents":[2147483647,0,0,1,1,2,2,3,3,4,4,5,5,6,6],"right_children":[2,4,6,8,10,12,14,-1,-1,-1,-1,-1,-1,-1,-1],"split_conditions":[6.147848E-2,1.3926151E-1,1.4816062E-1,5.113884E-1,5.885687E-1,2.4322766E-1,2.5E-1,1.4083547E-2,-2.2566557E-2,-3E-2,5.6462563E-3,2.8742466E-2,1.895265E-3,-2.7428268E-2,1.3473184E-2],"split_indices":[8,4,136,5,128,9,59,0,0,0,0,0,0,0,0],"split_type":[0,0,0,0,0,0,0,0,0,0,0,0,0,0,0],"sum_hessian":[2.4581514E3,1.9712354E3,4.8691608E2,3.966298E2,1.5746056E3,3.2799756E2,1.5891852E2,5.285919E1,3.437706E2,1.5544735E3,2.01321E1,1.382961E2,1.8970146E2,1.236205E2,3.529802E1],"tree_param":{"num_deleted":"0","num_feature":"148","num_nodes":"15","size_leaf_vector":"0"}},{"base_weights":[-6.706164E-1,-9.225328E-1,-8.95898E-2,9.128223E-1,-9.4588566E-1,-4.1790363E-1,5.111752E-1,-1E0,-5.543377E-1,1.7484032E-1,-6.491461E-1,7.542141E-1,-6.748216E-2],"categories":[],"categories_nodes":[],"categories_segments":[],"categories_sizes":[],"default_left":[1,1,1,0,1,1,1,0,0,0,0,0,0],"id":51,"left_children":[1,3,5,-1,7,9,11,-1,-1,-1,-1,-1,-1],"loss_changes":[3.599369E2,7.5986084E1,1.4806815E2,0E0,4.494348E1,6.683291E1,3.752088E1,0E0,0E0,0E0,0E0,0E0,0E0],"parents":[2147483647,0,0,1,1,2,2,4,4,5,5,6,6],"right_children":[2,4,6,-1,8,10,12,-1,-1,-1,-1,-1,-1],"split_conditions":[5.714056E-2,3.573487E-2,1.7399435E-1,2.7384669E-2,4.1726846E-1,1.7906977E-1,1.6666667E-1,-3E-2,-1.663013E-2,5.245209E-3,-1.9474382E-2,2.2626422E-2,-2.0244648E-3],"split_indices":[10,9,125,0,138,13,74,0,0,0,0,0,0],"split_type":[0,0,0,0,0,0,0,0,0,0,0,0,0],"sum_hessian":[2.4580837E3,1.7134832E3,7.446007E2,2.0216915E1,1.6932662E3,4.8207538E2,2.6252536E2,1.4309612E3,2.6230502E2,1.3538742E2,3.4668796E2,1.8439157E2,7.813378E1],"tree_param":{"num_deleted":"0","num_feature":"148","num_nodes":"13","size_leaf_vector":"0"}},{"base_weights":[-6.622723E-1,-8.9260733E-1,5.003472E-2,-9.5725024E-1,-1.2502848E-1,3.57163E-1,-5.3106177E-1,-9.788276E-1,4.2769164E-1,-6.012096E-1,5.5076164E-1,-5.6520734E-2,7.777107E-1,-1E0,6.971265E-1],"categories":[],"categories_nodes":[],"categories_segments":[],"categories_sizes":[],"default_left":[1,1,1,1,1,1,1,0,0,0,0,0,0,0,0],"id":52,"left_children":[1,3,5,7,9,11,13,-1,-1,-1,-1,-1,-1,-1,-1],"loss_changes":[3.9817273E2,9.0587524E1,1.0682246E2,5.172351E1,4.785834E1,6.825949E1,1.3908377E2,0E0,0E0,0E0,0E0,0E0,0E0,0E0,0E0],"parents":[2147483647,0,0,1,1,2,2,3,3,4,4,5,5,6,6],"right_children":[2,4,6,8,10,12,14,-1,-1,-1,-1,-1,-1,-1,-1],"split_conditions":[4.7858205E-2,1.6666667E-1,1.6011067E-1,5E-1,1.4738624E-2,2.5E-1,2.7405733E-1,-2.9364828E-2,1.2830749E-2,-1.8036287E-2,1.6522849E-2,-1.695622E-3,2.333132E-2,-3E-2,2.0913795E-2],"split_indices":[8,84,16,117,8,61,8,0,0,0,0,0,0,0,0],"split_type":[0,0,0,0,0,0,0,0,0,0,0,0,0,0,0],"sum_hessian":[2.4228794E3,1.8304116E3,5.924679E2,1.6875443E3,1.4286734E2,3.8835477E2,2.0411311E2,1.6624738E3,2.507058E1,8.4043755E1,5.882358E1,1.9685413E2,1.9150064E2,1.418791E2,6.223401E1],"tree_param":{"num_deleted":"0","num_feature":"148","num_nodes":"15","size_leaf_vector":"0"}},{"base_weights":[-6.8681234E-1,-9.026498E-1,3.7507486E-2,-9.404129E-1,-1.4310728E-1,3.1039652E-1,-5.741984E-1,-9.795996E-1,-2.799798E-1,-1E0,7.370855E-1,7.029792E-1,-1.4514273E-1,-8.2267955E-2,-1E0],"categories":[],"categories_nodes":[],"categories_segments":[],"categories_sizes":[],"default_left":[1,1,1,1,1,1,1,0,0,0,0,0,0,0,0],"id":53,"left_children":[1,3,5,7,9,11,13,-1,-1,-1,-1,-1,-1,-1,-1],"loss_changes":[3.7003723E2,5.1875244E1,9.165E1,4.4152832E1,7.030526E1,6.8181076E1,3.8851456E1,0E0,0E0,0E0,0E0,0E0,0E0,0E0,0E0],"parents":[2147483647,0,0,1,1,2,2,3,3,4,4,5,5,6,6],"right_children":[2,4,6,8,10,12,14,-1,-1,-1,-1,-1,-1,-1,-1],"split_conditions":[5.0607912E-2,7.5E-1,1.9783014E-1,5E-1,7.2418356E-1,2.927954E-1,8.389279E-2,-2.9387986E-2,-8.399393E-3,-3E-2,2.2112565E-2,2.1089375E-2,-4.354282E-3,-2.4680386E-3,-3E-2],"split_indices":[8,70,136,27,11,9,138,0,0,0,0,0,0,0,0],"split_type":[0,0,0,0,0,0,0,0,0,0,0,0,0,0,0],"sum_hessian":[2.3630999E3,1.8201575E3,5.429423E2,1.733258E3,8.689947E1,3.7643484E2,1.6650746E2,1.6348623E3,9.839572E1,4.3705124E1,4.3194344E1,2.0149352E2,1.7494135E2,8.31258E1,8.338166E1],"tree_param":{"num_deleted":"0","num_feature":"148","num_nodes":"15","size_leaf_vector":"0"}},{"base_weights":[-6.852905E-1,-8.6174893E-1,1.2825933E-1,-9.1658163E-1,-8.35737E-2,3.2632676E-1,-7.1528035E-1,-6.038998E-1,-1E0,5.529267E-1,-8.3420265E-1,-3.2427055E-1,5.3675926E-1,-1E0,3.0004746E-1],"categories":[],"categories_nodes":[],"categories_segments":[],"categories_sizes":[],"default_left":[1,1,1,1,1,1,1,0,0,0,0,0,0,0,0],"id":54,"left_children":[1,3,5,7,9,11,13,-1,-1,-1,-1,-1,-1,-1,-1],"loss_changes":[3.3870508E2,8.239807E1,7.127759E1,5.235437E1,6.378584E1,4.7633053E1,4.465279E1,0E0,0E0,0E0,0E0,0E0,0E0,0E0,0E0],"parents":[2147483647,0,0,1,1,2,2,3,3,4,4,5,5,6,6],"right_children":[2,4,6,8,10,12,14,-1,-1,-1,-1,-1,-1,-1,-1],"split_conditions":[3.2760608E-1,3.8466984E-1,2.5E-1,1.8372093E-1,1.7050883E-1,4.577466E-2,3.294081E-1,-1.8116994E-2,-3E-2,1.6587801E-2,-2.502608E-2,-9.728116E-3,1.6102778E-2,-3E-2,9.001424E-3],"split_indices":[14,140,120,13,146,1,130,0,0,0,0,0,0,0,0],"split_type":[0,0,0,0,0,0,0,0,0,0,0,0,0,0,0],"sum_hessian":[2.3540068E3,1.9343705E3,4.1963647E2,1.8065154E3,1.2785507E2,3.412287E2,7.8407776E1,4.285135E2,1.378002E3,6.951699E1,5.8338078E1,8.296278E1,2.5826593E2,4.9316223E1,2.9091549E1],"tree_param":{"num_deleted":"0","num_feature":"148","num_nodes":"15","size_leaf_vector":"0"}},{"base_weights":[-6.43771E-1,-8.302231E-1,6.7779884E-2,-8.66352E-1,8.5541024E-4,-5.586689E-1,3.3532968E-1,-8.96132E-1,1.3301338E-1,9.0677106E-1,-9.7488457E-1,-8.049189E-1,3.3394662E-1,-7.14796E-2,8.356305E-1],"categories":[],"categories_nodes":[],"categories_segments":[],"categories_sizes":[],"default_left":[1,1,1,1,1,1,1,0,0,0,0,0,0,0,0],"id":55,"left_children":[1,3,5,7,9,11,13,-1,-1,-1,-1,-1,-1,-1,-1],"loss_changes":[3.0302783E2,5.437451E1,8.042062E1,5.198059E1,7.149647E1,3.2359978E1,6.8566986E1,0E0,0E0,0E0,0E0,0E0,0E0,0E0,0E0],"parents":[2147483647,0,0,1,1,2,2,3,3,4,4,5,5,6,6],"right_children":[2,4,6,8,10,12,14,-1,-1,-1,-1,-1,-1,-1,-1],"split_conditions":[6.135536E-2,4.6476996E-1,5.4521278E-2,6.599912E-1,2.5E-1,9.5960855E-1,3.826564E-1,-2.688396E-2,3.9904015E-3,2.7203131E-2,-2.9246537E-2,-2.4147566E-2,1.0018398E-2,-2.1443882E-3,2.5068915E-2],"split_indices":[8,140,0,127,101,11,145,0,0,0,0,0,0,0,0],"split_type":[0,0,0,0,0,0,0,0,0,0,0,0,0,0,0],"sum_hessian":[2.2796162E3,1.8060251E3,4.735911E2,1.7307552E3,7.526993E1,1.407888E2,3.328023E2,1.6810073E3,4.9747917E1,3.916582E1,3.6104107E1,1.1061257E2,3.0176224E1,1.847339E2,1.4806839E2],"tree_param":{"num_deleted":"0","num_feature":"148","num_nodes":"15","size_leaf_vector":"0"}},{"base_weights":[-6.574781E-1,-8.668547E-1,8.996932E-2,-8.9099616E-1,1.3087058E-1,4.1565338E-1,-5.4599565E-1,-5.6412816E-1,-9.6550745E-1,-5.19306E-1,7.990927E-1,8.633567E-1,9.543347E-2,-1E0,2.5514466E-1],"categories":[],"categories_nodes":[],"categories_segments":[],"categories_sizes":[],"default_left":[1,1,1,1,1,1,1,0,0,0,0,0,0,0,0],"id":56,"left_children":[1,3,5,7,9,11,13,-1,-1,-1,-1,-1,-1,-1,-1],"loss_changes":[3.5282208E2,4.2775513E1,1.0329427E2,4.0394043E1,2.0331982E1,4.697151E1,9.114454E1,0E0,0E0,0E0,0E0,0E0,0E0,0E0,0E0],"parents":[2147483647,0,0,1,1,2,2,3,3,4,4,5,5,6,6],"right_children":[2,4,6,8,10,12,14,-1,-1,-1,-1,-1,-1,-1,-1],"split_conditions":[2.922572E-1,5E-1,1.4016795E-1,1.20723225E-1,1.4684892E-1,2.3083574E-1,1.2101063E-1,-1.6923845E-2,-2.8965224E-2,-1.557918E-2,2.3972781E-2,2.5900701E-2,2.863004E-3,-3E-2,7.6543395E-3],"split_indices":[14,117,136,4,141,9,0,0,0,0,0,0,0,0,0],"split_type":[0,0,0,0,0,0,0,0,0,0,0,0,0,0,0],"sum_hessian":[2.249885E3,1.7572948E3,4.9259024E2,1.7161248E3,4.11701E1,3.264453E2,1.6614493E2,3.2298685E2,1.3931378E3,2.1115171E1,2.0054928E1,1.3415277E2,1.9229254E2,8.732562E1,7.8819305E1],"tree_param":{"num_deleted":"0","num_feature":"148","num_nodes":"15","size_leaf_vector":"0"}},{"base_weights":[-6.468282E-1,-8.658542E-1,-1.1052699E-2,-9.2879015E-1,1.4382483E-2,-3.66043E-1,5.9264594E-1,-9.6070606E-1,-3.5703918E-1,7.5507516E-1,-6.764672E-1,-3.158049E-2,-9.5254767E-1,7.753664E-1,-2.7641466E-1],"categories":[],"categories_nodes":[],"categories_segments":[],"categories_sizes":[],"default_left":[1,1,1,1,1,1,1,0,0,0,0,0,0,0,0],"id":57,"left_children":[1,3,5,7,9,11,13,-1,-1,-1,-1,-1,-1,-1,-1],"loss_changes":[3.101173E2,9.18811E1,1.2360035E2,2.7263306E1,5.9429447E1,7.111828E1,3.4540863E1,0E0,0E0,0E0,0E0,0E0,0E0,0E0,0E0],"parents":[2147483647,0,0,1,1,2,2,3,3,4,4,5,5,6,6],"right_children":[2,4,6,8,10,12,14,-1,-1,-1,-1,-1,-1,-1,-1],"split_conditions":[4.6688557E-2,3.8466984E-1,1.7345273E-1,5E-1,2.5E-1,3.883721E-1,2.9252642E-1,-2.8821182E-2,-1.0711175E-2,2.2652254E-2,-2.0294014E-2,-9.4741466E-4,-2.857643E-2,2.3260992E-2,-8.292439E-3],"split_indices":[8,140,125,68,101,13,136,0,0,0,0,0,0,0,0],"split_type":[0,0,0,0,0,0,0,0,0,0,0,0,0,0,0],"sum_hessian":[2.2247588E3,1.6539106E3,5.708481E2,1.5434847E3,1.1042585E2,3.602024E2,2.1064568E2,1.4600505E3,8.3434204E1,5.3219326E1,5.7206524E1,2.3125168E2,1.2895073E2,1.7435416E2,3.6291523E1],"tree_param":{"num_deleted":"0","num_feature":"148","num_nodes":"15","size_leaf_vector":"0"}},{"base_weights":[-6.382417E-1,-8.1713176E-1,1.0330855E-1,7.76768E-2,-8.622342E-1,3.7662762E-1,-5.240729E-1,8.173368E-1,-9.196126E-1,-8.872523E-1,1.4659579E-1,6.503984E-2,9.1421664E-1,-3.4776903E-3,-1E0],"categories":[],"categories_nodes":[],"categories_segments":[],"categories_sizes":[],"default_left":[1,1,1,1,1,1,1,0,0,0,0,0,0,0,0],"id":58,"left_children":[1,3,5,7,9,11,13,-1,-1,-1,-1,-1,-1,-1,-1],"loss_changes":[2.9250806E2,7.1882324E1,7.4425125E1,6.679845E1,4.307666E1,5.0344746E1,4.345927E1,0E0,0E0,0E0,0E0,0E0,0E0,0E0,0E0],"parents":[2147483647,0,0,1,1,2,2,3,3,4,4,5,5,6,6],"right_children":[2,4,6,8,10,12,14,-1,-1,-1,-1,-1,-1,-1,-1],"split_conditions":[9.9979854E-1,2.6048094E-2,1.6114637E-1,3.4651163E-1,5E-1,4.0035498E-1,1.5999954E-2,2.4520103E-2,-2.7588377E-2,-2.6617568E-2,4.3978738E-3,1.9511953E-3,2.7426498E-2,-1.04330706E-4,-3E-2],"split_indices":[15,4,136,13,117,3,4,0,0,0,0,0,0,0,0],"split_type":[0,0,0,0,0,0,0,0,0,0,0,0,0,0,0],"sum_hessian":[2.1999902E3,1.7722726E3,4.277177E2,8.487822E1,1.6873944E3,2.9874402E2,1.289737E2,4.9049427E1,3.5828796E1,1.646941E3,4.0453358E1,1.9109703E2,1.0764699E2,7.3879135E1,5.5094563E1],"tree_param":{"num_deleted":"0","num_feature":"148","num_nodes":"15","size_leaf_vector":"0"}},{"base_weights":[-5.84788E-1,-7.929548E-1,1.4567989E-1,-8.406095E-1,-1.2237423E-1,3.706403E-1,-6.791655E-1,-8.92869E-1,-2.09098E-1,5.9338933E-1,-8.0363566E-1,4.2860467E-2,7.4523604E-1,4.7704482E-1,-1E0],"categories":[],"categories_nodes":[],"categories_segments":[],"categories_sizes":[],"default_left":[1,1,1,1,1,1,1,0,0,0,0,0,0,0,0],"id":59,"left_children":[1,3,5,7,9,11,13,-1,-1,-1,-1,-1,-1,-1,-1],"loss_changes":[3.3427863E2,5.4303955E1,9.153583E1,5.2111084E1,5.8326805E1,4.7326054E1,5.516249E1,0E0,0E0,0E0,0E0,0E0,0E0,0E0,0E0],"parents":[2147483647,0,0,1,1,2,2,3,3,4,4,5,5,6,6],"right_children":[2,4,6,8,10,12,14,-1,-1,-1,-1,-1,-1,-1,-1],"split_conditions":[2.9127365E-1,3.8466984E-1,2.4575087E-1,8.895232E-2,2.5E-1,2.5E-1,1.25E-1,-2.6786068E-2,-6.27294E-3,1.780168E-2,-2.410907E-2,1.285814E-3,2.235708E-2,1.4311344E-2,-3E-2],"split_indices":[14,140,136,10,101,38,77,0,0,0,0,0,0,0,0],"split_type":[0,0,0,0,0,0,0,0,0,0,0,0,0,0,0],"sum_hessian":[2.1930442E3,1.7065756E3,4.8646854E2,1.5926183E3,1.1395732E2,3.8344214E2,1.030264E2,1.4697782E3,1.2284003E2,5.5689507E1,5.826782E1,2.0618085E2,1.7726128E2,2.8715218E1,7.431118E1],"tree_param":{"num_deleted":"0","num_feature":"148","num_nodes":"15","size_leaf_vector":"0"}},{"base_weights":[-5.913268E-1,-8.0481535E-1,4.3262787E-2,-8.655838E-1,-1.1690048E-1,-8.950372E-2,1E0,-9.1274774E-1,-2.0487364E-1,1E0,-4.8962113E-1,-3.5905528E-1,4.2099208E-1],"categories":[],"categories_nodes":[],"categories_segments":[],"categories_sizes":[],"default_left":[1,1,1,1,1,1,0,0,0,0,0,0,0],"id":60,"left_children":[1,3,5,7,9,11,-1,-1,-1,-1,-1,-1,-1],"loss_changes":[2.911682E2,6.688196E1,8.908868E1,4.546753E1,6.343823E1,6.872956E1,0E0,0E0,0E0,0E0,0E0,0E0,0E0],"parents":[2147483647,0,0,1,1,2,2,3,3,4,4,5,5],"right_children":[2,4,6,8,10,12,-1,-1,-1,-1,-1,-1,-1],"split_conditions":[5.0607912E-2,1.6666667E-1,4.162234E-1,5E-1,1.6976744E-1,1.803792E-1,3E-2,-2.7382432E-2,-6.146209E-3,3E-2,-1.4688633E-2,-1.0771658E-2,1.2629762E-2],"split_indices":[8,84,0,68,13,125,0,0,0,0,0,0,0],"split_type":[0,0,0,0,0,0,0,0,0,0,0,0,0],"sum_hessian":[2.1452012E3,1.6047319E3,5.404693E2,1.4737565E3,1.309755E2,4.9322046E2,4.724881E1,1.3745181E3,9.9238434E1,2.8743347E1,1.0223214E2,3.2338968E2,1.6983076E2],"tree_param":{"num_deleted":"0","num_feature":"148","num_nodes":"13","size_leaf_vector":"0"}},{"base_weights":[-5.780753E-1,-8.094827E-1,4.6717223E-2,-8.6216956E-1,-2.6481925E-2,2.2693461E-1,-8.215118E-1,7.804125E-1,-8.866562E-1,6.3054734E-1,-1E0,-2.8541178E-1,5.022272E-1,-1E0,-6.3770483E-3],"categories":[],"categories_nodes":[],"categories_segments":[],"categories_sizes":[],"default_left":[1,1,1,1,1,1,1,0,0,0,0,0,0,0,0],"id":61,"left_children":[1,3,5,7,9,11,13,-1,-1,-1,-1,-1,-1,-1,-1],"loss_changes":[3.095716E2,6.4315796E1,9.1467384E1,6.0808594E1,7.4274254E1,6.861261E1,1.732138E1,0E0,0E0,0E0,0E0,0E0,0E0,0E0,0E0],"parents":[2147483647,0,0,1,1,2,2,3,3,4,4,5,5,6,6],"right_children":[2,4,6,8,10,12,14,-1,-1,-1,-1,-1,-1,-1,-1],"split_conditions":[4.7642745E-2,5E-1,2.7420777E-1,4.351585E-2,3.2587424E-1,6.25E-2,2.5966352E-1,2.3412375E-2,-2.6599687E-2,1.891642E-2,-3E-2,-8.562353E-3,1.5066816E-2,-3E-2,-1.9131144E-4],"split_indices":[8,27,16,9,133,0,141,0,0,0,0,0,0,0,0],"split_type":[0,0,0,0,0,0,0,0,0,0,0,0,0,0,0],"sum_hessian":[2.1371663E3,1.559055E3,5.781113E2,1.4604277E3,9.86273E1,4.8043433E2,9.7677E1,2.0202635E1,1.4402251E3,6.2246693E1,3.6380604E1,1.677977E2,3.1263663E2,7.674644E1,2.0930563E1],"tree_param":{"num_deleted":"0","num_feature":"148","num_nodes":"15","size_leaf_vector":"0"}},{"base_weights":[-5.2780855E-1,-7.6135486E-1,1.2926054E-1,-7.8675574E-1,8.057688E-1,2.6745057E-1,-8.7734646E-1,-8.710617E-1,-3.2517737E-1,6.286814E-1,-1.0731897E-1,-1E0,-0E0],"categories":[],"categories_nodes":[],"categories_segments":[],"categories_sizes":[],"default_left":[1,1,1,1,0,1,1,0,0,0,0,0,0],"id":62,"left_children":[1,3,5,7,-1,9,11,-1,-1,-1,-1,-1,-1],"loss_changes":[3.238839E2,6.3736023E1,7.793256E1,5.8853516E1,0E0,6.663649E1,1.9212952E1,0E0,0E0,0E0,0E0,0E0,0E0],"parents":[2147483647,0,0,1,1,2,2,3,3,5,5,6,6],"right_children":[2,4,6,8,-1,10,12,-1,-1,-1,-1,-1,-1],"split_conditions":[5.0607912E-2,8.2339954E-1,8.9641166E-1,2.5E-1,2.4173062E-2,2.9020172E-1,2.3283584E-1,-2.613185E-2,-9.755321E-3,1.8860443E-2,-3.2195689E-3,-3E-2,-0E0],"split_indices":[8,140,5,56,0,9,125,0,0,0,0,0,0],"split_type":[0,0,0,0,0,0,0,0,0,0,0,0,0],"sum_hessian":[2.105617E3,1.5532263E3,5.5239075E2,1.5298003E3,2.3425995E1,4.874904E2,6.490033E1,1.2914154E3,2.383849E2,2.4740411E2,2.4008627E2,4.4771942E1,2.0128387E1],"tree_param":{"num_deleted":"0","num_feature":"148","num_nodes":"13","size_leaf_vector":"0"}},{"base_weights":[-5.62876E-1,-7.6815444E-1,-9.584574E-3,-8.210825E-1,3.3324707E-2,-5.296974E-1,2.3011006E-1,-8.6401546E-1,1.382005E-1,5.6337965E-1,-8.969502E-1,6.622395E-2,-8.2311594E-1,4.2133495E-1,-7.4044E-1],"categories":[],"categories_nodes":[],"categories_segments":[],"categories_sizes":[],"default_left":[1,1,1,1,1,1,1,0,0,0,0,0,0,0,0],"id":63,"left_children":[1,3,5,7,9,11,13,-1,-1,-1,-1,-1,-1,-1,-1],"loss_changes":[2.3381061E2,6.3840637E1,7.02591E1,5.84151E1,4.8610897E1,3.129232E1,7.240589E1,0E0,0E0,0E0,0E0,0E0,0E0,0E0,0E0],"parents":[2147483647,0,0,1,1,2,2,3,3,4,4,5,5,6,6],"right_children":[2,4,6,8,10,12,14,-1,-1,-1,-1,-1,-1,-1,-1],"split_conditions":[4.6662904E-2,5E-1,5.4521278E-2,5E-1,3.254159E-1,1.6976744E-1,3.0366364E-1,-2.5920464E-2,4.1460153E-3,1.6901389E-2,-2.6908506E-2,1.9867185E-3,-2.4693478E-2,1.2640048E-2,-2.22132E-2],"split_indices":[8,27,0,94,133,13,16,0,0,0,0,0,0,0,0],"split_type":[0,0,0,0,0,0,0,0,0,0,0,0,0,0,0],"sum_hessian":[2.0562983E3,1.498993E3,5.573053E2,1.4061545E3,9.283849E1,1.7488638E2,3.824189E2,1.3462396E3,5.9914883E1,5.9857235E1,3.2981262E1,5.830254E1,1.1658384E2,3.2079202E2,6.162689E1],"tree_param":{"num_deleted":"0","num_feature":"148","num_nodes":"15","size_leaf_vector":"0"}},{"base_weights":[-5.3551084E-1,6.720348E-2,-7.184143E-1,3.4963876E-1,-3.519663E-1,-8.268569E-1,-3.7192136E-1,6.450235E-2,7.79159E-1,5.4428244E-1,-6.605841E-1,-3.6517638E-1,-8.9905053E-1,2.6879078E-1,-5.6998354E-1],"categories":[],"categories_nodes":[],"categories_segments":[],"categories_sizes":[],"default_left":[1,1,1,1,1,1,1,0,0,0,0,0,0,0,0],"id":64,"left_children":[1,3,5,7,9,11,13,-1,-1,-1,-1,-1,-1,-1,-1],"loss_changes":[2.2550732E2,5.7023796E1,5.8090942E1,3.503887E1,5.4664394E1,3.883203E1,4.856485E1,0E0,0E0,0E0,0E0,0E0,0E0,0E0,0E0],"parents":[2147483647,0,0,1,1,2,2,3,3,4,4,5,5,6,6],"right_children":[2,4,6,8,10,12,14,-1,-1,-1,-1,-1,-1,-1,-1],"split_conditions":[4.7679342E-2,1.09947644E-1,1.6666667E-1,1.6666667E-1,1.25E-1,3.0245129E-2,1.2216753E-1,1.9350705E-3,2.337477E-2,1.6328473E-2,-1.9817522E-2,-1.0955291E-2,-2.6971515E-2,8.063723E-3,-1.7099505E-2],"split_indices":[4,136,32,97,77,145,4,0,0,0,0,0,0,0,0],"split_type":[0,0,0,0,0,0,0,0,0,0,0,0,0,0,0],"sum_hessian":[2.0410807E3,4.754981E2,1.5655825E3,2.8444583E2,1.9105226E2,1.1894327E3,3.7614984E2,1.7289383E2,1.1155201E2,4.835852E1,1.4269374E2,1.631529E2,1.0262798E3,8.8514465E1,2.8763538E2],"tree_param":{"num_deleted":"0","num_feature":"148","num_nodes":"15","size_leaf_vector":"0"}},{"base_weights":[-5.3254205E-1,-7.854812E-1,7.151868E-2,-8.282353E-1,-1.3289797E-1,-5.8661866E-1,2.6001474E-1,4.644306E-1,-8.4876573E-1,4.4093403E-1,-7.7594393E-1,2.6569417E-1,-9.453498E-1,-8.469898E-2,6.312546E-1],"categories":[],"categories_nodes":[],"categories_segments":[],"categories_sizes":[],"default_left":[1,1,1,1,1,1,1,0,0,0,0,0,0,0,0],"id":65,"left_children":[1,3,5,7,9,11,13,-1,-1,-1,-1,-1,-1,-1,-1],"loss_changes":[3.1064075E2,3.9624695E1,7.51666E1,3.6799805E1,3.478622E1,4.200377E1,6.0371635E1,0E0,0E0,0E0,0E0,0E0,0E0,0E0,0E0],"parents":[2147483647,0,0,1,1,2,2,3,3,4,4,5,5,6,6],"right_children":[2,4,6,8,10,12,14,-1,-1,-1,-1,-1,-1,-1,-1],"split_conditions":[4.6652645E-2,5E-1,9.5596075E-1,4.351585E-2,1.3847542E-1,2.8213257E-1,7.965792E-2,1.3932917E-2,-2.5462972E-2,1.3228021E-2,-2.3278318E-2,7.970825E-3,-2.8360493E-2,-2.5409695E-3,1.8937638E-2],"split_indices":[8,27,15,9,136,9,125,0,0,0,0,0,0,0,0],"split_type":[0,0,0,0,0,0,0,0,0,0,0,0,0,0,0],"sum_hessian":[2.028856E3,1.4295664E3,5.992896E2,1.3408949E3,8.867152E1,1.3209329E2,4.671963E2,2.0010769E1,1.3208842E3,4.7242985E1,4.142853E1,3.9275726E1,9.281756E1,2.4322217E2,2.2397412E2],"tree_param":{"num_deleted":"0","num_feature":"148","num_nodes":"15","size_leaf_vector":"0"}},{"base_weights":[-5.118068E-1,-6.7438406E-1,1.6767354E-1,-7.41076E-1,6.745314E-2,-2.8615224E-1,5.994155E-1,-7.8567386E-1,-8.0134615E-2,-3.7651554E-1,9.602679E-1,-8.486148E-1,3.2769176E-1,7.322467E-1,-3.7384948E-1],"categories":[],"categories_nodes":[],"categories_segments":[],"categories_sizes":[],"default_left":[1,1,1,1,1,1,1,0,0,0,0,0,0,0,0],"id":66,"left_children":[1,3,5,7,9,11,13,-1,-1,-1,-1,-1,-1,-1,-1],"loss_changes":[2.221919E2,8.038916E1,7.693775E1,4.363507E1,5.5106953E1,6.709535E1,2.676474E1,0E0,0E0,0E0,0E0,0E0,0E0,0E0,0E0],"parents":[2147483647,0,0,1,1,2,2,3,3,4,4,5,5,6,6],"right_children":[2,4,6,8,10,12,14,-1,-1,-1,-1,-1,-1,-1,-1],"split_conditions":[7.916175E-2,1.6666667E-1,3.6365625E-1,3.321512E-1,1.5613848E-1,2.5E-1,9.2355025E-1,-2.3570215E-2,-2.4040383E-3,-1.1295466E-2,2.8808037E-2,-2.5458444E-2,9.830752E-3,2.19674E-2,-1.1215484E-2],"split_indices":[8,84,3,14,125,61,5,0,0,0,0,0,0,0,0],"split_type":[0,0,0,0,0,0,0,0,0,0,0,0,0,0,0],"sum_hessian":[2.0052502E3,1.6181918E3,3.8705844E2,1.4848024E3,1.333895E2,1.8906284E2,1.979956E2,1.3903779E3,9.442445E1,9.006528E1,4.332422E1,9.818788E1,9.087496E1,1.7486092E2,2.3134687E1],"tree_param":{"num_deleted":"0","num_feature":"148","num_nodes":"15","size_leaf_vector":"0"}},{"base_weights":[-5.5947876E-1,-7.1583396E-1,5.517885E-2,-7.552022E-1,4.311051E-1,-2.7999675E-1,5.015467E-1,-7.8422874E-1,-1.0525247E-1,-2.5216717E-1,1E0,-8.0598813E-1,-1.0408158E-2,-2.7679026E-1,7.692356E-1],"categories":[],"categories_nodes":[],"categories_segments":[],"categories_sizes":[],"default_left":[1,1,1,1,1,1,1,0,0,0,0,0,0,0,0],"id":67,"left_children":[1,3,5,7,9,11,13,-1,-1,-1,-1,-1,-1,-1,-1],"loss_changes":[1.8687659E2,7.089441E1,5.9785545E1,2.80094E1,3.0341095E1,3.2323273E1,3.6307487E1,0E0,0E0,0E0,0E0,0E0,0E0,0E0,0E0],"parents":[2147483647,0,0,1,1,2,2,3,3,4,4,5,5,6,6],"right_children":[2,4,6,8,10,12,14,-1,-1,-1,-1,-1,-1,-1,-1],"split_conditions":[9.9975336E-1,4.6143615E-1,1.6993378E-1,5E-1,2.5566798E-1,4.6542555E-2,9.757206E-2,-2.3526862E-2,-3.157574E-3,-7.565015E-3,3E-2,-2.4179643E-2,-3.1224475E-4,-8.303707E-3,2.3077067E-2],"split_indices":[15,0,125,94,144,0,2,0,0,0,0,0,0,0,0],"split_type":[0,0,0,0,0,0,0,0,0,0,0,0,0,0,0],"sum_hessian":[1.9399701E3,1.5462999E3,3.9367007E2,1.4959226E3,5.037731E1,2.2531772E2,1.6835237E2,1.4313429E3,6.457974E1,2.9174456E1,2.1202858E1,7.446866E1,1.5084904E2,4.2993927E1,1.2535844E2],"tree_param":{"num_deleted":"0","num_feature":"148","num_nodes":"15","size_leaf_vector":"0"}},{"base_weights":[-5.0417966E-1,-5.082573E-2,-7.7575725E-1,3.9070052E-1,-3.433997E-1,-8.171156E-1,4.6393597E-1,1.2418508E-1,1E0,1.5813695E-1,-8.108021E-1,-8.4059274E-1,1.9622196E-1],"categories":[],"categories_nodes":[],"categories_segments":[],"categories_sizes":[],"default_left":[1,1,1,1,1,1,0,0,0,0,0,0,0],"id":68,"left_children":[1,3,5,7,9,11,-1,-1,-1,-1,-1,-1,-1],"loss_changes":[2.3748541E2,9.422069E1,6.2967285E1,6.463922E1,1.0317466E2,2.8316528E1,0E0,0E0,0E0,0E0,0E0,0E0,0E0],"parents":[2147483647,0,0,1,1,2,2,3,3,4,4,5,5],"right_children":[2,4,6,8,10,12,-1,-1,-1,-1,-1,-1,-1],"split_conditions":[1.2068108E-1,2.116279E-1,6.114781E-1,2.5E-1,5.937828E-2,5E-1,1.39180785E-2,3.7255522E-3,3E-2,4.7441083E-3,-2.4324063E-2,-2.521778E-2,5.8866586E-3],"split_indices":[4,13,140,60,146,45,0,0,0,0,0,0,0],"split_type":[0,0,0,0,0,0,0,0,0,0,0,0,0],"sum_hessian":[1.9271727E3,7.232469E2,1.2039258E3,2.877984E2,4.354485E2,1.1659897E3,3.793612E1,2.2570674E2,6.2091663E1,2.1083273E2,2.2461575E2,1.1400978E3,2.5891895E1],"tree_param":{"num_deleted":"0","num_feature":"148","num_nodes":"13","size_leaf_vector":"0"}},{"base_weights":[-4.86315E-1,-6.790855E-2,-7.7896833E-1,-2.9299766E-1,4.450989E-1,-8.6632985E-1,-3.9055932E-1,-5.1237607E-1,4.1149715E-1,7.5885016E-1,-2.020348E-1,-9.0532327E-1,1.536738E-1,4.5972797E-1,-7.0556134E-1],"categories":[],"categories_nodes":[],"categories_segments":[],"categories_sizes":[],"default_left":[1,1,1,1,1,1,1,0,0,0,0,0,0,0,0],"id":69,"left_children":[1,3,5,7,9,11,13,-1,-1,-1,-1,-1,-1,-1,-1],"loss_changes":[2.3820847E2,9.329049E1,3.7933167E1,8.7303116E1,5.050749E1,3.753723E1,5.8642075E1,0E0,0E0,0E0,0E0,0E0,0E0,0E0,0E0],"parents":[2147483647,0,0,1,1,2,2,3,3,4,4,5,5,6,6],"right_children":[2,4,6,8,10,12,14,-1,-1,-1,-1,-1,-1,-1,-1],"split_conditions":[1.3928986E-1,2.5E-1,4.48927E-1,1.9222285E-1,1.7870373E-1,7.68853E-1,4.441927E-2,-1.5371282E-2,1.23449145E-2,2.2765504E-2,-6.061044E-3,-2.7159698E-2,4.610214E-3,1.3791839E-2,-2.116684E-2],"split_indices":[4,25,3,8,136,7,136,0,0,0,0,0,0,0,0],"split_type":[0,0,0,0,0,0,0,0,0,0,0,0,0,0,0],"sum_hessian":[1.9439425E3,8.015224E2,1.14242E3,5.579783E2,2.4354413E2,9.2982764E2,2.125924E2,4.261119E2,1.3186635E2,1.6378363E2,7.9760506E1,8.95944E2,3.3883698E1,5.7078205E1,1.555142E2],"tree_param":{"num_deleted":"0","num_feature":"148","num_nodes":"15","size_leaf_vector":"0"}},{"base_weights":[-5.490463E-1,-7.018819E-1,6.8111956E-2,-7.5946325E-1,-5.9976146E-2,-3.401069E-1,5.521181E-1,-8.697137E-1,-4.1904742E-1,1E0,-4.466525E-1,-1E0,-1.2625465E-1,7.542862E-1,-5.041875E-1],"categories":[],"categories_nodes":[],"categories_segments":[],"categories_sizes":[],"default_left":[1,1,1,1,1,1,1,0,0,0,0,0,0,0,0],"id":70,"left_children":[1,3,5,7,9,11,13,-1,-1,-1,-1,-1,-1,-1,-1],"loss_changes":[1.7411792E2,5.4474243E1,7.340068E1,4.9911743E1,6.989184E1,3.557621E1,3.7347485E1,0E0,0E0,0E0,0E0,0E0,0E0,0E0,0E0],"parents":[2147483647,0,0,1,1,2,2,3,3,4,4,5,5,6,6],"right_children":[2,4,6,8,10,12,14,-1,-1,-1,-1,-1,-1,-1,-1],"split_conditions":[3.3160964E-1,1.6666667E-1,2.5E-1,4.0267998E-1,5.8081355E-2,2.7925527E-2,1.562428E-1,-2.6091412E-2,-1.2571422E-2,3E-2,-1.3399575E-2,-3E-2,-3.7876393E-3,2.2628587E-2,-1.5125626E-2],"split_indices":[14,84,30,145,16,0,137,0,0,0,0,0,0,0,0],"split_type":[0,0,0,0,0,0,0,0,0,0,0,0,0,0,0],"sum_hessian":[1.8411613E3,1.4755071E3,3.656542E2,1.3534979E3,1.2200912E2,1.9870882E2,1.6694539E2,1.01909924E3,3.343987E2,2.3097025E1,9.891209E1,3.6382866E1,1.6232594E2,1.4082027E2,2.6125132E1],"tree_param":{"num_deleted":"0","num_feature":"148","num_nodes":"15","size_leaf_vector":"0"}},{"base_weights":[-4.933256E-1,-7.9054046E-1,-1.7730717E-2,-8.162704E-1,4.039832E-1,5.493112E-1,-2.8742963E-1,-8.4572273E-1,1.7789945E-2,-5.920723E-2,8.0960524E-1,-8.6900187E-1,3.141515E-2],"categories":[],"categories_nodes":[],"categories_segments":[],"categories_sizes":[],"default_left":[1,1,1,1,0,1,1,0,0,0,0,0,0],"id":71,"left_children":[1,3,5,7,-1,9,11,-1,-1,-1,-1,-1,-1],"loss_changes":[2.631413E2,3.61792E1,1.10456085E2,2.7677307E1,0E0,3.7057434E1,9.089278E1,0E0,0E0,0E0,0E0,0E0,0E0],"parents":[2147483647,0,0,1,1,2,2,3,3,5,5,6,6],"right_children":[2,4,6,8,-1,10,12,-1,-1,-1,-1,-1,-1],"split_conditions":[2.6835274E-2,7.5E-1,1.6976744E-1,5.017068E-1,1.2119496E-2,5.186171E-2,2.5E-1,-2.5371682E-2,5.3369836E-4,-1.7762169E-3,2.4288157E-2,-2.6070055E-2,9.4245444E-4],"split_indices":[8,81,13,126,0,0,52,0,0,0,0,0,0],"split_type":[0,0,0,0,0,0,0,0,0,0,0,0,0],"sum_hessian":[1.8592667E3,1.143037E3,7.162298E2,1.1198171E3,2.3219843E1,2.2988338E2,4.863464E2,1.081667E3,3.8150166E1,6.9409256E1,1.6047412E2,1.7066891E2,3.156775E2],"tree_param":{"num_deleted":"0","num_feature":"148","num_nodes":"13","size_leaf_vector":"0"}},{"base_weights":[-4.7343573E-1,-7.119689E-1,-8.654876E-2,-8.221555E-1,-2.6445648E-1,-6.1950237E-1,1.6435674E-1,-5.8126205E-1,-9.698799E-1,1E0,-4.976884E-1,-7.4531424E-1,2.523652E-1,2.874945E-1,-7.245554E-1],"categories":[],"categories_nodes":[],"categories_segments":[],"categories_sizes":[],"default_left":[1,1,1,1,1,1,1,0,0,0,0,0,0,0,0],"id":72,"left_children":[1,3,5,7,9,11,13,-1,-1,-1,-1,-1,-1,-1,-1],"loss_changes":[1.6925436E2,5.537567E1,9.4452286E1,3.0859497E1,7.509441E1,2.5353622E1,5.3207405E1,0E0,0E0,0E0,0E0,0E0,0E0,0E0,0E0],"parents":[2147483647,0,0,1,1,2,2,3,3,4,4,5,5,6,6],"right_children":[2,4,6,8,10,12,14,-1,-1,-1,-1,-1,-1,-1,-1],"split_conditions":[2.6845533E-2,4.456192E-1,1.6666667E-1,2.115848E-1,4.5876032E-1,5.854349E-1,4.3673313E-1,-1.743786E-2,-2.9096397E-2,3E-2,-1.4930652E-2,-2.2359427E-2,7.570956E-3,8.624835E-3,-2.1736661E-2],"split_indices":[8,3,45,3,3,145,136,0,0,0,0,0,0,0,0],"split_type":[0,0,0,0,0,0,0,0,0,0,0,0,0,0,0],"sum_hessian":[1.8332584E3,1.1325653E3,7.0069305E2,9.068878E2,2.2567752E2,2.2312093E2,4.7757214E2,3.499057E2,5.569821E2,3.0929268E1,1.9474825E2,1.9539134E2,2.7729568E1,4.211157E2,5.6456436E1],"tree_param":{"num_deleted":"0","num_feature":"148","num_nodes":"15","size_leaf_vector":"0"}},{"base_weights":[-4.5198742E-1,-6.505746E-1,-1.0019932E-2,-7.086134E-1,1.818918E-1,2.1491055E-1,-8.862466E-1,-7.675275E-1,1.5399604E-1,-4.4998303E-1,1E0,-7.530224E-2,7.892082E-1,-1.4405113E-1,-1E0],"categories":[],"categories_nodes":[],"categories_segments":[],"categories_sizes":[],"default_left":[1,1,1,1,1,1,1,0,0,0,0,0,0,0,0],"id":73,"left_children":[1,3,5,7,9,11,13,-1,-1,-1,-1,-1,-1,-1,-1],"loss_changes":[1.5984482E2,6.1130615E1,1.1256215E2,6.012097E1,6.4567E1,7.591415E1,2.0607635E1,0E0,0E0,0E0,0E0,0E0,0E0,0E0,0E0],"parents":[2147483647,0,0,1,1,2,2,3,3,4,4,5,5,6,6],"right_children":[2,4,6,8,10,12,14,-1,-1,-1,-1,-1,-1,-1,-1],"split_conditions":[9.831952E-1,3.9228725E-1,8.4977746E-1,2.5E-1,2.2628993E-1,3.6992055E-1,2.0789527E-4,-2.3025826E-2,4.619881E-3,-1.3499491E-2,3E-2,-2.2590673E-3,2.3676245E-2,-4.3215337E-3,-3E-2],"split_indices":[15,0,5,109,129,3,146,0,0,0,0,0,0,0,0],"split_type":[0,0,0,0,0,0,0,0,0,0,0,0,0,0,0],"sum_hessian":[1.8189233E3,1.2540388E3,5.6488446E2,1.1727546E3,8.12842E1,4.510334E2,1.138511E2,1.0981287E3,7.462593E1,5.588904E1,2.5395159E1,3.0108023E2,1.4995316E2,3.1297E1,8.255409E1],"tree_param":{"num_deleted":"0","num_feature":"148","num_nodes":"15","size_leaf_vector":"0"}},{"base_weights":[-4.946485E-1,-6.853697E-1,1.3698274E-1,1.654119E-1,-7.341424E-1,-1.716784E-1,4.544276E-1,-9.0662557E-1,1E0,-7.7134305E-1,1.00852065E-1,2.0067778E-1,-4.870125E-1,6.131593E-1,-7.5053823E-1],"categories":[],"categories_nodes":[],"categories_segments":[],"categories_sizes":[],"default_left":[1,1,1,1,1,1,1,0,0,0,0,0,0,0,0],"id":74,"left_children":[1,3,5,7,9,11,13,-1,-1,-1,-1,-1,-1,-1,-1],"loss_changes":[2.184346E2,5.8116943E1,4.164621E1,9.105348E1,4.1158875E1,2.56893E1,4.1295734E1,0E0,0E0,0E0,0E0,0E0,0E0,0E0,0E0],"parents":[2147483647,0,0,1,1,2,2,3,3,4,4,5,5,6,6],"right_children":[2,4,6,8,10,12,14,-1,-1,-1,-1,-1,-1,-1,-1],"split_conditions":[6.9465965E-2,1.9970115E-2,3.6371586E-1,1.875545E-2,2.5E-1,1.7688558E-2,3.539662E-1,-2.7198767E-2,3E-2,-2.314029E-2,3.0255618E-3,6.020333E-3,-1.4610375E-2,1.839478E-2,-2.2516146E-2],"split_indices":[8,16,3,8,105,146,16,0,0,0,0,0,0,0,0],"split_type":[0,0,0,0,0,0,0,0,0,0,0,0,0,0,0],"sum_hessian":[1.8078271E3,1.3884633E3,4.1936392E2,7.485882E1,1.3136044E3,2.1313321E2,2.0623071E2,3.7866947E1,3.6991867E1,1.2578505E3,5.5753918E1,9.807379E1,1.1505942E2,1.8343202E2,2.2798687E1],"tree_param":{"num_deleted":"0","num_feature":"148","num_nodes":"15","size_leaf_vector":"0"}},{"base_weights":[-4.5578718E-1,-2.1619769E-2,-7.7381676E-1,3.9379594E-1,-3.3197185E-1,-8.269783E-1,1.9781153E-1,5.633134E-1,-5.123624E-1,-5.966918E-1,1.4535679E-1,-8.607256E-1,4.2249176E-1,-7.112639E-1,8.231489E-1],"categories":[],"categories_nodes":[],"categories_segments":[],"categories_sizes":[],"default_left":[1,1,1,1,1,1,1,0,0,0,0,0,0,0,0],"id":75,"left_children":[1,3,5,7,9,11,13,-1,-1,-1,-1,-1,-1,-1,-1],"loss_changes":[2.4609827E2,9.798007E1,5.3654602E1,5.0734085E1,5.5231304E1,4.221631E1,3.3273956E1,0E0,0E0,0E0,0E0,0E0,0E0,0E0,0E0],"parents":[2147483647,0,0,1,1,2,2,3,3,4,4,5,5,6,6],"right_children":[2,4,6,8,10,12,14,-1,-1,-1,-1,-1,-1,-1,-1],"split_conditions":[1.3594896E-1,2.116279E-1,7.5E-1,8.364607E-1,2.5E-1,8.3755076E-1,7.0606285E-1,1.6899403E-2,-1.5370872E-2,-1.7900754E-2,4.3607038E-3,-2.5821768E-2,1.2674753E-2,-2.1337917E-2,2.4694467E-2],"split_indices":[4,13,70,6,30,11,11,0,0,0,0,0,0,0,0],"split_type":[0,0,0,0,0,0,0,0,0,0,0,0,0,0,0],"sum_hessian":[1.7800305E3,7.5389264E2,1.0261378E3,3.219775E2,4.3191513E2,9.7334955E2,5.2788265E1,2.721494E2,4.9828094E1,2.7749762E2,1.5441751E2,9.48612E2,2.4737574E1,2.1319305E1,3.146896E1],"tree_param":{"num_deleted":"0","num_feature":"148","num_nodes":"15","size_leaf_vector":"0"}},{"base_weights":[-4.3795922E-1,-5.567629E-1,4.517845E-1,-7.3249286E-1,-2.9930776E-1,-6.273008E-2,7.443149E-1,-7.917488E-1,1E0,1.9918638E-1,-5.172789E-1,5.272849E-1,-5.588454E-1,1.501868E-2,9.77365E-1],"categories":[],"categories_nodes":[],"categories_segments":[],"categories_sizes":[],"default_left":[1,1,1,1,1,1,1,0,0,0,0,0,0,0,0],"id":76,"left_children":[1,3,5,7,9,11,13,-1,-1,-1,-1,-1,-1,-1,-1],"loss_changes":[1.8846643E2,7.034543E1,3.1915882E1,1.1009512E2,6.997092E1,2.396518E1,2.279451E1,0E0,0E0,0E0,0E0,0E0,0E0,0E0,0E0],"parents":[2147483647,0,0,1,1,2,2,3,3,4,4,5,5,6,6],"right_children":[2,4,6,8,10,12,14,-1,-1,-1,-1,-1,-1,-1,-1],"split_conditions":[1.5641E-1,1.7755091E-2,1.0440101E-2,5E-1,1.6976744E-1,2.6202124E-2,4.0931053E-2,-2.3752464E-2,3E-2,5.9755915E-3,-1.5518367E-2,1.5818547E-2,-1.6765362E-2,4.505604E-4,2.932095E-2],"split_indices":[8,8,125,117,13,142,141,0,0,0,0,0,0,0,0],"split_type":[0,0,0,0,0,0,0,0,0,0,0,0,0,0,0],"sum_hessian":[1.7731375E3,1.5652151E3,2.0792238E2,9.271758E2,6.380393E2,7.603843E1,1.3188394E2,9.018108E2,2.5364977E1,1.9408495E2,4.439544E2,3.4592323E1,4.1446106E1,3.269629E1,9.918766E1],"tree_param":{"num_deleted":"0","num_feature":"148","num_nodes":"15","size_leaf_vector":"0"}},{"base_weights":[-4.1455945E-1,-7.0476663E-1,7.9845E-3,-7.41779E-1,6.418902E-1,2.942502E-1,-5.7055014E-1,-8.103312E-1,-2.7162972E-1,6.2741363E-1,-1.2505901E-1,-9.881471E-1,-3.5478283E-2],"categories":[],"categories_nodes":[],"categories_segments":[],"categories_sizes":[],"default_left":[1,1,1,1,0,1,1,0,0,0,0,0,0],"id":77,"left_children":[1,3,5,7,-1,9,11,-1,-1,-1,-1,-1,-1],"loss_changes":[2.1560577E2,5.3303528E1,1.1947191E2,3.2111877E1,0E0,6.767267E1,5.319599E1,0E0,0E0,0E0,0E0,0E0,0E0],"parents":[2147483647,0,0,1,1,2,2,3,3,5,5,6,6],"right_children":[2,4,6,8,-1,10,12,-1,-1,-1,-1,-1,-1],"split_conditions":[2.6845533E-2,5E-1,2.5E-1,3.848195E-1,1.9256707E-2,3.0057636E-1,1.2632978E-1,-2.4309937E-2,-8.148892E-3,1.882241E-2,-3.7517701E-3,-2.9644411E-2,-1.0643485E-3],"split_indices":[8,117,78,16,0,9,0,0,0,0,0,0,0],"split_type":[0,0,0,0,0,0,0,0,0,0,0,0,0],"sum_hessian":[1.7547351E3,1.0393113E3,7.1542377E2,1.0127242E3,2.658711E1,4.7955978E2,2.35864E2,8.820409E2,1.3068329E2,2.6658618E2,2.1297362E2,1.3113554E2,1.04728455E2],"tree_param":{"num_deleted":"0","num_feature":"148","num_nodes":"13","size_leaf_vector":"0"}},{"base_weights":[-4.3016264E-1,-6.5405566E-1,5.8856238E-2,-7.0098066E-1,6.3841504E-1,3.457263E-1,-5.9255975E-1,-7.4018914E-1,4.1857022E-1,1E0,-3.6204487E-1,6.5684134E-1,-7.195267E-2,-8.3285296E-1,5.126822E-1],"categories":[],"categories_nodes":[],"categories_segments":[],"categories_sizes":[],"default_left":[1,1,1,1,1,1,1,0,0,0,0,0,0,0,0],"id":78,"left_children":[1,3,5,7,9,11,13,-1,-1,-1,-1,-1,-1,-1,-1],"loss_changes":[1.895752E2,7.32731E1,1.0260679E2,5.1241882E1,3.4348797E1,4.9669266E1,4.5805874E1,0E0,0E0,0E0,0E0,0E0,0E0,0E0,0E0],"parents":[2147483647,0,0,1,1,2,2,3,3,4,4,5,5,6,6],"right_children":[2,4,6,8,10,12,14,-1,-1,-1,-1,-1,-1,-1,-1],"split_conditions":[4.6662904E-2,4.5079786E-1,1.7868567E-1,8.3542097E-1,4.3742523E-2,3.0057636E-1,3.1515956E-1,-2.2205673E-2,1.2557106E-2,3E-2,-1.0861346E-2,1.970524E-2,-2.15858E-3,-2.498559E-2,1.5380465E-2],"split_indices":[8,0,136,11,141,9,0,0,0,0,0,0,0,0,0],"split_type":[0,0,0,0,0,0,0,0,0,0,0,0,0,0,0],"sum_hessian":[1.7271409E3,1.1842054E3,5.429354E2,1.1439448E3,4.0260582E1,3.778803E2,1.6505511E2,1.106169E3,3.7775864E1,2.0076065E1,2.0184515E1,2.1578792E2,1.620924E2,1.36169E2,2.8886105E1],"tree_param":{"num_deleted":"0","num_feature":"148","num_nodes":"15","size_leaf_vector":"0"}},{"base_weights":[-4.236509E-1,-6.569906E-1,-8.727877E-2,-2.3002219E-1,-8.113167E-1,1.4160801E-1,-5.2174395E-1,-6.929734E-1,4.9715972E-1,-9.854922E-1,-5.5899817E-1,-3.524053E-1,4.5118183E-1,7.866727E-1,-6.567883E-1],"categories":[],"categories_nodes":[],"categories_segments":[],"categories_sizes":[],"default_left":[1,1,1,1,1,1,1,0,0,0,0,0,0,0,0],"id":79,"left_children":[1,3,5,7,9,11,13,-1,-1,-1,-1,-1,-1,-1,-1],"loss_changes":[1.3218661E2,6.504938E1,6.929715E1,9.128675E1,3.0596039E1,7.0320915E1,4.3912743E1,0E0,0E0,0E0,0E0,0E0,0E0,0E0,0E0],"parents":[2147483647,0,0,1,1,2,2,3,3,4,4,5,5,6,6],"right_children":[2,4,6,8,10,12,14,-1,-1,-1,-1,-1,-1,-1,-1],"split_conditions":[2.5624584E-2,1.6666667E-1,2.5E-1,2.5E-1,2.5E-1,1.0440101E-2,4.629731E-2,-2.07892E-2,1.4914791E-2,-2.9564766E-2,-1.6769944E-2,-1.0572159E-2,1.3535455E-2,2.3600182E-2,-1.9703649E-2],"split_indices":[8,98,78,89,103,125,10,0,0,0,0,0,0,0,0],"split_type":[0,0,0,0,0,0,0,0,0,0,0,0,0,0,0],"sum_hessian":[1.6835156E3,9.923701E2,6.911455E2,2.6534073E2,7.2702936E2,4.5374008E2,2.3740544E2,1.6226012E2,1.0308062E2,4.253793E2,3.0165005E2,1.7457089E2,2.791692E2,2.0960815E1,2.1644463E2],"tree_param":{"num_deleted":"0","num_feature":"148","num_nodes":"15","size_leaf_vector":"0"}},{"base_weights":[-3.598669E-1,3.200806E-2,-6.70525E-1,3.9343455E-1,-3.1706405E-1,-7.495425E-1,1.6274378E-1,5.16898E-1,-8.593359E-1,9.002261E-3,-7.385255E-1,-8.3317006E-1,-3.5713285E-1,-6.774058E-1,8.3226657E-1],"categories":[],"categories_nodes":[],"categories_segments":[],"categories_sizes":[],"default_left":[1,1,1,1,1,1,1,0,0,0,0,0,0,0,0],"id":80,"left_children":[1,3,5,7,9,11,13,-1,-1,-1,-1,-1,-1,-1,-1],"loss_changes":[2.0746532E2,9.574629E1,6.2958282E1,5.8903797E1,5.313061E1,2.7683777E1,4.9177185E1,0E0,0E0,0E0,0E0,0E0,0E0,0E0,0E0],"parents":[2147483647,0,0,1,1,2,2,3,3,4,4,5,5,6,6],"right_children":[2,4,6,8,10,12,14,-1,-1,-1,-1,-1,-1,-1,-1],"split_conditions":[1.3597977E-1,1.0198615E-1,1.6666667E-1,8.9641166E-1,4.222159E-2,4.4895643E-1,7.2534084E-1,1.5506939E-2,-2.5780076E-2,2.7006783E-4,-2.2155765E-2,-2.4995102E-2,-1.0713985E-2,-2.0322172E-2,2.4967996E-2],"split_indices":[4,16,84,5,4,3,11,0,0,0,0,0,0,0,0],"split_type":[0,0,0,0,0,0,0,0,0,0,0,0,0,0,0],"sum_hessian":[1.7002964E3,7.52824E2,9.4747235E2,3.697978E2,3.830262E2,8.657273E2,8.1745056E1,3.380967E2,3.1701052E1,2.1732965E2,1.6569655E2,7.110307E2,1.5469658E2,3.6193363E1,4.555169E1],"tree_param":{"num_deleted":"0","num_feature":"148","num_nodes":"15","size_leaf_vector":"0"}},{"base_weights":[-4.0626615E-1,-5.3746782E-2,-6.781628E-1,3.2027015E-1,-4.703927E-1,-7.428125E-1,1.8784443E-1,6.1250937E-1,-4.1330516E-1,-7.7091235E-1,1.0958763E-1,-7.895498E-1,9.060108E-2,-1E0,9.7540694E-1],"categories":[],"categories_nodes":[],"categories_segments":[],"categories_sizes":[],"default_left":[1,1,1,1,1,1,1,0,0,0,0,0,0,0,0],"id":81,"left_children":[1,3,5,7,9,11,13,-1,-1,-1,-1,-1,-1,-1,-1],"loss_changes":[1.5925385E2,1.1379729E2,5.2976654E1,8.322998E1,6.046766E1,3.429013E1,6.591337E1,0E0,0E0,0E0,0E0,0E0,0E0,0E0,0E0],"parents":[2147483647,0,0,1,1,2,2,3,3,4,4,5,5,6,6],"right_children":[2,4,6,8,10,12,14,-1,-1,-1,-1,-1,-1,-1,-1],"split_conditions":[1.3594896E-1,3.0230546E-1,5E-1,1.8455581E-1,1.2378006E-1,3.8388595E-1,2.6690465E-1,1.8375281E-2,-1.2399155E-2,-2.312737E-2,3.287629E-3,-2.3686495E-2,2.7180323E-3,-3E-2,2.9262207E-2],"split_indices":[4,9,124,136,125,140,138,0,0,0,0,0,0,0,0],"split_type":[0,0,0,0,0,0,0,0,0,0,0,0,0,0,0],